=== Run information ===

Scheme:weka.classifiers.trees.J48 -R -N 3 -Q 1 -M 2
Relation:     DATA=train-images.idx3-ubyte-LABELS=train-labels.idx1-ubyte
Instances:    60000
Attributes:   503
[list of attributes omitted]
Test mode:user supplied test set: size unknown (reading incrementally)

=== Classifier model (full training set) ===

J48 pruned tree
------------------

pixel101 <= 0
|   pixel388 <= 2
|   |   pixel379 <= 111
|   |   |   pixel569 <= 0
|   |   |   |   pixel98 <= 0
|   |   |   |   |   pixel460 <= 0
|   |   |   |   |   |   pixel406 <= 46
|   |   |   |   |   |   |   pixel155 <= 1
|   |   |   |   |   |   |   |   pixel567 <= 0
|   |   |   |   |   |   |   |   |   pixel122 <= 2
|   |   |   |   |   |   |   |   |   |   pixel131 <= 5
|   |   |   |   |   |   |   |   |   |   |   pixel161 <= 18
|   |   |   |   |   |   |   |   |   |   |   |   pixel157 <= 0
|   |   |   |   |   |   |   |   |   |   |   |   |   pixel556 <= 21
|   |   |   |   |   |   |   |   |   |   |   |   |   |   pixel515 <= 45
|   |   |   |   |   |   |   |   |   |   |   |   |   |   |   pixel153 <= 6
|   |   |   |   |   |   |   |   |   |   |   |   |   |   |   |   pixel378 <= 2
|   |   |   |   |   |   |   |   |   |   |   |   |   |   |   |   |   pixel433 <= 1
|   |   |   |   |   |   |   |   |   |   |   |   |   |   |   |   |   |   pixel610 <= 2
|   |   |   |   |   |   |   |   |   |   |   |   |   |   |   |   |   |   |   pixel462 <= 230
|   |   |   |   |   |   |   |   |   |   |   |   |   |   |   |   |   |   |   |   pixel350 <= 40: 7 (2933.0/24.0)
|   |   |   |   |   |   |   |   |   |   |   |   |   |   |   |   |   |   |   |   pixel350 > 40
|   |   |   |   |   |   |   |   |   |   |   |   |   |   |   |   |   |   |   |   |   pixel184 <= 98
|   |   |   |   |   |   |   |   |   |   |   |   |   |   |   |   |   |   |   |   |   |   pixel177 <= 66
|   |   |   |   |   |   |   |   |   |   |   |   |   |   |   |   |   |   |   |   |   |   |   pixel293 <= 79
|   |   |   |   |   |   |   |   |   |   |   |   |   |   |   |   |   |   |   |   |   |   |   |   pixel237 <= 165: 7 (13.0)
|   |   |   |   |   |   |   |   |   |   |   |   |   |   |   |   |   |   |   |   |   |   |   |   pixel237 > 165: 9 (7.0)
|   |   |   |   |   |   |   |   |   |   |   |   |   |   |   |   |   |   |   |   |   |   |   pixel293 > 79: 7 (197.0/2.0)
|   |   |   |   |   |   |   |   |   |   |   |   |   |   |   |   |   |   |   |   |   |   pixel177 > 66: 7 (3.0/1.0)
|   |   |   |   |   |   |   |   |   |   |   |   |   |   |   |   |   |   |   |   |   pixel184 > 98: 9 (19.0/7.0)
|   |   |   |   |   |   |   |   |   |   |   |   |   |   |   |   |   |   |   pixel462 > 230: 7 (34.0/8.0)
|   |   |   |   |   |   |   |   |   |   |   |   |   |   |   |   |   |   pixel610 > 2: 7 (29.0/6.0)
|   |   |   |   |   |   |   |   |   |   |   |   |   |   |   |   |   pixel433 > 1: 7 (26.0/10.0)
|   |   |   |   |   |   |   |   |   |   |   |   |   |   |   |   pixel378 > 2
|   |   |   |   |   |   |   |   |   |   |   |   |   |   |   |   |   pixel595 <= 13
|   |   |   |   |   |   |   |   |   |   |   |   |   |   |   |   |   |   pixel178 <= 6
|   |   |   |   |   |   |   |   |   |   |   |   |   |   |   |   |   |   |   pixel211 <= 41
|   |   |   |   |   |   |   |   |   |   |   |   |   |   |   |   |   |   |   |   pixel277 <= 33: 7 (61.0/3.0)
|   |   |   |   |   |   |   |   |   |   |   |   |   |   |   |   |   |   |   |   pixel277 > 33: 5 (2.0)
|   |   |   |   |   |   |   |   |   |   |   |   |   |   |   |   |   |   |   pixel211 > 41
|   |   |   |   |   |   |   |   |   |   |   |   |   |   |   |   |   |   |   |   pixel191 <= 7
|   |   |   |   |   |   |   |   |   |   |   |   |   |   |   |   |   |   |   |   |   pixel293 <= 248: 9 (62.0/6.0)
|   |   |   |   |   |   |   |   |   |   |   |   |   |   |   |   |   |   |   |   |   pixel293 > 248
|   |   |   |   |   |   |   |   |   |   |   |   |   |   |   |   |   |   |   |   |   |   pixel185 <= 141: 7 (20.0/1.0)
|   |   |   |   |   |   |   |   |   |   |   |   |   |   |   |   |   |   |   |   |   |   pixel185 > 141: 9 (2.0)
|   |   |   |   |   |   |   |   |   |   |   |   |   |   |   |   |   |   |   |   pixel191 > 7: 4 (2.0/1.0)
|   |   |   |   |   |   |   |   |   |   |   |   |   |   |   |   |   |   pixel178 > 6: 5 (12.0/7.0)
|   |   |   |   |   |   |   |   |   |   |   |   |   |   |   |   |   pixel595 > 13: 5 (4.0/1.0)
|   |   |   |   |   |   |   |   |   |   |   |   |   |   |   pixel153 > 6
|   |   |   |   |   |   |   |   |   |   |   |   |   |   |   |   pixel349 <= 72
|   |   |   |   |   |   |   |   |   |   |   |   |   |   |   |   |   pixel636 <= 11
|   |   |   |   |   |   |   |   |   |   |   |   |   |   |   |   |   |   pixel125 <= 6: 7 (11.0)
|   |   |   |   |   |   |   |   |   |   |   |   |   |   |   |   |   |   pixel125 > 6: 2 (2.0/1.0)
|   |   |   |   |   |   |   |   |   |   |   |   |   |   |   |   |   pixel636 > 11: 2 (8.0/1.0)
|   |   |   |   |   |   |   |   |   |   |   |   |   |   |   |   pixel349 > 72: 3 (4.0)
|   |   |   |   |   |   |   |   |   |   |   |   |   |   pixel515 > 45
|   |   |   |   |   |   |   |   |   |   |   |   |   |   |   pixel152 <= 14
|   |   |   |   |   |   |   |   |   |   |   |   |   |   |   |   pixel164 <= 14
|   |   |   |   |   |   |   |   |   |   |   |   |   |   |   |   |   pixel194 <= 14
|   |   |   |   |   |   |   |   |   |   |   |   |   |   |   |   |   |   pixel158 <= 20
|   |   |   |   |   |   |   |   |   |   |   |   |   |   |   |   |   |   |   pixel176 <= 139
|   |   |   |   |   |   |   |   |   |   |   |   |   |   |   |   |   |   |   |   pixel333 <= 18
|   |   |   |   |   |   |   |   |   |   |   |   |   |   |   |   |   |   |   |   |   pixel277 <= 109
|   |   |   |   |   |   |   |   |   |   |   |   |   |   |   |   |   |   |   |   |   |   pixel474 <= 8
|   |   |   |   |   |   |   |   |   |   |   |   |   |   |   |   |   |   |   |   |   |   |   pixel221 <= 2
|   |   |   |   |   |   |   |   |   |   |   |   |   |   |   |   |   |   |   |   |   |   |   |   pixel600 <= 69
|   |   |   |   |   |   |   |   |   |   |   |   |   |   |   |   |   |   |   |   |   |   |   |   |   pixel485 <= 25
|   |   |   |   |   |   |   |   |   |   |   |   |   |   |   |   |   |   |   |   |   |   |   |   |   |   pixel547 <= 8: 9 (9.0)
|   |   |   |   |   |   |   |   |   |   |   |   |   |   |   |   |   |   |   |   |   |   |   |   |   |   pixel547 > 8
|   |   |   |   |   |   |   |   |   |   |   |   |   |   |   |   |   |   |   |   |   |   |   |   |   |   |   pixel458 <= 87: 7 (24.0)
|   |   |   |   |   |   |   |   |   |   |   |   |   |   |   |   |   |   |   |   |   |   |   |   |   |   |   pixel458 > 87: 9 (3.0)
|   |   |   |   |   |   |   |   |   |   |   |   |   |   |   |   |   |   |   |   |   |   |   |   |   pixel485 > 25: 9 (112.0/5.0)
|   |   |   |   |   |   |   |   |   |   |   |   |   |   |   |   |   |   |   |   |   |   |   |   pixel600 > 69: 7 (9.0/2.0)
|   |   |   |   |   |   |   |   |   |   |   |   |   |   |   |   |   |   |   |   |   |   |   pixel221 > 2: 5 (3.0/1.0)
|   |   |   |   |   |   |   |   |   |   |   |   |   |   |   |   |   |   |   |   |   |   pixel474 > 8: 2 (2.0/1.0)
|   |   |   |   |   |   |   |   |   |   |   |   |   |   |   |   |   |   |   |   |   pixel277 > 109: 5 (2.0)
|   |   |   |   |   |   |   |   |   |   |   |   |   |   |   |   |   |   |   |   pixel333 > 18: 5 (3.0/1.0)
|   |   |   |   |   |   |   |   |   |   |   |   |   |   |   |   |   |   |   pixel176 > 139: 2 (5.0/1.0)
|   |   |   |   |   |   |   |   |   |   |   |   |   |   |   |   |   |   pixel158 > 20: 4 (2.0)
|   |   |   |   |   |   |   |   |   |   |   |   |   |   |   |   |   pixel194 > 14
|   |   |   |   |   |   |   |   |   |   |   |   |   |   |   |   |   |   pixel215 <= 1: 4 (3.0)
|   |   |   |   |   |   |   |   |   |   |   |   |   |   |   |   |   |   pixel215 > 1: 5 (3.0)
|   |   |   |   |   |   |   |   |   |   |   |   |   |   |   |   pixel164 > 14: 4 (6.0)
|   |   |   |   |   |   |   |   |   |   |   |   |   |   |   pixel152 > 14: 4 (11.0/5.0)
|   |   |   |   |   |   |   |   |   |   |   |   |   pixel556 > 21
|   |   |   |   |   |   |   |   |   |   |   |   |   |   pixel445 <= 43
|   |   |   |   |   |   |   |   |   |   |   |   |   |   |   pixel349 <= 94: 2 (17.0/4.0)
|   |   |   |   |   |   |   |   |   |   |   |   |   |   |   pixel349 > 94
|   |   |   |   |   |   |   |   |   |   |   |   |   |   |   |   pixel268 <= 36: 5 (6.0)
|   |   |   |   |   |   |   |   |   |   |   |   |   |   |   |   pixel268 > 36: 3 (2.0)
|   |   |   |   |   |   |   |   |   |   |   |   |   |   pixel445 > 43: 0 (2.0/1.0)
|   |   |   |   |   |   |   |   |   |   |   |   pixel157 > 0
|   |   |   |   |   |   |   |   |   |   |   |   |   pixel570 <= 99
|   |   |   |   |   |   |   |   |   |   |   |   |   |   pixel515 <= 103
|   |   |   |   |   |   |   |   |   |   |   |   |   |   |   pixel319 <= 4: 1 (9.0/1.0)
|   |   |   |   |   |   |   |   |   |   |   |   |   |   |   pixel319 > 4: 5 (7.0)
|   |   |   |   |   |   |   |   |   |   |   |   |   |   pixel515 > 103: 4 (9.0/1.0)
|   |   |   |   |   |   |   |   |   |   |   |   |   pixel570 > 99: 0 (2.0)
|   |   |   |   |   |   |   |   |   |   |   pixel161 > 18
|   |   |   |   |   |   |   |   |   |   |   |   pixel620 <= 61
|   |   |   |   |   |   |   |   |   |   |   |   |   pixel244 <= 34: 5 (9.0/1.0)
|   |   |   |   |   |   |   |   |   |   |   |   |   pixel244 > 34
|   |   |   |   |   |   |   |   |   |   |   |   |   |   pixel654 <= 88: 4 (25.0)
|   |   |   |   |   |   |   |   |   |   |   |   |   |   pixel654 > 88: 1 (9.0)
|   |   |   |   |   |   |   |   |   |   |   |   pixel620 > 61: 3 (2.0)
|   |   |   |   |   |   |   |   |   |   pixel131 > 5
|   |   |   |   |   |   |   |   |   |   |   pixel655 <= 69
|   |   |   |   |   |   |   |   |   |   |   |   pixel572 <= 95: 4 (7.0)
|   |   |   |   |   |   |   |   |   |   |   |   pixel572 > 95: 6 (13.0)
|   |   |   |   |   |   |   |   |   |   |   pixel655 > 69: 1 (5.0/1.0)
|   |   |   |   |   |   |   |   |   pixel122 > 2
|   |   |   |   |   |   |   |   |   |   pixel321 <= 7: 6 (30.0/9.0)
|   |   |   |   |   |   |   |   |   |   pixel321 > 7: 3 (4.0)
|   |   |   |   |   |   |   |   pixel567 > 0
|   |   |   |   |   |   |   |   |   pixel484 <= 7: 5 (16.0/4.0)
|   |   |   |   |   |   |   |   |   pixel484 > 7: 0 (31.0/1.0)
|   |   |   |   |   |   |   pixel155 > 1
|   |   |   |   |   |   |   |   pixel351 <= 18
|   |   |   |   |   |   |   |   |   pixel405 <= 119
|   |   |   |   |   |   |   |   |   |   pixel429 <= 5
|   |   |   |   |   |   |   |   |   |   |   pixel459 <= 82
|   |   |   |   |   |   |   |   |   |   |   |   pixel426 <= 45
|   |   |   |   |   |   |   |   |   |   |   |   |   pixel322 <= 19
|   |   |   |   |   |   |   |   |   |   |   |   |   |   pixel508 <= 29: 2 (164.0/35.0)
|   |   |   |   |   |   |   |   |   |   |   |   |   |   pixel508 > 29: 3 (2.0)
|   |   |   |   |   |   |   |   |   |   |   |   |   pixel322 > 19: 5 (17.0/9.0)
|   |   |   |   |   |   |   |   |   |   |   |   pixel426 > 45: 0 (7.0/2.0)
|   |   |   |   |   |   |   |   |   |   |   pixel459 > 82: 0 (14.0/3.0)
|   |   |   |   |   |   |   |   |   |   pixel429 > 5
|   |   |   |   |   |   |   |   |   |   |   pixel491 <= 8: 0 (88.0/4.0)
|   |   |   |   |   |   |   |   |   |   |   pixel491 > 8
|   |   |   |   |   |   |   |   |   |   |   |   pixel655 <= 208
|   |   |   |   |   |   |   |   |   |   |   |   |   pixel574 <= 195
|   |   |   |   |   |   |   |   |   |   |   |   |   |   pixel526 <= 62
|   |   |   |   |   |   |   |   |   |   |   |   |   |   |   pixel349 <= 2
|   |   |   |   |   |   |   |   |   |   |   |   |   |   |   |   pixel183 <= 141: 4 (3.0)
|   |   |   |   |   |   |   |   |   |   |   |   |   |   |   |   pixel183 > 141: 9 (14.0)
|   |   |   |   |   |   |   |   |   |   |   |   |   |   |   pixel349 > 2: 4 (8.0/1.0)
|   |   |   |   |   |   |   |   |   |   |   |   |   |   pixel526 > 62: 6 (2.0)
|   |   |   |   |   |   |   |   |   |   |   |   |   pixel574 > 195
|   |   |   |   |   |   |   |   |   |   |   |   |   |   pixel215 <= 82: 6 (4.0)
|   |   |   |   |   |   |   |   |   |   |   |   |   |   pixel215 > 82: 2 (2.0/1.0)
|   |   |   |   |   |   |   |   |   |   |   |   pixel655 > 208: 2 (2.0)
|   |   |   |   |   |   |   |   |   pixel405 > 119: 8 (11.0/4.0)
|   |   |   |   |   |   |   |   pixel351 > 18
|   |   |   |   |   |   |   |   |   pixel331 <= 128
|   |   |   |   |   |   |   |   |   |   pixel459 <= 118
|   |   |   |   |   |   |   |   |   |   |   pixel435 <= 10
|   |   |   |   |   |   |   |   |   |   |   |   pixel436 <= 7
|   |   |   |   |   |   |   |   |   |   |   |   |   pixel269 <= 1
|   |   |   |   |   |   |   |   |   |   |   |   |   |   pixel271 <= 77
|   |   |   |   |   |   |   |   |   |   |   |   |   |   |   pixel157 <= 51
|   |   |   |   |   |   |   |   |   |   |   |   |   |   |   |   pixel187 <= 42: 3 (17.0)
|   |   |   |   |   |   |   |   |   |   |   |   |   |   |   |   pixel187 > 42: 5 (6.0)
|   |   |   |   |   |   |   |   |   |   |   |   |   |   |   pixel157 > 51: 5 (66.0/1.0)
|   |   |   |   |   |   |   |   |   |   |   |   |   |   pixel271 > 77: 3 (3.0/1.0)
|   |   |   |   |   |   |   |   |   |   |   |   |   pixel269 > 1: 3 (73.0/8.0)
|   |   |   |   |   |   |   |   |   |   |   |   pixel436 > 7: 9 (7.0/3.0)
|   |   |   |   |   |   |   |   |   |   |   pixel435 > 10
|   |   |   |   |   |   |   |   |   |   |   |   pixel124 <= 1: 1 (11.0/3.0)
|   |   |   |   |   |   |   |   |   |   |   |   pixel124 > 1: 2 (2.0)
|   |   |   |   |   |   |   |   |   |   pixel459 > 118: 6 (3.0)
|   |   |   |   |   |   |   |   |   pixel331 > 128: 0 (2.0)
|   |   |   |   |   |   pixel406 > 46
|   |   |   |   |   |   |   pixel382 <= 1
|   |   |   |   |   |   |   |   pixel413 <= 3
|   |   |   |   |   |   |   |   |   pixel381 <= 73
|   |   |   |   |   |   |   |   |   |   pixel151 <= 57
|   |   |   |   |   |   |   |   |   |   |   pixel383 <= 12
|   |   |   |   |   |   |   |   |   |   |   |   pixel489 <= 24
|   |   |   |   |   |   |   |   |   |   |   |   |   pixel571 <= 241
|   |   |   |   |   |   |   |   |   |   |   |   |   |   pixel322 <= 135
|   |   |   |   |   |   |   |   |   |   |   |   |   |   |   pixel354 <= 13
|   |   |   |   |   |   |   |   |   |   |   |   |   |   |   |   pixel741 <= 36
|   |   |   |   |   |   |   |   |   |   |   |   |   |   |   |   |   pixel351 <= 100: 5 (139.0/2.0)
|   |   |   |   |   |   |   |   |   |   |   |   |   |   |   |   |   pixel351 > 100: 3 (2.0/1.0)
|   |   |   |   |   |   |   |   |   |   |   |   |   |   |   |   pixel741 > 36: 5 (2.0/1.0)
|   |   |   |   |   |   |   |   |   |   |   |   |   |   |   pixel354 > 13: 3 (2.0/1.0)
|   |   |   |   |   |   |   |   |   |   |   |   |   |   pixel322 > 135
|   |   |   |   |   |   |   |   |   |   |   |   |   |   |   pixel191 <= 25
|   |   |   |   |   |   |   |   |   |   |   |   |   |   |   |   pixel519 <= 84
|   |   |   |   |   |   |   |   |   |   |   |   |   |   |   |   |   pixel277 <= 31: 3 (26.0/1.0)
|   |   |   |   |   |   |   |   |   |   |   |   |   |   |   |   |   pixel277 > 31: 5 (3.0)
|   |   |   |   |   |   |   |   |   |   |   |   |   |   |   |   pixel519 > 84: 5 (11.0/3.0)
|   |   |   |   |   |   |   |   |   |   |   |   |   |   |   pixel191 > 25: 5 (20.0)
|   |   |   |   |   |   |   |   |   |   |   |   |   pixel571 > 241: 8 (3.0/1.0)
|   |   |   |   |   |   |   |   |   |   |   |   pixel489 > 24
|   |   |   |   |   |   |   |   |   |   |   |   |   pixel130 <= 7
|   |   |   |   |   |   |   |   |   |   |   |   |   |   pixel405 <= 175: 1 (4.0)
|   |   |   |   |   |   |   |   |   |   |   |   |   |   pixel405 > 175: 5 (6.0)
|   |   |   |   |   |   |   |   |   |   |   |   |   pixel130 > 7: 8 (4.0/1.0)
|   |   |   |   |   |   |   |   |   |   |   pixel383 > 12: 4 (3.0/2.0)
|   |   |   |   |   |   |   |   |   |   pixel151 > 57
|   |   |   |   |   |   |   |   |   |   |   pixel546 <= 68
|   |   |   |   |   |   |   |   |   |   |   |   pixel290 <= 190: 3 (37.0/1.0)
|   |   |   |   |   |   |   |   |   |   |   |   pixel290 > 190: 5 (5.0)
|   |   |   |   |   |   |   |   |   |   |   pixel546 > 68: 1 (2.0/1.0)
|   |   |   |   |   |   |   |   |   pixel381 > 73: 8 (15.0/4.0)
|   |   |   |   |   |   |   |   pixel413 > 3
|   |   |   |   |   |   |   |   |   pixel511 <= 18
|   |   |   |   |   |   |   |   |   |   pixel150 <= 18
|   |   |   |   |   |   |   |   |   |   |   pixel350 <= 40
|   |   |   |   |   |   |   |   |   |   |   |   pixel242 <= 48: 4 (10.0)
|   |   |   |   |   |   |   |   |   |   |   |   pixel242 > 48: 9 (3.0)
|   |   |   |   |   |   |   |   |   |   |   pixel350 > 40: 7 (2.0/1.0)
|   |   |   |   |   |   |   |   |   |   pixel150 > 18: 3 (2.0)
|   |   |   |   |   |   |   |   |   pixel511 > 18: 2 (8.0/1.0)
|   |   |   |   |   |   |   pixel382 > 1
|   |   |   |   |   |   |   |   pixel405 <= 4
|   |   |   |   |   |   |   |   |   pixel68 <= 48
|   |   |   |   |   |   |   |   |   |   pixel518 <= 101: 3 (4.0)
|   |   |   |   |   |   |   |   |   |   pixel518 > 101: 7 (16.0/8.0)
|   |   |   |   |   |   |   |   |   pixel68 > 48: 6 (2.0)
|   |   |   |   |   |   |   |   pixel405 > 4
|   |   |   |   |   |   |   |   |   pixel539 <= 3
|   |   |   |   |   |   |   |   |   |   pixel462 <= 150
|   |   |   |   |   |   |   |   |   |   |   pixel123 <= 148
|   |   |   |   |   |   |   |   |   |   |   |   pixel527 <= 53
|   |   |   |   |   |   |   |   |   |   |   |   |   pixel212 <= 20
|   |   |   |   |   |   |   |   |   |   |   |   |   |   pixel156 <= 100: 4 (144.0/8.0)
|   |   |   |   |   |   |   |   |   |   |   |   |   |   pixel156 > 100: 8 (12.0/5.0)
|   |   |   |   |   |   |   |   |   |   |   |   |   pixel212 > 20
|   |   |   |   |   |   |   |   |   |   |   |   |   |   pixel416 <= 15
|   |   |   |   |   |   |   |   |   |   |   |   |   |   |   pixel597 <= 3
|   |   |   |   |   |   |   |   |   |   |   |   |   |   |   |   pixel153 <= 192
|   |   |   |   |   |   |   |   |   |   |   |   |   |   |   |   |   pixel570 <= 74
|   |   |   |   |   |   |   |   |   |   |   |   |   |   |   |   |   |   pixel428 <= 45
|   |   |   |   |   |   |   |   |   |   |   |   |   |   |   |   |   |   |   pixel203 <= 3
|   |   |   |   |   |   |   |   |   |   |   |   |   |   |   |   |   |   |   |   pixel157 <= 137: 9 (123.0/17.0)
|   |   |   |   |   |   |   |   |   |   |   |   |   |   |   |   |   |   |   |   pixel157 > 137: 8 (6.0/2.0)
|   |   |   |   |   |   |   |   |   |   |   |   |   |   |   |   |   |   |   pixel203 > 3: 7 (2.0/1.0)
|   |   |   |   |   |   |   |   |   |   |   |   |   |   |   |   |   |   pixel428 > 45: 4 (17.0/2.0)
|   |   |   |   |   |   |   |   |   |   |   |   |   |   |   |   |   pixel570 > 74: 5 (2.0/1.0)
|   |   |   |   |   |   |   |   |   |   |   |   |   |   |   |   pixel153 > 192: 8 (7.0/2.0)
|   |   |   |   |   |   |   |   |   |   |   |   |   |   |   pixel597 > 3: 5 (4.0/1.0)
|   |   |   |   |   |   |   |   |   |   |   |   |   |   pixel416 > 15: 7 (2.0)
|   |   |   |   |   |   |   |   |   |   |   |   pixel527 > 53: 3 (6.0/3.0)
|   |   |   |   |   |   |   |   |   |   |   pixel123 > 148: 3 (4.0)
|   |   |   |   |   |   |   |   |   |   pixel462 > 150
|   |   |   |   |   |   |   |   |   |   |   pixel708 <= 22
|   |   |   |   |   |   |   |   |   |   |   |   pixel428 <= 20
|   |   |   |   |   |   |   |   |   |   |   |   |   pixel459 <= 12
|   |   |   |   |   |   |   |   |   |   |   |   |   |   pixel441 <= 30: 8 (152.0/11.0)
|   |   |   |   |   |   |   |   |   |   |   |   |   |   pixel441 > 30: 4 (4.0)
|   |   |   |   |   |   |   |   |   |   |   |   |   pixel459 > 12: 7 (2.0/1.0)
|   |   |   |   |   |   |   |   |   |   |   |   pixel428 > 20: 4 (11.0)
|   |   |   |   |   |   |   |   |   |   |   pixel708 > 22: 9 (2.0)
|   |   |   |   |   |   |   |   |   pixel539 > 3
|   |   |   |   |   |   |   |   |   |   pixel266 <= 1: 2 (6.0/1.0)
|   |   |   |   |   |   |   |   |   |   pixel266 > 1: 5 (2.0)
|   |   |   |   |   pixel460 > 0
|   |   |   |   |   |   pixel103 <= 2
|   |   |   |   |   |   |   pixel543 <= 72
|   |   |   |   |   |   |   |   pixel595 <= 10
|   |   |   |   |   |   |   |   |   pixel212 <= 28
|   |   |   |   |   |   |   |   |   |   pixel743 <= 1
|   |   |   |   |   |   |   |   |   |   |   pixel747 <= 4
|   |   |   |   |   |   |   |   |   |   |   |   pixel268 <= 139
|   |   |   |   |   |   |   |   |   |   |   |   |   pixel94 <= 10
|   |   |   |   |   |   |   |   |   |   |   |   |   |   pixel156 <= 146
|   |   |   |   |   |   |   |   |   |   |   |   |   |   |   pixel351 <= 64
|   |   |   |   |   |   |   |   |   |   |   |   |   |   |   |   pixel296 <= 176
|   |   |   |   |   |   |   |   |   |   |   |   |   |   |   |   |   pixel556 <= 0
|   |   |   |   |   |   |   |   |   |   |   |   |   |   |   |   |   |   pixel445 <= 126
|   |   |   |   |   |   |   |   |   |   |   |   |   |   |   |   |   |   |   pixel123 <= 144
|   |   |   |   |   |   |   |   |   |   |   |   |   |   |   |   |   |   |   |   pixel360 <= 5
|   |   |   |   |   |   |   |   |   |   |   |   |   |   |   |   |   |   |   |   |   pixel721 <= 27
|   |   |   |   |   |   |   |   |   |   |   |   |   |   |   |   |   |   |   |   |   |   pixel194 <= 21
|   |   |   |   |   |   |   |   |   |   |   |   |   |   |   |   |   |   |   |   |   |   |   pixel710 <= 3
|   |   |   |   |   |   |   |   |   |   |   |   |   |   |   |   |   |   |   |   |   |   |   |   pixel184 <= 58
|   |   |   |   |   |   |   |   |   |   |   |   |   |   |   |   |   |   |   |   |   |   |   |   |   pixel127 <= 159
|   |   |   |   |   |   |   |   |   |   |   |   |   |   |   |   |   |   |   |   |   |   |   |   |   |   pixel121 <= 87
|   |   |   |   |   |   |   |   |   |   |   |   |   |   |   |   |   |   |   |   |   |   |   |   |   |   |   pixel570 <= 4
|   |   |   |   |   |   |   |   |   |   |   |   |   |   |   |   |   |   |   |   |   |   |   |   |   |   |   |   pixel509 <= 33
|   |   |   |   |   |   |   |   |   |   |   |   |   |   |   |   |   |   |   |   |   |   |   |   |   |   |   |   |   pixel718 <= 60: 4 (1568.0/9.0)
|   |   |   |   |   |   |   |   |   |   |   |   |   |   |   |   |   |   |   |   |   |   |   |   |   |   |   |   |   pixel718 > 60
|   |   |   |   |   |   |   |   |   |   |   |   |   |   |   |   |   |   |   |   |   |   |   |   |   |   |   |   |   |   pixel744 <= 49
|   |   |   |   |   |   |   |   |   |   |   |   |   |   |   |   |   |   |   |   |   |   |   |   |   |   |   |   |   |   |   pixel183 <= 56: 4 (51.0/1.0)
|   |   |   |   |   |   |   |   |   |   |   |   |   |   |   |   |   |   |   |   |   |   |   |   |   |   |   |   |   |   |   pixel183 > 56: 9 (2.0)
|   |   |   |   |   |   |   |   |   |   |   |   |   |   |   |   |   |   |   |   |   |   |   |   |   |   |   |   |   |   pixel744 > 49: 9 (2.0)
|   |   |   |   |   |   |   |   |   |   |   |   |   |   |   |   |   |   |   |   |   |   |   |   |   |   |   |   pixel509 > 33: 4 (17.0/1.0)
|   |   |   |   |   |   |   |   |   |   |   |   |   |   |   |   |   |   |   |   |   |   |   |   |   |   |   pixel570 > 4: 4 (18.0/1.0)
|   |   |   |   |   |   |   |   |   |   |   |   |   |   |   |   |   |   |   |   |   |   |   |   |   |   pixel121 > 87: 4 (17.0/1.0)
|   |   |   |   |   |   |   |   |   |   |   |   |   |   |   |   |   |   |   |   |   |   |   |   |   pixel127 > 159: 4 (17.0/2.0)
|   |   |   |   |   |   |   |   |   |   |   |   |   |   |   |   |   |   |   |   |   |   |   |   pixel184 > 58
|   |   |   |   |   |   |   |   |   |   |   |   |   |   |   |   |   |   |   |   |   |   |   |   |   pixel184 <= 182: 4 (15.0)
|   |   |   |   |   |   |   |   |   |   |   |   |   |   |   |   |   |   |   |   |   |   |   |   |   pixel184 > 182: 9 (3.0/1.0)
|   |   |   |   |   |   |   |   |   |   |   |   |   |   |   |   |   |   |   |   |   |   |   pixel710 > 3: 4 (18.0/1.0)
|   |   |   |   |   |   |   |   |   |   |   |   |   |   |   |   |   |   |   |   |   |   pixel194 > 21: 4 (24.0/4.0)
|   |   |   |   |   |   |   |   |   |   |   |   |   |   |   |   |   |   |   |   |   pixel721 > 27: 4 (18.0/5.0)
|   |   |   |   |   |   |   |   |   |   |   |   |   |   |   |   |   |   |   |   pixel360 > 5: 4 (18.0/3.0)
|   |   |   |   |   |   |   |   |   |   |   |   |   |   |   |   |   |   |   pixel123 > 144
|   |   |   |   |   |   |   |   |   |   |   |   |   |   |   |   |   |   |   |   pixel68 <= 57: 4 (15.0/1.0)
|   |   |   |   |   |   |   |   |   |   |   |   |   |   |   |   |   |   |   |   pixel68 > 57: 6 (4.0)
|   |   |   |   |   |   |   |   |   |   |   |   |   |   |   |   |   |   pixel445 > 126
|   |   |   |   |   |   |   |   |   |   |   |   |   |   |   |   |   |   |   pixel327 <= 5: 2 (6.0/1.0)
|   |   |   |   |   |   |   |   |   |   |   |   |   |   |   |   |   |   |   pixel327 > 5: 4 (18.0)
|   |   |   |   |   |   |   |   |   |   |   |   |   |   |   |   |   pixel556 > 0
|   |   |   |   |   |   |   |   |   |   |   |   |   |   |   |   |   |   pixel400 <= 32: 2 (8.0/1.0)
|   |   |   |   |   |   |   |   |   |   |   |   |   |   |   |   |   |   pixel400 > 32: 4 (11.0)
|   |   |   |   |   |   |   |   |   |   |   |   |   |   |   |   pixel296 > 176
|   |   |   |   |   |   |   |   |   |   |   |   |   |   |   |   |   pixel278 <= 59
|   |   |   |   |   |   |   |   |   |   |   |   |   |   |   |   |   |   pixel720 <= 20
|   |   |   |   |   |   |   |   |   |   |   |   |   |   |   |   |   |   |   pixel231 <= 3: 4 (11.0/4.0)
|   |   |   |   |   |   |   |   |   |   |   |   |   |   |   |   |   |   |   pixel231 > 3: 7 (5.0)
|   |   |   |   |   |   |   |   |   |   |   |   |   |   |   |   |   |   pixel720 > 20: 9 (2.0)
|   |   |   |   |   |   |   |   |   |   |   |   |   |   |   |   |   pixel278 > 59: 5 (2.0)
|   |   |   |   |   |   |   |   |   |   |   |   |   |   |   pixel351 > 64
|   |   |   |   |   |   |   |   |   |   |   |   |   |   |   |   pixel502 <= 9
|   |   |   |   |   |   |   |   |   |   |   |   |   |   |   |   |   pixel187 <= 29
|   |   |   |   |   |   |   |   |   |   |   |   |   |   |   |   |   |   pixel274 <= 29: 7 (9.0/1.0)
|   |   |   |   |   |   |   |   |   |   |   |   |   |   |   |   |   |   pixel274 > 29: 5 (5.0)
|   |   |   |   |   |   |   |   |   |   |   |   |   |   |   |   |   pixel187 > 29: 4 (4.0)
|   |   |   |   |   |   |   |   |   |   |   |   |   |   |   |   pixel502 > 9: 2 (3.0)
|   |   |   |   |   |   |   |   |   |   |   |   |   |   pixel156 > 146
|   |   |   |   |   |   |   |   |   |   |   |   |   |   |   pixel323 <= 88
|   |   |   |   |   |   |   |   |   |   |   |   |   |   |   |   pixel546 <= 15
|   |   |   |   |   |   |   |   |   |   |   |   |   |   |   |   |   pixel354 <= 42
|   |   |   |   |   |   |   |   |   |   |   |   |   |   |   |   |   |   pixel301 <= 3: 5 (20.0/1.0)
|   |   |   |   |   |   |   |   |   |   |   |   |   |   |   |   |   |   pixel301 > 3: 4 (2.0/1.0)
|   |   |   |   |   |   |   |   |   |   |   |   |   |   |   |   |   pixel354 > 42: 9 (15.0/2.0)
|   |   |   |   |   |   |   |   |   |   |   |   |   |   |   |   pixel546 > 15
|   |   |   |   |   |   |   |   |   |   |   |   |   |   |   |   |   pixel638 <= 1
|   |   |   |   |   |   |   |   |   |   |   |   |   |   |   |   |   |   pixel266 <= 28: 8 (14.0/2.0)
|   |   |   |   |   |   |   |   |   |   |   |   |   |   |   |   |   |   pixel266 > 28
|   |   |   |   |   |   |   |   |   |   |   |   |   |   |   |   |   |   |   pixel299 <= 3: 6 (5.0/1.0)
|   |   |   |   |   |   |   |   |   |   |   |   |   |   |   |   |   |   |   pixel299 > 3: 4 (3.0)
|   |   |   |   |   |   |   |   |   |   |   |   |   |   |   |   |   pixel638 > 1: 2 (2.0)
|   |   |   |   |   |   |   |   |   |   |   |   |   |   |   pixel323 > 88: 3 (8.0/1.0)
|   |   |   |   |   |   |   |   |   |   |   |   |   pixel94 > 10
|   |   |   |   |   |   |   |   |   |   |   |   |   |   pixel399 <= 4: 6 (18.0/1.0)
|   |   |   |   |   |   |   |   |   |   |   |   |   |   pixel399 > 4: 4 (2.0)
|   |   |   |   |   |   |   |   |   |   |   |   pixel268 > 139
|   |   |   |   |   |   |   |   |   |   |   |   |   pixel382 <= 4
|   |   |   |   |   |   |   |   |   |   |   |   |   |   pixel124 <= 38: 5 (73.0/18.0)
|   |   |   |   |   |   |   |   |   |   |   |   |   |   pixel124 > 38: 3 (2.0)
|   |   |   |   |   |   |   |   |   |   |   |   |   pixel382 > 4
|   |   |   |   |   |   |   |   |   |   |   |   |   |   pixel508 <= 1
|   |   |   |   |   |   |   |   |   |   |   |   |   |   |   pixel502 <= 32
|   |   |   |   |   |   |   |   |   |   |   |   |   |   |   |   pixel159 <= 4
|   |   |   |   |   |   |   |   |   |   |   |   |   |   |   |   |   pixel161 <= 21
|   |   |   |   |   |   |   |   |   |   |   |   |   |   |   |   |   |   pixel510 <= 33
|   |   |   |   |   |   |   |   |   |   |   |   |   |   |   |   |   |   |   pixel175 <= 48
|   |   |   |   |   |   |   |   |   |   |   |   |   |   |   |   |   |   |   |   pixel186 <= 67
|   |   |   |   |   |   |   |   |   |   |   |   |   |   |   |   |   |   |   |   |   pixel165 <= 31
|   |   |   |   |   |   |   |   |   |   |   |   |   |   |   |   |   |   |   |   |   |   pixel162 <= 2
|   |   |   |   |   |   |   |   |   |   |   |   |   |   |   |   |   |   |   |   |   |   |   pixel397 <= 40
|   |   |   |   |   |   |   |   |   |   |   |   |   |   |   |   |   |   |   |   |   |   |   |   pixel267 <= 67: 4 (4.0)
|   |   |   |   |   |   |   |   |   |   |   |   |   |   |   |   |   |   |   |   |   |   |   |   pixel267 > 67
|   |   |   |   |   |   |   |   |   |   |   |   |   |   |   |   |   |   |   |   |   |   |   |   |   pixel372 <= 91
|   |   |   |   |   |   |   |   |   |   |   |   |   |   |   |   |   |   |   |   |   |   |   |   |   |   pixel377 <= 139
|   |   |   |   |   |   |   |   |   |   |   |   |   |   |   |   |   |   |   |   |   |   |   |   |   |   |   pixel407 <= 60: 7 (33.0/1.0)
|   |   |   |   |   |   |   |   |   |   |   |   |   |   |   |   |   |   |   |   |   |   |   |   |   |   |   pixel407 > 60
|   |   |   |   |   |   |   |   |   |   |   |   |   |   |   |   |   |   |   |   |   |   |   |   |   |   |   |   pixel441 <= 36
|   |   |   |   |   |   |   |   |   |   |   |   |   |   |   |   |   |   |   |   |   |   |   |   |   |   |   |   |   pixel288 <= 8: 9 (14.0)
|   |   |   |   |   |   |   |   |   |   |   |   |   |   |   |   |   |   |   |   |   |   |   |   |   |   |   |   |   pixel288 > 8: 7 (2.0/1.0)
|   |   |   |   |   |   |   |   |   |   |   |   |   |   |   |   |   |   |   |   |   |   |   |   |   |   |   |   pixel441 > 36: 7 (5.0)
|   |   |   |   |   |   |   |   |   |   |   |   |   |   |   |   |   |   |   |   |   |   |   |   |   |   pixel377 > 139: 4 (3.0/1.0)
|   |   |   |   |   |   |   |   |   |   |   |   |   |   |   |   |   |   |   |   |   |   |   |   |   pixel372 > 91: 9 (20.0)
|   |   |   |   |   |   |   |   |   |   |   |   |   |   |   |   |   |   |   |   |   |   |   pixel397 > 40: 4 (2.0)
|   |   |   |   |   |   |   |   |   |   |   |   |   |   |   |   |   |   |   |   |   |   pixel162 > 2: 4 (2.0)
|   |   |   |   |   |   |   |   |   |   |   |   |   |   |   |   |   |   |   |   |   pixel165 > 31: 4 (2.0)
|   |   |   |   |   |   |   |   |   |   |   |   |   |   |   |   |   |   |   |   pixel186 > 67: 4 (5.0)
|   |   |   |   |   |   |   |   |   |   |   |   |   |   |   |   |   |   |   pixel175 > 48: 3 (2.0/1.0)
|   |   |   |   |   |   |   |   |   |   |   |   |   |   |   |   |   |   pixel510 > 33: 2 (2.0/1.0)
|   |   |   |   |   |   |   |   |   |   |   |   |   |   |   |   |   pixel161 > 21: 4 (3.0/1.0)
|   |   |   |   |   |   |   |   |   |   |   |   |   |   |   |   pixel159 > 4: 4 (13.0)
|   |   |   |   |   |   |   |   |   |   |   |   |   |   |   pixel502 > 32: 2 (3.0/1.0)
|   |   |   |   |   |   |   |   |   |   |   |   |   |   pixel508 > 1: 2 (2.0)
|   |   |   |   |   |   |   |   |   |   |   pixel747 > 4: 9 (22.0/6.0)
|   |   |   |   |   |   |   |   |   |   pixel743 > 1
|   |   |   |   |   |   |   |   |   |   |   pixel348 <= 253
|   |   |   |   |   |   |   |   |   |   |   |   pixel262 <= 6: 9 (5.0)
|   |   |   |   |   |   |   |   |   |   |   |   pixel262 > 6: 7 (21.0/1.0)
|   |   |   |   |   |   |   |   |   |   |   pixel348 > 253: 4 (2.0/1.0)
|   |   |   |   |   |   |   |   |   pixel212 > 28
|   |   |   |   |   |   |   |   |   |   pixel410 <= 4
|   |   |   |   |   |   |   |   |   |   |   pixel557 <= 11
|   |   |   |   |   |   |   |   |   |   |   |   pixel510 <= 1
|   |   |   |   |   |   |   |   |   |   |   |   |   pixel381 <= 17
|   |   |   |   |   |   |   |   |   |   |   |   |   |   pixel387 <= 25
|   |   |   |   |   |   |   |   |   |   |   |   |   |   |   pixel176 <= 29
|   |   |   |   |   |   |   |   |   |   |   |   |   |   |   |   pixel411 <= 6
|   |   |   |   |   |   |   |   |   |   |   |   |   |   |   |   |   pixel230 <= 2
|   |   |   |   |   |   |   |   |   |   |   |   |   |   |   |   |   |   pixel122 <= 12
|   |   |   |   |   |   |   |   |   |   |   |   |   |   |   |   |   |   |   pixel324 <= 147
|   |   |   |   |   |   |   |   |   |   |   |   |   |   |   |   |   |   |   |   pixel328 <= 174: 5 (250.0/14.0)
|   |   |   |   |   |   |   |   |   |   |   |   |   |   |   |   |   |   |   |   pixel328 > 174: 9 (3.0/1.0)
|   |   |   |   |   |   |   |   |   |   |   |   |   |   |   |   |   |   |   pixel324 > 147
|   |   |   |   |   |   |   |   |   |   |   |   |   |   |   |   |   |   |   |   pixel274 <= 76: 3 (11.0/2.0)
|   |   |   |   |   |   |   |   |   |   |   |   |   |   |   |   |   |   |   |   pixel274 > 76: 5 (4.0)
|   |   |   |   |   |   |   |   |   |   |   |   |   |   |   |   |   |   pixel122 > 12: 3 (3.0)
|   |   |   |   |   |   |   |   |   |   |   |   |   |   |   |   |   pixel230 > 2: 3 (3.0/1.0)
|   |   |   |   |   |   |   |   |   |   |   |   |   |   |   |   pixel411 > 6: 9 (12.0/7.0)
|   |   |   |   |   |   |   |   |   |   |   |   |   |   |   pixel176 > 29: 3 (14.0)
|   |   |   |   |   |   |   |   |   |   |   |   |   |   pixel387 > 25
|   |   |   |   |   |   |   |   |   |   |   |   |   |   |   pixel320 <= 14: 9 (5.0)
|   |   |   |   |   |   |   |   |   |   |   |   |   |   |   pixel320 > 14: 4 (2.0/1.0)
|   |   |   |   |   |   |   |   |   |   |   |   |   pixel381 > 17
|   |   |   |   |   |   |   |   |   |   |   |   |   |   pixel406 <= 20
|   |   |   |   |   |   |   |   |   |   |   |   |   |   |   pixel209 <= 34: 4 (12.0/2.0)
|   |   |   |   |   |   |   |   |   |   |   |   |   |   |   pixel209 > 34: 7 (31.0/14.0)
|   |   |   |   |   |   |   |   |   |   |   |   |   |   pixel406 > 20
|   |   |   |   |   |   |   |   |   |   |   |   |   |   |   pixel716 <= 136
|   |   |   |   |   |   |   |   |   |   |   |   |   |   |   |   pixel545 <= 34: 3 (12.0/1.0)
|   |   |   |   |   |   |   |   |   |   |   |   |   |   |   |   pixel545 > 34: 8 (7.0)
|   |   |   |   |   |   |   |   |   |   |   |   |   |   |   pixel716 > 136: 9 (2.0)
|   |   |   |   |   |   |   |   |   |   |   |   pixel510 > 1: 2 (8.0/5.0)
|   |   |   |   |   |   |   |   |   |   |   pixel557 > 11: 2 (7.0/1.0)
|   |   |   |   |   |   |   |   |   |   pixel410 > 4
|   |   |   |   |   |   |   |   |   |   |   pixel164 <= 1
|   |   |   |   |   |   |   |   |   |   |   |   pixel129 <= 9
|   |   |   |   |   |   |   |   |   |   |   |   |   pixel151 <= 37
|   |   |   |   |   |   |   |   |   |   |   |   |   |   pixel444 <= 2
|   |   |   |   |   |   |   |   |   |   |   |   |   |   |   pixel202 <= 2
|   |   |   |   |   |   |   |   |   |   |   |   |   |   |   |   pixel156 <= 0
|   |   |   |   |   |   |   |   |   |   |   |   |   |   |   |   |   pixel193 <= 6
|   |   |   |   |   |   |   |   |   |   |   |   |   |   |   |   |   |   pixel157 <= 2
|   |   |   |   |   |   |   |   |   |   |   |   |   |   |   |   |   |   |   pixel249 <= 15
|   |   |   |   |   |   |   |   |   |   |   |   |   |   |   |   |   |   |   |   pixel161 <= 3
|   |   |   |   |   |   |   |   |   |   |   |   |   |   |   |   |   |   |   |   |   pixel377 <= 98
|   |   |   |   |   |   |   |   |   |   |   |   |   |   |   |   |   |   |   |   |   |   pixel471 <= 5
|   |   |   |   |   |   |   |   |   |   |   |   |   |   |   |   |   |   |   |   |   |   |   pixel554 <= 100
|   |   |   |   |   |   |   |   |   |   |   |   |   |   |   |   |   |   |   |   |   |   |   |   pixel203 <= 7
|   |   |   |   |   |   |   |   |   |   |   |   |   |   |   |   |   |   |   |   |   |   |   |   |   pixel213 <= 0
|   |   |   |   |   |   |   |   |   |   |   |   |   |   |   |   |   |   |   |   |   |   |   |   |   |   pixel320 <= 80
|   |   |   |   |   |   |   |   |   |   |   |   |   |   |   |   |   |   |   |   |   |   |   |   |   |   |   pixel442 <= 39: 9 (32.0/1.0)
|   |   |   |   |   |   |   |   |   |   |   |   |   |   |   |   |   |   |   |   |   |   |   |   |   |   |   pixel442 > 39: 7 (3.0/1.0)
|   |   |   |   |   |   |   |   |   |   |   |   |   |   |   |   |   |   |   |   |   |   |   |   |   |   pixel320 > 80: 4 (18.0)
|   |   |   |   |   |   |   |   |   |   |   |   |   |   |   |   |   |   |   |   |   |   |   |   |   pixel213 > 0
|   |   |   |   |   |   |   |   |   |   |   |   |   |   |   |   |   |   |   |   |   |   |   |   |   |   pixel177 <= 14
|   |   |   |   |   |   |   |   |   |   |   |   |   |   |   |   |   |   |   |   |   |   |   |   |   |   |   pixel544 <= 177
|   |   |   |   |   |   |   |   |   |   |   |   |   |   |   |   |   |   |   |   |   |   |   |   |   |   |   |   pixel402 <= 0
|   |   |   |   |   |   |   |   |   |   |   |   |   |   |   |   |   |   |   |   |   |   |   |   |   |   |   |   |   pixel399 <= 0
|   |   |   |   |   |   |   |   |   |   |   |   |   |   |   |   |   |   |   |   |   |   |   |   |   |   |   |   |   |   pixel540 <= 2
|   |   |   |   |   |   |   |   |   |   |   |   |   |   |   |   |   |   |   |   |   |   |   |   |   |   |   |   |   |   |   pixel375 <= 14
|   |   |   |   |   |   |   |   |   |   |   |   |   |   |   |   |   |   |   |   |   |   |   |   |   |   |   |   |   |   |   |   pixel400 <= 49: 7 (56.0/13.0)
|   |   |   |   |   |   |   |   |   |   |   |   |   |   |   |   |   |   |   |   |   |   |   |   |   |   |   |   |   |   |   |   pixel400 > 49: 9 (12.0)
|   |   |   |   |   |   |   |   |   |   |   |   |   |   |   |   |   |   |   |   |   |   |   |   |   |   |   |   |   |   |   pixel375 > 14: 9 (28.0/2.0)
|   |   |   |   |   |   |   |   |   |   |   |   |   |   |   |   |   |   |   |   |   |   |   |   |   |   |   |   |   |   pixel540 > 2: 2 (2.0/1.0)
|   |   |   |   |   |   |   |   |   |   |   |   |   |   |   |   |   |   |   |   |   |   |   |   |   |   |   |   |   pixel399 > 0: 9 (166.0/1.0)
|   |   |   |   |   |   |   |   |   |   |   |   |   |   |   |   |   |   |   |   |   |   |   |   |   |   |   |   pixel402 > 0
|   |   |   |   |   |   |   |   |   |   |   |   |   |   |   |   |   |   |   |   |   |   |   |   |   |   |   |   |   pixel483 <= 62
|   |   |   |   |   |   |   |   |   |   |   |   |   |   |   |   |   |   |   |   |   |   |   |   |   |   |   |   |   |   pixel352 <= 194
|   |   |   |   |   |   |   |   |   |   |   |   |   |   |   |   |   |   |   |   |   |   |   |   |   |   |   |   |   |   |   pixel179 <= 169
|   |   |   |   |   |   |   |   |   |   |   |   |   |   |   |   |   |   |   |   |   |   |   |   |   |   |   |   |   |   |   |   pixel220 <= 13
|   |   |   |   |   |   |   |   |   |   |   |   |   |   |   |   |   |   |   |   |   |   |   |   |   |   |   |   |   |   |   |   |   pixel350 <= 6
|   |   |   |   |   |   |   |   |   |   |   |   |   |   |   |   |   |   |   |   |   |   |   |   |   |   |   |   |   |   |   |   |   |   pixel470 <= 11
|   |   |   |   |   |   |   |   |   |   |   |   |   |   |   |   |   |   |   |   |   |   |   |   |   |   |   |   |   |   |   |   |   |   |   pixel436 <= 19
|   |   |   |   |   |   |   |   |   |   |   |   |   |   |   |   |   |   |   |   |   |   |   |   |   |   |   |   |   |   |   |   |   |   |   |   pixel573 <= 143
|   |   |   |   |   |   |   |   |   |   |   |   |   |   |   |   |   |   |   |   |   |   |   |   |   |   |   |   |   |   |   |   |   |   |   |   |   pixel376 <= 115: 9 (46.0/3.0)
|   |   |   |   |   |   |   |   |   |   |   |   |   |   |   |   |   |   |   |   |   |   |   |   |   |   |   |   |   |   |   |   |   |   |   |   |   pixel376 > 115: 7 (4.0/1.0)
|   |   |   |   |   |   |   |   |   |   |   |   |   |   |   |   |   |   |   |   |   |   |   |   |   |   |   |   |   |   |   |   |   |   |   |   pixel573 > 143: 8 (2.0)
|   |   |   |   |   |   |   |   |   |   |   |   |   |   |   |   |   |   |   |   |   |   |   |   |   |   |   |   |   |   |   |   |   |   |   pixel436 > 19: 9 (1025.0/6.0)
|   |   |   |   |   |   |   |   |   |   |   |   |   |   |   |   |   |   |   |   |   |   |   |   |   |   |   |   |   |   |   |   |   |   pixel470 > 11: 9 (11.0/2.0)
|   |   |   |   |   |   |   |   |   |   |   |   |   |   |   |   |   |   |   |   |   |   |   |   |   |   |   |   |   |   |   |   |   pixel350 > 6
|   |   |   |   |   |   |   |   |   |   |   |   |   |   |   |   |   |   |   |   |   |   |   |   |   |   |   |   |   |   |   |   |   |   pixel398 <= 15: 9 (22.0/2.0)
|   |   |   |   |   |   |   |   |   |   |   |   |   |   |   |   |   |   |   |   |   |   |   |   |   |   |   |   |   |   |   |   |   |   pixel398 > 15: 4 (3.0)
|   |   |   |   |   |   |   |   |   |   |   |   |   |   |   |   |   |   |   |   |   |   |   |   |   |   |   |   |   |   |   |   pixel220 > 13: 9 (12.0/3.0)
|   |   |   |   |   |   |   |   |   |   |   |   |   |   |   |   |   |   |   |   |   |   |   |   |   |   |   |   |   |   |   pixel179 > 169: 9 (12.0/4.0)
|   |   |   |   |   |   |   |   |   |   |   |   |   |   |   |   |   |   |   |   |   |   |   |   |   |   |   |   |   |   pixel352 > 194: 9 (43.0/13.0)
|   |   |   |   |   |   |   |   |   |   |   |   |   |   |   |   |   |   |   |   |   |   |   |   |   |   |   |   |   pixel483 > 62: 9 (21.0/8.0)
|   |   |   |   |   |   |   |   |   |   |   |   |   |   |   |   |   |   |   |   |   |   |   |   |   |   |   pixel544 > 177
|   |   |   |   |   |   |   |   |   |   |   |   |   |   |   |   |   |   |   |   |   |   |   |   |   |   |   |   pixel374 <= 10: 7 (4.0)
|   |   |   |   |   |   |   |   |   |   |   |   |   |   |   |   |   |   |   |   |   |   |   |   |   |   |   |   pixel374 > 10
|   |   |   |   |   |   |   |   |   |   |   |   |   |   |   |   |   |   |   |   |   |   |   |   |   |   |   |   |   pixel681 <= 26: 8 (6.0)
|   |   |   |   |   |   |   |   |   |   |   |   |   |   |   |   |   |   |   |   |   |   |   |   |   |   |   |   |   pixel681 > 26: 9 (5.0)
|   |   |   |   |   |   |   |   |   |   |   |   |   |   |   |   |   |   |   |   |   |   |   |   |   |   pixel177 > 14
|   |   |   |   |   |   |   |   |   |   |   |   |   |   |   |   |   |   |   |   |   |   |   |   |   |   |   pixel466 <= 7: 3 (3.0)
|   |   |   |   |   |   |   |   |   |   |   |   |   |   |   |   |   |   |   |   |   |   |   |   |   |   |   pixel466 > 7
|   |   |   |   |   |   |   |   |   |   |   |   |   |   |   |   |   |   |   |   |   |   |   |   |   |   |   |   pixel209 <= 33: 4 (3.0)
|   |   |   |   |   |   |   |   |   |   |   |   |   |   |   |   |   |   |   |   |   |   |   |   |   |   |   |   pixel209 > 33
|   |   |   |   |   |   |   |   |   |   |   |   |   |   |   |   |   |   |   |   |   |   |   |   |   |   |   |   |   pixel551 <= 76: 7 (8.0)
|   |   |   |   |   |   |   |   |   |   |   |   |   |   |   |   |   |   |   |   |   |   |   |   |   |   |   |   |   pixel551 > 76
|   |   |   |   |   |   |   |   |   |   |   |   |   |   |   |   |   |   |   |   |   |   |   |   |   |   |   |   |   |   pixel546 <= 15: 9 (13.0)
|   |   |   |   |   |   |   |   |   |   |   |   |   |   |   |   |   |   |   |   |   |   |   |   |   |   |   |   |   |   pixel546 > 15: 7 (2.0/1.0)
|   |   |   |   |   |   |   |   |   |   |   |   |   |   |   |   |   |   |   |   |   |   |   |   pixel203 > 7
|   |   |   |   |   |   |   |   |   |   |   |   |   |   |   |   |   |   |   |   |   |   |   |   |   pixel372 <= 11: 7 (15.0/1.0)
|   |   |   |   |   |   |   |   |   |   |   |   |   |   |   |   |   |   |   |   |   |   |   |   |   pixel372 > 11: 9 (19.0/5.0)
|   |   |   |   |   |   |   |   |   |   |   |   |   |   |   |   |   |   |   |   |   |   |   pixel554 > 100
|   |   |   |   |   |   |   |   |   |   |   |   |   |   |   |   |   |   |   |   |   |   |   |   pixel510 <= 16
|   |   |   |   |   |   |   |   |   |   |   |   |   |   |   |   |   |   |   |   |   |   |   |   |   pixel574 <= 70
|   |   |   |   |   |   |   |   |   |   |   |   |   |   |   |   |   |   |   |   |   |   |   |   |   |   pixel217 <= 22
|   |   |   |   |   |   |   |   |   |   |   |   |   |   |   |   |   |   |   |   |   |   |   |   |   |   |   pixel609 <= 36: 3 (2.0/1.0)
|   |   |   |   |   |   |   |   |   |   |   |   |   |   |   |   |   |   |   |   |   |   |   |   |   |   |   pixel609 > 36: 9 (16.0)
|   |   |   |   |   |   |   |   |   |   |   |   |   |   |   |   |   |   |   |   |   |   |   |   |   |   pixel217 > 22: 5 (4.0)
|   |   |   |   |   |   |   |   |   |   |   |   |   |   |   |   |   |   |   |   |   |   |   |   |   pixel574 > 70: 8 (2.0)
|   |   |   |   |   |   |   |   |   |   |   |   |   |   |   |   |   |   |   |   |   |   |   |   pixel510 > 16: 2 (2.0)
|   |   |   |   |   |   |   |   |   |   |   |   |   |   |   |   |   |   |   |   |   |   pixel471 > 5
|   |   |   |   |   |   |   |   |   |   |   |   |   |   |   |   |   |   |   |   |   |   |   pixel491 <= 239: 9 (16.0/6.0)
|   |   |   |   |   |   |   |   |   |   |   |   |   |   |   |   |   |   |   |   |   |   |   pixel491 > 239: 7 (12.0/2.0)
|   |   |   |   |   |   |   |   |   |   |   |   |   |   |   |   |   |   |   |   |   pixel377 > 98
|   |   |   |   |   |   |   |   |   |   |   |   |   |   |   |   |   |   |   |   |   |   pixel177 <= 19
|   |   |   |   |   |   |   |   |   |   |   |   |   |   |   |   |   |   |   |   |   |   |   pixel540 <= 54
|   |   |   |   |   |   |   |   |   |   |   |   |   |   |   |   |   |   |   |   |   |   |   |   pixel461 <= 17: 7 (6.0)
|   |   |   |   |   |   |   |   |   |   |   |   |   |   |   |   |   |   |   |   |   |   |   |   pixel461 > 17
|   |   |   |   |   |   |   |   |   |   |   |   |   |   |   |   |   |   |   |   |   |   |   |   |   pixel130 <= 23
|   |   |   |   |   |   |   |   |   |   |   |   |   |   |   |   |   |   |   |   |   |   |   |   |   |   pixel572 <= 163
|   |   |   |   |   |   |   |   |   |   |   |   |   |   |   |   |   |   |   |   |   |   |   |   |   |   |   pixel322 <= 224
|   |   |   |   |   |   |   |   |   |   |   |   |   |   |   |   |   |   |   |   |   |   |   |   |   |   |   |   pixel212 <= 65: 4 (2.0)
|   |   |   |   |   |   |   |   |   |   |   |   |   |   |   |   |   |   |   |   |   |   |   |   |   |   |   |   pixel212 > 65
|   |   |   |   |   |   |   |   |   |   |   |   |   |   |   |   |   |   |   |   |   |   |   |   |   |   |   |   |   pixel331 <= 3
|   |   |   |   |   |   |   |   |   |   |   |   |   |   |   |   |   |   |   |   |   |   |   |   |   |   |   |   |   |   pixel190 <= 48
|   |   |   |   |   |   |   |   |   |   |   |   |   |   |   |   |   |   |   |   |   |   |   |   |   |   |   |   |   |   |   pixel464 <= 7: 5 (3.0)
|   |   |   |   |   |   |   |   |   |   |   |   |   |   |   |   |   |   |   |   |   |   |   |   |   |   |   |   |   |   |   pixel464 > 7
|   |   |   |   |   |   |   |   |   |   |   |   |   |   |   |   |   |   |   |   |   |   |   |   |   |   |   |   |   |   |   |   pixel545 <= 41: 9 (30.0)
|   |   |   |   |   |   |   |   |   |   |   |   |   |   |   |   |   |   |   |   |   |   |   |   |   |   |   |   |   |   |   |   pixel545 > 41: 8 (5.0/2.0)
|   |   |   |   |   |   |   |   |   |   |   |   |   |   |   |   |   |   |   |   |   |   |   |   |   |   |   |   |   |   pixel190 > 48: 5 (2.0)
|   |   |   |   |   |   |   |   |   |   |   |   |   |   |   |   |   |   |   |   |   |   |   |   |   |   |   |   |   pixel331 > 3: 8 (2.0)
|   |   |   |   |   |   |   |   |   |   |   |   |   |   |   |   |   |   |   |   |   |   |   |   |   |   |   pixel322 > 224: 4 (16.0/3.0)
|   |   |   |   |   |   |   |   |   |   |   |   |   |   |   |   |   |   |   |   |   |   |   |   |   |   pixel572 > 163: 8 (7.0)
|   |   |   |   |   |   |   |   |   |   |   |   |   |   |   |   |   |   |   |   |   |   |   |   |   pixel130 > 23: 1 (2.0/1.0)
|   |   |   |   |   |   |   |   |   |   |   |   |   |   |   |   |   |   |   |   |   |   |   pixel540 > 54: 2 (2.0)
|   |   |   |   |   |   |   |   |   |   |   |   |   |   |   |   |   |   |   |   |   |   pixel177 > 19: 2 (2.0/1.0)
|   |   |   |   |   |   |   |   |   |   |   |   |   |   |   |   |   |   |   |   pixel161 > 3: 4 (26.0/9.0)
|   |   |   |   |   |   |   |   |   |   |   |   |   |   |   |   |   |   |   pixel249 > 15
|   |   |   |   |   |   |   |   |   |   |   |   |   |   |   |   |   |   |   |   pixel243 <= 69: 4 (9.0)
|   |   |   |   |   |   |   |   |   |   |   |   |   |   |   |   |   |   |   |   pixel243 > 69
|   |   |   |   |   |   |   |   |   |   |   |   |   |   |   |   |   |   |   |   |   pixel325 <= 71
|   |   |   |   |   |   |   |   |   |   |   |   |   |   |   |   |   |   |   |   |   |   pixel384 <= 126: 5 (4.0)
|   |   |   |   |   |   |   |   |   |   |   |   |   |   |   |   |   |   |   |   |   |   pixel384 > 126: 9 (4.0)
|   |   |   |   |   |   |   |   |   |   |   |   |   |   |   |   |   |   |   |   |   pixel325 > 71: 7 (2.0)
|   |   |   |   |   |   |   |   |   |   |   |   |   |   |   |   |   |   pixel157 > 2
|   |   |   |   |   |   |   |   |   |   |   |   |   |   |   |   |   |   |   pixel651 <= 10
|   |   |   |   |   |   |   |   |   |   |   |   |   |   |   |   |   |   |   |   pixel247 <= 35
|   |   |   |   |   |   |   |   |   |   |   |   |   |   |   |   |   |   |   |   |   pixel544 <= 173
|   |   |   |   |   |   |   |   |   |   |   |   |   |   |   |   |   |   |   |   |   |   pixel214 <= 208: 9 (5.0)
|   |   |   |   |   |   |   |   |   |   |   |   |   |   |   |   |   |   |   |   |   |   pixel214 > 208: 4 (21.0/2.0)
|   |   |   |   |   |   |   |   |   |   |   |   |   |   |   |   |   |   |   |   |   pixel544 > 173: 0 (3.0/2.0)
|   |   |   |   |   |   |   |   |   |   |   |   |   |   |   |   |   |   |   |   pixel247 > 35: 2 (2.0/1.0)
|   |   |   |   |   |   |   |   |   |   |   |   |   |   |   |   |   |   |   pixel651 > 10: 2 (2.0/1.0)
|   |   |   |   |   |   |   |   |   |   |   |   |   |   |   |   |   pixel193 > 6: 4 (19.0/7.0)
|   |   |   |   |   |   |   |   |   |   |   |   |   |   |   |   pixel156 > 0
|   |   |   |   |   |   |   |   |   |   |   |   |   |   |   |   |   pixel209 <= 29: 4 (109.0/11.0)
|   |   |   |   |   |   |   |   |   |   |   |   |   |   |   |   |   pixel209 > 29
|   |   |   |   |   |   |   |   |   |   |   |   |   |   |   |   |   |   pixel546 <= 132
|   |   |   |   |   |   |   |   |   |   |   |   |   |   |   |   |   |   |   pixel651 <= 57
|   |   |   |   |   |   |   |   |   |   |   |   |   |   |   |   |   |   |   |   pixel355 <= 9
|   |   |   |   |   |   |   |   |   |   |   |   |   |   |   |   |   |   |   |   |   pixel492 <= 94: 5 (21.0)
|   |   |   |   |   |   |   |   |   |   |   |   |   |   |   |   |   |   |   |   |   pixel492 > 94: 4 (13.0/4.0)
|   |   |   |   |   |   |   |   |   |   |   |   |   |   |   |   |   |   |   |   pixel355 > 9
|   |   |   |   |   |   |   |   |   |   |   |   |   |   |   |   |   |   |   |   |   pixel509 <= 59
|   |   |   |   |   |   |   |   |   |   |   |   |   |   |   |   |   |   |   |   |   |   pixel349 <= 109: 9 (57.0/5.0)
|   |   |   |   |   |   |   |   |   |   |   |   |   |   |   |   |   |   |   |   |   |   pixel349 > 109: 4 (7.0)
|   |   |   |   |   |   |   |   |   |   |   |   |   |   |   |   |   |   |   |   |   pixel509 > 59: 2 (2.0/1.0)
|   |   |   |   |   |   |   |   |   |   |   |   |   |   |   |   |   |   |   pixel651 > 57: 3 (4.0)
|   |   |   |   |   |   |   |   |   |   |   |   |   |   |   |   |   |   pixel546 > 132
|   |   |   |   |   |   |   |   |   |   |   |   |   |   |   |   |   |   |   pixel632 <= 3: 4 (15.0/7.0)
|   |   |   |   |   |   |   |   |   |   |   |   |   |   |   |   |   |   |   pixel632 > 3: 8 (32.0/4.0)
|   |   |   |   |   |   |   |   |   |   |   |   |   |   |   pixel202 > 2
|   |   |   |   |   |   |   |   |   |   |   |   |   |   |   |   pixel219 <= 23
|   |   |   |   |   |   |   |   |   |   |   |   |   |   |   |   |   pixel373 <= 13: 7 (35.0/12.0)
|   |   |   |   |   |   |   |   |   |   |   |   |   |   |   |   |   pixel373 > 13: 9 (12.0/4.0)
|   |   |   |   |   |   |   |   |   |   |   |   |   |   |   |   pixel219 > 23: 5 (2.0/1.0)
|   |   |   |   |   |   |   |   |   |   |   |   |   |   pixel444 > 2
|   |   |   |   |   |   |   |   |   |   |   |   |   |   |   pixel555 <= 6
|   |   |   |   |   |   |   |   |   |   |   |   |   |   |   |   pixel374 <= 2: 7 (25.0/4.0)
|   |   |   |   |   |   |   |   |   |   |   |   |   |   |   |   pixel374 > 2: 4 (41.0/2.0)
|   |   |   |   |   |   |   |   |   |   |   |   |   |   |   pixel555 > 6: 3 (3.0/1.0)
|   |   |   |   |   |   |   |   |   |   |   |   |   pixel151 > 37
|   |   |   |   |   |   |   |   |   |   |   |   |   |   pixel291 <= 155
|   |   |   |   |   |   |   |   |   |   |   |   |   |   |   pixel289 <= 36
|   |   |   |   |   |   |   |   |   |   |   |   |   |   |   |   pixel516 <= 117: 3 (22.0/7.0)
|   |   |   |   |   |   |   |   |   |   |   |   |   |   |   |   pixel516 > 117: 2 (11.0/5.0)
|   |   |   |   |   |   |   |   |   |   |   |   |   |   |   pixel289 > 36: 9 (7.0/2.0)
|   |   |   |   |   |   |   |   |   |   |   |   |   |   pixel291 > 155
|   |   |   |   |   |   |   |   |   |   |   |   |   |   |   pixel353 <= 244: 5 (10.0/1.0)
|   |   |   |   |   |   |   |   |   |   |   |   |   |   |   pixel353 > 244: 4 (4.0)
|   |   |   |   |   |   |   |   |   |   |   |   pixel129 > 9
|   |   |   |   |   |   |   |   |   |   |   |   |   pixel303 <= 22
|   |   |   |   |   |   |   |   |   |   |   |   |   |   pixel572 <= 11: 4 (44.0/5.0)
|   |   |   |   |   |   |   |   |   |   |   |   |   |   pixel572 > 11
|   |   |   |   |   |   |   |   |   |   |   |   |   |   |   pixel486 <= 64
|   |   |   |   |   |   |   |   |   |   |   |   |   |   |   |   pixel328 <= 18: 6 (7.0/2.0)
|   |   |   |   |   |   |   |   |   |   |   |   |   |   |   |   pixel328 > 18: 8 (3.0)
|   |   |   |   |   |   |   |   |   |   |   |   |   |   |   pixel486 > 64: 2 (4.0)
|   |   |   |   |   |   |   |   |   |   |   |   |   pixel303 > 22: 9 (3.0/1.0)
|   |   |   |   |   |   |   |   |   |   |   pixel164 > 1
|   |   |   |   |   |   |   |   |   |   |   |   pixel187 <= 21: 4 (30.0/1.0)
|   |   |   |   |   |   |   |   |   |   |   |   pixel187 > 21: 5 (16.0)
|   |   |   |   |   |   |   |   pixel595 > 10
|   |   |   |   |   |   |   |   |   pixel512 <= 56
|   |   |   |   |   |   |   |   |   |   pixel360 <= 6
|   |   |   |   |   |   |   |   |   |   |   pixel483 <= 188
|   |   |   |   |   |   |   |   |   |   |   |   pixel354 <= 93: 5 (83.0/8.0)
|   |   |   |   |   |   |   |   |   |   |   |   pixel354 > 93: 3 (10.0)
|   |   |   |   |   |   |   |   |   |   |   pixel483 > 188: 2 (4.0)
|   |   |   |   |   |   |   |   |   |   pixel360 > 6: 8 (2.0/1.0)
|   |   |   |   |   |   |   |   |   pixel512 > 56
|   |   |   |   |   |   |   |   |   |   pixel350 <= 127: 2 (59.0/12.0)
|   |   |   |   |   |   |   |   |   |   pixel350 > 127: 0 (5.0/1.0)
|   |   |   |   |   |   |   pixel543 > 72
|   |   |   |   |   |   |   |   pixel463 <= 1
|   |   |   |   |   |   |   |   |   pixel718 <= 7
|   |   |   |   |   |   |   |   |   |   pixel134 <= 16
|   |   |   |   |   |   |   |   |   |   |   pixel557 <= 91
|   |   |   |   |   |   |   |   |   |   |   |   pixel95 <= 11
|   |   |   |   |   |   |   |   |   |   |   |   |   pixel174 <= 52
|   |   |   |   |   |   |   |   |   |   |   |   |   |   pixel666 <= 6
|   |   |   |   |   |   |   |   |   |   |   |   |   |   |   pixel407 <= 33
|   |   |   |   |   |   |   |   |   |   |   |   |   |   |   |   pixel277 <= 8
|   |   |   |   |   |   |   |   |   |   |   |   |   |   |   |   |   pixel99 <= 41
|   |   |   |   |   |   |   |   |   |   |   |   |   |   |   |   |   |   pixel177 <= 222
|   |   |   |   |   |   |   |   |   |   |   |   |   |   |   |   |   |   |   pixel323 <= 252: 0 (167.0/15.0)
|   |   |   |   |   |   |   |   |   |   |   |   |   |   |   |   |   |   |   pixel323 > 252
|   |   |   |   |   |   |   |   |   |   |   |   |   |   |   |   |   |   |   |   pixel634 <= 25: 0 (3.0)
|   |   |   |   |   |   |   |   |   |   |   |   |   |   |   |   |   |   |   |   pixel634 > 25
|   |   |   |   |   |   |   |   |   |   |   |   |   |   |   |   |   |   |   |   |   pixel268 <= 1: 5 (5.0/1.0)
|   |   |   |   |   |   |   |   |   |   |   |   |   |   |   |   |   |   |   |   |   pixel268 > 1: 8 (10.0)
|   |   |   |   |   |   |   |   |   |   |   |   |   |   |   |   |   |   pixel177 > 222: 3 (2.0/1.0)
|   |   |   |   |   |   |   |   |   |   |   |   |   |   |   |   |   pixel99 > 41: 6 (2.0)
|   |   |   |   |   |   |   |   |   |   |   |   |   |   |   |   pixel277 > 8: 5 (2.0)
|   |   |   |   |   |   |   |   |   |   |   |   |   |   |   pixel407 > 33: 8 (9.0/2.0)
|   |   |   |   |   |   |   |   |   |   |   |   |   |   pixel666 > 6: 2 (3.0/1.0)
|   |   |   |   |   |   |   |   |   |   |   |   |   pixel174 > 52: 3 (3.0/1.0)
|   |   |   |   |   |   |   |   |   |   |   |   pixel95 > 11
|   |   |   |   |   |   |   |   |   |   |   |   |   pixel154 <= 72: 6 (11.0/2.0)
|   |   |   |   |   |   |   |   |   |   |   |   |   pixel154 > 72: 2 (2.0)
|   |   |   |   |   |   |   |   |   |   |   pixel557 > 91: 2 (4.0)
|   |   |   |   |   |   |   |   |   |   pixel134 > 16: 6 (10.0/1.0)
|   |   |   |   |   |   |   |   |   pixel718 > 7: 7 (3.0/1.0)
|   |   |   |   |   |   |   |   pixel463 > 1
|   |   |   |   |   |   |   |   |   pixel557 <= 5
|   |   |   |   |   |   |   |   |   |   pixel572 <= 1
|   |   |   |   |   |   |   |   |   |   |   pixel626 <= 2
|   |   |   |   |   |   |   |   |   |   |   |   pixel710 <= 58
|   |   |   |   |   |   |   |   |   |   |   |   |   pixel212 <= 14: 4 (43.0/2.0)
|   |   |   |   |   |   |   |   |   |   |   |   |   pixel212 > 14
|   |   |   |   |   |   |   |   |   |   |   |   |   |   pixel231 <= 15
|   |   |   |   |   |   |   |   |   |   |   |   |   |   |   pixel404 <= 26: 9 (41.0/4.0)
|   |   |   |   |   |   |   |   |   |   |   |   |   |   |   pixel404 > 26
|   |   |   |   |   |   |   |   |   |   |   |   |   |   |   |   pixel320 <= 154: 2 (9.0)
|   |   |   |   |   |   |   |   |   |   |   |   |   |   |   |   pixel320 > 154: 4 (10.0/2.0)
|   |   |   |   |   |   |   |   |   |   |   |   |   |   pixel231 > 15: 7 (7.0)
|   |   |   |   |   |   |   |   |   |   |   |   pixel710 > 58: 3 (2.0/1.0)
|   |   |   |   |   |   |   |   |   |   |   pixel626 > 2: 8 (10.0/4.0)
|   |   |   |   |   |   |   |   |   |   pixel572 > 1
|   |   |   |   |   |   |   |   |   |   |   pixel709 <= 0
|   |   |   |   |   |   |   |   |   |   |   |   pixel121 <= 8
|   |   |   |   |   |   |   |   |   |   |   |   |   pixel687 <= 1
|   |   |   |   |   |   |   |   |   |   |   |   |   |   pixel713 <= 7
|   |   |   |   |   |   |   |   |   |   |   |   |   |   |   pixel277 <= 38
|   |   |   |   |   |   |   |   |   |   |   |   |   |   |   |   pixel327 <= 1
|   |   |   |   |   |   |   |   |   |   |   |   |   |   |   |   |   pixel229 <= 6
|   |   |   |   |   |   |   |   |   |   |   |   |   |   |   |   |   |   pixel325 <= 215
|   |   |   |   |   |   |   |   |   |   |   |   |   |   |   |   |   |   |   pixel329 <= 229
|   |   |   |   |   |   |   |   |   |   |   |   |   |   |   |   |   |   |   |   pixel487 <= 0: 5 (4.0)
|   |   |   |   |   |   |   |   |   |   |   |   |   |   |   |   |   |   |   |   pixel487 > 0: 6 (66.0/11.0)
|   |   |   |   |   |   |   |   |   |   |   |   |   |   |   |   |   |   |   pixel329 > 229: 2 (2.0)
|   |   |   |   |   |   |   |   |   |   |   |   |   |   |   |   |   |   pixel325 > 215: 2 (7.0)
|   |   |   |   |   |   |   |   |   |   |   |   |   |   |   |   |   pixel229 > 6: 2 (2.0/1.0)
|   |   |   |   |   |   |   |   |   |   |   |   |   |   |   |   pixel327 > 1
|   |   |   |   |   |   |   |   |   |   |   |   |   |   |   |   |   pixel95 <= 12
|   |   |   |   |   |   |   |   |   |   |   |   |   |   |   |   |   |   pixel720 <= 111
|   |   |   |   |   |   |   |   |   |   |   |   |   |   |   |   |   |   |   pixel347 <= 8
|   |   |   |   |   |   |   |   |   |   |   |   |   |   |   |   |   |   |   |   pixel373 <= 145
|   |   |   |   |   |   |   |   |   |   |   |   |   |   |   |   |   |   |   |   |   pixel681 <= 2
|   |   |   |   |   |   |   |   |   |   |   |   |   |   |   |   |   |   |   |   |   |   pixel313 <= 48
|   |   |   |   |   |   |   |   |   |   |   |   |   |   |   |   |   |   |   |   |   |   |   pixel377 <= 43: 2 (31.0/1.0)
|   |   |   |   |   |   |   |   |   |   |   |   |   |   |   |   |   |   |   |   |   |   |   pixel377 > 43: 8 (3.0/1.0)
|   |   |   |   |   |   |   |   |   |   |   |   |   |   |   |   |   |   |   |   |   |   pixel313 > 48: 3 (2.0/1.0)
|   |   |   |   |   |   |   |   |   |   |   |   |   |   |   |   |   |   |   |   |   pixel681 > 2: 1 (2.0/1.0)
|   |   |   |   |   |   |   |   |   |   |   |   |   |   |   |   |   |   |   |   pixel373 > 145: 8 (6.0)
|   |   |   |   |   |   |   |   |   |   |   |   |   |   |   |   |   |   |   pixel347 > 8
|   |   |   |   |   |   |   |   |   |   |   |   |   |   |   |   |   |   |   |   pixel436 <= 21: 0 (2.0/1.0)
|   |   |   |   |   |   |   |   |   |   |   |   |   |   |   |   |   |   |   |   pixel436 > 21
|   |   |   |   |   |   |   |   |   |   |   |   |   |   |   |   |   |   |   |   |   pixel658 <= 108: 4 (53.0/13.0)
|   |   |   |   |   |   |   |   |   |   |   |   |   |   |   |   |   |   |   |   |   pixel658 > 108: 8 (22.0/3.0)
|   |   |   |   |   |   |   |   |   |   |   |   |   |   |   |   |   |   pixel720 > 111: 9 (2.0)
|   |   |   |   |   |   |   |   |   |   |   |   |   |   |   |   |   pixel95 > 12: 6 (8.0)
|   |   |   |   |   |   |   |   |   |   |   |   |   |   |   pixel277 > 38
|   |   |   |   |   |   |   |   |   |   |   |   |   |   |   |   pixel628 <= 120: 5 (6.0)
|   |   |   |   |   |   |   |   |   |   |   |   |   |   |   |   pixel628 > 120: 8 (5.0)
|   |   |   |   |   |   |   |   |   |   |   |   |   |   pixel713 > 7: 7 (8.0/3.0)
|   |   |   |   |   |   |   |   |   |   |   |   |   pixel687 > 1
|   |   |   |   |   |   |   |   |   |   |   |   |   |   pixel513 <= 54
|   |   |   |   |   |   |   |   |   |   |   |   |   |   |   pixel165 <= 98: 8 (112.0/8.0)
|   |   |   |   |   |   |   |   |   |   |   |   |   |   |   pixel165 > 98: 5 (2.0/1.0)
|   |   |   |   |   |   |   |   |   |   |   |   |   |   pixel513 > 54
|   |   |   |   |   |   |   |   |   |   |   |   |   |   |   pixel239 <= 252: 4 (2.0/1.0)
|   |   |   |   |   |   |   |   |   |   |   |   |   |   |   pixel239 > 252: 3 (4.0/2.0)
|   |   |   |   |   |   |   |   |   |   |   |   pixel121 > 8: 2 (22.0/2.0)
|   |   |   |   |   |   |   |   |   |   |   pixel709 > 0
|   |   |   |   |   |   |   |   |   |   |   |   pixel604 <= 236
|   |   |   |   |   |   |   |   |   |   |   |   |   pixel347 <= 72: 7 (11.0/1.0)
|   |   |   |   |   |   |   |   |   |   |   |   |   pixel347 > 72
|   |   |   |   |   |   |   |   |   |   |   |   |   |   pixel263 <= 21: 9 (6.0/1.0)
|   |   |   |   |   |   |   |   |   |   |   |   |   |   pixel263 > 21: 4 (3.0)
|   |   |   |   |   |   |   |   |   |   |   |   pixel604 > 236: 8 (2.0)
|   |   |   |   |   |   |   |   |   pixel557 > 5: 2 (32.0/1.0)
|   |   |   |   |   |   pixel103 > 2
|   |   |   |   |   |   |   pixel271 <= 4: 6 (138.0/1.0)
|   |   |   |   |   |   |   pixel271 > 4: 4 (20.0/2.0)
|   |   |   |   pixel98 > 0
|   |   |   |   |   pixel241 <= 2
|   |   |   |   |   |   pixel626 <= 29
|   |   |   |   |   |   |   pixel212 <= 74
|   |   |   |   |   |   |   |   pixel271 <= 209: 6 (255.0/4.0)
|   |   |   |   |   |   |   |   pixel271 > 209: 4 (6.0/1.0)
|   |   |   |   |   |   |   pixel212 > 74: 2 (3.0/1.0)
|   |   |   |   |   |   pixel626 > 29: 2 (3.0/2.0)
|   |   |   |   |   pixel241 > 2: 2 (39.0/13.0)
|   |   |   pixel569 > 0
|   |   |   |   pixel104 <= 4
|   |   |   |   |   pixel463 <= 0
|   |   |   |   |   |   pixel457 <= 1
|   |   |   |   |   |   |   pixel427 <= 97
|   |   |   |   |   |   |   |   pixel458 <= 61
|   |   |   |   |   |   |   |   |   pixel323 <= 1
|   |   |   |   |   |   |   |   |   |   pixel370 <= 251
|   |   |   |   |   |   |   |   |   |   |   pixel377 <= 8: 2 (96.0/22.0)
|   |   |   |   |   |   |   |   |   |   |   pixel377 > 8: 5 (33.0/3.0)
|   |   |   |   |   |   |   |   |   |   pixel370 > 251: 0 (4.0/2.0)
|   |   |   |   |   |   |   |   |   pixel323 > 1
|   |   |   |   |   |   |   |   |   |   pixel460 <= 46
|   |   |   |   |   |   |   |   |   |   |   pixel289 <= 202
|   |   |   |   |   |   |   |   |   |   |   |   pixel164 <= 18
|   |   |   |   |   |   |   |   |   |   |   |   |   pixel249 <= 2
|   |   |   |   |   |   |   |   |   |   |   |   |   |   pixel263 <= 94
|   |   |   |   |   |   |   |   |   |   |   |   |   |   |   pixel302 <= 230
|   |   |   |   |   |   |   |   |   |   |   |   |   |   |   |   pixel543 <= 253
|   |   |   |   |   |   |   |   |   |   |   |   |   |   |   |   |   pixel262 <= 228
|   |   |   |   |   |   |   |   |   |   |   |   |   |   |   |   |   |   pixel237 <= 113
|   |   |   |   |   |   |   |   |   |   |   |   |   |   |   |   |   |   |   pixel192 <= 149: 3 (194.0/3.0)
|   |   |   |   |   |   |   |   |   |   |   |   |   |   |   |   |   |   |   pixel192 > 149: 5 (2.0)
|   |   |   |   |   |   |   |   |   |   |   |   |   |   |   |   |   |   pixel237 > 113
|   |   |   |   |   |   |   |   |   |   |   |   |   |   |   |   |   |   |   pixel151 <= 30: 5 (25.0/5.0)
|   |   |   |   |   |   |   |   |   |   |   |   |   |   |   |   |   |   |   pixel151 > 30: 3 (13.0)
|   |   |   |   |   |   |   |   |   |   |   |   |   |   |   |   |   pixel262 > 228: 5 (4.0)
|   |   |   |   |   |   |   |   |   |   |   |   |   |   |   |   pixel543 > 253: 5 (3.0/1.0)
|   |   |   |   |   |   |   |   |   |   |   |   |   |   |   pixel302 > 230: 5 (3.0/1.0)
|   |   |   |   |   |   |   |   |   |   |   |   |   |   pixel263 > 94
|   |   |   |   |   |   |   |   |   |   |   |   |   |   |   pixel409 <= 241
|   |   |   |   |   |   |   |   |   |   |   |   |   |   |   |   pixel273 <= 204
|   |   |   |   |   |   |   |   |   |   |   |   |   |   |   |   |   pixel201 <= 12
|   |   |   |   |   |   |   |   |   |   |   |   |   |   |   |   |   |   pixel320 <= 1: 3 (3.0)
|   |   |   |   |   |   |   |   |   |   |   |   |   |   |   |   |   |   pixel320 > 1
|   |   |   |   |   |   |   |   |   |   |   |   |   |   |   |   |   |   |   pixel268 <= 227: 5 (58.0/1.0)
|   |   |   |   |   |   |   |   |   |   |   |   |   |   |   |   |   |   |   pixel268 > 227: 3 (4.0/1.0)
|   |   |   |   |   |   |   |   |   |   |   |   |   |   |   |   |   pixel201 > 12: 3 (2.0)
|   |   |   |   |   |   |   |   |   |   |   |   |   |   |   |   pixel273 > 204: 3 (5.0/2.0)
|   |   |   |   |   |   |   |   |   |   |   |   |   |   |   pixel409 > 241: 1 (2.0/1.0)
|   |   |   |   |   |   |   |   |   |   |   |   |   pixel249 > 2: 5 (25.0)
|   |   |   |   |   |   |   |   |   |   |   |   pixel164 > 18: 5 (33.0/1.0)
|   |   |   |   |   |   |   |   |   |   |   pixel289 > 202: 5 (49.0/3.0)
|   |   |   |   |   |   |   |   |   |   pixel460 > 46
|   |   |   |   |   |   |   |   |   |   |   pixel356 <= 105: 5 (21.0/5.0)
|   |   |   |   |   |   |   |   |   |   |   pixel356 > 105: 8 (2.0)
|   |   |   |   |   |   |   |   pixel458 > 61: 0 (37.0/17.0)
|   |   |   |   |   |   |   pixel427 > 97
|   |   |   |   |   |   |   |   pixel437 <= 106: 0 (67.0/14.0)
|   |   |   |   |   |   |   |   pixel437 > 106: 2 (4.0/1.0)
|   |   |   |   |   |   pixel457 > 1
|   |   |   |   |   |   |   pixel95 <= 36
|   |   |   |   |   |   |   |   pixel407 <= 190
|   |   |   |   |   |   |   |   |   pixel258 <= 11
|   |   |   |   |   |   |   |   |   |   pixel429 <= 1
|   |   |   |   |   |   |   |   |   |   |   pixel403 <= 147
|   |   |   |   |   |   |   |   |   |   |   |   pixel370 <= 12
|   |   |   |   |   |   |   |   |   |   |   |   |   pixel408 <= 76
|   |   |   |   |   |   |   |   |   |   |   |   |   |   pixel302 <= 7
|   |   |   |   |   |   |   |   |   |   |   |   |   |   |   pixel405 <= 1
|   |   |   |   |   |   |   |   |   |   |   |   |   |   |   |   pixel147 <= 4
|   |   |   |   |   |   |   |   |   |   |   |   |   |   |   |   |   pixel128 <= 99: 5 (23.0/2.0)
|   |   |   |   |   |   |   |   |   |   |   |   |   |   |   |   |   pixel128 > 99: 3 (11.0/2.0)
|   |   |   |   |   |   |   |   |   |   |   |   |   |   |   |   pixel147 > 4: 3 (2.0)
|   |   |   |   |   |   |   |   |   |   |   |   |   |   |   pixel405 > 1: 2 (2.0/1.0)
|   |   |   |   |   |   |   |   |   |   |   |   |   |   pixel302 > 7: 2 (6.0)
|   |   |   |   |   |   |   |   |   |   |   |   |   pixel408 > 76: 1 (2.0/1.0)
|   |   |   |   |   |   |   |   |   |   |   |   pixel370 > 12: 0 (2.0)
|   |   |   |   |   |   |   |   |   |   |   pixel403 > 147: 0 (33.0/3.0)
|   |   |   |   |   |   |   |   |   |   pixel429 > 1
|   |   |   |   |   |   |   |   |   |   |   pixel489 <= 127
|   |   |   |   |   |   |   |   |   |   |   |   pixel665 <= 47
|   |   |   |   |   |   |   |   |   |   |   |   |   pixel408 <= 2
|   |   |   |   |   |   |   |   |   |   |   |   |   |   pixel351 <= 240
|   |   |   |   |   |   |   |   |   |   |   |   |   |   |   pixel409 <= 97
|   |   |   |   |   |   |   |   |   |   |   |   |   |   |   |   pixel97 <= 50
|   |   |   |   |   |   |   |   |   |   |   |   |   |   |   |   |   pixel517 <= 165
|   |   |   |   |   |   |   |   |   |   |   |   |   |   |   |   |   |   pixel325 <= 191: 0 (1185.0/8.0)
|   |   |   |   |   |   |   |   |   |   |   |   |   |   |   |   |   |   pixel325 > 191
|   |   |   |   |   |   |   |   |   |   |   |   |   |   |   |   |   |   |   pixel122 <= 14
|   |   |   |   |   |   |   |   |   |   |   |   |   |   |   |   |   |   |   |   pixel305 <= 28: 0 (46.0/4.0)
|   |   |   |   |   |   |   |   |   |   |   |   |   |   |   |   |   |   |   |   pixel305 > 28: 5 (2.0)
|   |   |   |   |   |   |   |   |   |   |   |   |   |   |   |   |   |   |   pixel122 > 14: 3 (2.0)
|   |   |   |   |   |   |   |   |   |   |   |   |   |   |   |   |   pixel517 > 165: 0 (19.0/5.0)
|   |   |   |   |   |   |   |   |   |   |   |   |   |   |   |   pixel97 > 50: 0 (15.0/3.0)
|   |   |   |   |   |   |   |   |   |   |   |   |   |   |   pixel409 > 97: 0 (21.0/6.0)
|   |   |   |   |   |   |   |   |   |   |   |   |   |   pixel351 > 240
|   |   |   |   |   |   |   |   |   |   |   |   |   |   |   pixel628 <= 16: 2 (4.0/2.0)
|   |   |   |   |   |   |   |   |   |   |   |   |   |   |   pixel628 > 16
|   |   |   |   |   |   |   |   |   |   |   |   |   |   |   |   pixel269 <= 6: 5 (6.0/1.0)
|   |   |   |   |   |   |   |   |   |   |   |   |   |   |   |   pixel269 > 6: 0 (18.0/3.0)
|   |   |   |   |   |   |   |   |   |   |   |   |   pixel408 > 2: 0 (19.0/10.0)
|   |   |   |   |   |   |   |   |   |   |   |   pixel665 > 47
|   |   |   |   |   |   |   |   |   |   |   |   |   pixel408 <= 3
|   |   |   |   |   |   |   |   |   |   |   |   |   |   pixel466 <= 78
|   |   |   |   |   |   |   |   |   |   |   |   |   |   |   pixel323 <= 43: 0 (7.0)
|   |   |   |   |   |   |   |   |   |   |   |   |   |   |   pixel323 > 43: 5 (4.0)
|   |   |   |   |   |   |   |   |   |   |   |   |   |   pixel466 > 78: 9 (3.0)
|   |   |   |   |   |   |   |   |   |   |   |   |   pixel408 > 3: 2 (2.0)
|   |   |   |   |   |   |   |   |   |   |   pixel489 > 127
|   |   |   |   |   |   |   |   |   |   |   |   pixel500 <= 20
|   |   |   |   |   |   |   |   |   |   |   |   |   pixel375 <= 189
|   |   |   |   |   |   |   |   |   |   |   |   |   |   pixel249 <= 31: 2 (9.0)
|   |   |   |   |   |   |   |   |   |   |   |   |   |   pixel249 > 31: 5 (4.0)
|   |   |   |   |   |   |   |   |   |   |   |   |   pixel375 > 189: 0 (10.0/1.0)
|   |   |   |   |   |   |   |   |   |   |   |   pixel500 > 20: 4 (2.0)
|   |   |   |   |   |   |   |   |   pixel258 > 11
|   |   |   |   |   |   |   |   |   |   pixel349 <= 127: 0 (12.0/8.0)
|   |   |   |   |   |   |   |   |   |   pixel349 > 127
|   |   |   |   |   |   |   |   |   |   |   pixel123 <= 7: 5 (2.0/1.0)
|   |   |   |   |   |   |   |   |   |   |   pixel123 > 7: 8 (2.0)
|   |   |   |   |   |   |   |   pixel407 > 190
|   |   |   |   |   |   |   |   |   pixel207 <= 0: 5 (10.0/1.0)
|   |   |   |   |   |   |   |   |   pixel207 > 0: 2 (11.0/1.0)
|   |   |   |   |   |   |   pixel95 > 36
|   |   |   |   |   |   |   |   pixel317 <= 127: 2 (16.0/2.0)
|   |   |   |   |   |   |   |   pixel317 > 127: 6 (3.0)
|   |   |   |   |   pixel463 > 0
|   |   |   |   |   |   pixel707 <= 0
|   |   |   |   |   |   |   pixel348 <= 0
|   |   |   |   |   |   |   |   pixel345 <= 63
|   |   |   |   |   |   |   |   |   pixel350 <= 69
|   |   |   |   |   |   |   |   |   |   pixel371 <= 64
|   |   |   |   |   |   |   |   |   |   |   pixel684 <= 21
|   |   |   |   |   |   |   |   |   |   |   |   pixel680 <= 2
|   |   |   |   |   |   |   |   |   |   |   |   |   pixel347 <= 14
|   |   |   |   |   |   |   |   |   |   |   |   |   |   pixel136 <= 2: 2 (1154.0/41.0)
|   |   |   |   |   |   |   |   |   |   |   |   |   |   pixel136 > 2
|   |   |   |   |   |   |   |   |   |   |   |   |   |   |   pixel244 <= 90: 2 (8.0)
|   |   |   |   |   |   |   |   |   |   |   |   |   |   |   pixel244 > 90: 1 (4.0/1.0)
|   |   |   |   |   |   |   |   |   |   |   |   |   pixel347 > 14
|   |   |   |   |   |   |   |   |   |   |   |   |   |   pixel277 <= 19: 2 (10.0/2.0)
|   |   |   |   |   |   |   |   |   |   |   |   |   |   pixel277 > 19: 8 (2.0)
|   |   |   |   |   |   |   |   |   |   |   |   pixel680 > 2
|   |   |   |   |   |   |   |   |   |   |   |   |   pixel158 <= 40: 7 (15.0/1.0)
|   |   |   |   |   |   |   |   |   |   |   |   |   pixel158 > 40: 2 (16.0/1.0)
|   |   |   |   |   |   |   |   |   |   |   pixel684 > 21
|   |   |   |   |   |   |   |   |   |   |   |   pixel515 <= 9: 3 (12.0/3.0)
|   |   |   |   |   |   |   |   |   |   |   |   pixel515 > 9
|   |   |   |   |   |   |   |   |   |   |   |   |   pixel184 <= 125: 7 (10.0)
|   |   |   |   |   |   |   |   |   |   |   |   |   pixel184 > 125
|   |   |   |   |   |   |   |   |   |   |   |   |   |   pixel679 <= 79
|   |   |   |   |   |   |   |   |   |   |   |   |   |   |   pixel322 <= 1: 2 (21.0/2.0)
|   |   |   |   |   |   |   |   |   |   |   |   |   |   |   pixel322 > 1: 8 (3.0)
|   |   |   |   |   |   |   |   |   |   |   |   |   |   pixel679 > 79: 7 (2.0)
|   |   |   |   |   |   |   |   |   |   pixel371 > 64: 8 (13.0/8.0)
|   |   |   |   |   |   |   |   |   pixel350 > 69: 8 (27.0/12.0)
|   |   |   |   |   |   |   |   pixel345 > 63
|   |   |   |   |   |   |   |   |   pixel69 <= 2
|   |   |   |   |   |   |   |   |   |   pixel355 <= 16
|   |   |   |   |   |   |   |   |   |   |   pixel385 <= 100
|   |   |   |   |   |   |   |   |   |   |   |   pixel353 <= 128
|   |   |   |   |   |   |   |   |   |   |   |   |   pixel385 <= 30
|   |   |   |   |   |   |   |   |   |   |   |   |   |   pixel129 <= 64: 5 (41.0)
|   |   |   |   |   |   |   |   |   |   |   |   |   |   pixel129 > 64: 6 (2.0)
|   |   |   |   |   |   |   |   |   |   |   |   |   pixel385 > 30: 6 (2.0)
|   |   |   |   |   |   |   |   |   |   |   |   pixel353 > 128: 1 (2.0/1.0)
|   |   |   |   |   |   |   |   |   |   |   pixel385 > 100: 8 (11.0/5.0)
|   |   |   |   |   |   |   |   |   |   pixel355 > 16
|   |   |   |   |   |   |   |   |   |   |   pixel96 <= 23
|   |   |   |   |   |   |   |   |   |   |   |   pixel184 <= 7
|   |   |   |   |   |   |   |   |   |   |   |   |   pixel266 <= 173: 4 (19.0/3.0)
|   |   |   |   |   |   |   |   |   |   |   |   |   pixel266 > 173: 8 (6.0)
|   |   |   |   |   |   |   |   |   |   |   |   pixel184 > 7
|   |   |   |   |   |   |   |   |   |   |   |   |   pixel455 <= 156
|   |   |   |   |   |   |   |   |   |   |   |   |   |   pixel573 <= 77: 8 (43.0/6.0)
|   |   |   |   |   |   |   |   |   |   |   |   |   |   pixel573 > 77
|   |   |   |   |   |   |   |   |   |   |   |   |   |   |   pixel688 <= 94: 2 (27.0/5.0)
|   |   |   |   |   |   |   |   |   |   |   |   |   |   |   pixel688 > 94: 8 (2.0)
|   |   |   |   |   |   |   |   |   |   |   |   |   pixel455 > 156: 9 (12.0/1.0)
|   |   |   |   |   |   |   |   |   |   |   pixel96 > 23: 6 (3.0)
|   |   |   |   |   |   |   |   |   pixel69 > 2: 6 (10.0)
|   |   |   |   |   |   |   pixel348 > 0
|   |   |   |   |   |   |   |   pixel383 <= 2
|   |   |   |   |   |   |   |   |   pixel415 <= 2
|   |   |   |   |   |   |   |   |   |   pixel384 <= 15
|   |   |   |   |   |   |   |   |   |   |   pixel381 <= 136
|   |   |   |   |   |   |   |   |   |   |   |   pixel123 <= 45
|   |   |   |   |   |   |   |   |   |   |   |   |   pixel107 <= 18
|   |   |   |   |   |   |   |   |   |   |   |   |   |   pixel486 <= 174: 5 (419.0/7.0)
|   |   |   |   |   |   |   |   |   |   |   |   |   |   pixel486 > 174
|   |   |   |   |   |   |   |   |   |   |   |   |   |   |   pixel691 <= 86
|   |   |   |   |   |   |   |   |   |   |   |   |   |   |   |   pixel132 <= 77
|   |   |   |   |   |   |   |   |   |   |   |   |   |   |   |   |   pixel135 <= 168: 5 (23.0/2.0)
|   |   |   |   |   |   |   |   |   |   |   |   |   |   |   |   |   pixel135 > 168: 6 (5.0/1.0)
|   |   |   |   |   |   |   |   |   |   |   |   |   |   |   |   pixel132 > 77: 6 (17.0/1.0)
|   |   |   |   |   |   |   |   |   |   |   |   |   |   |   pixel691 > 86: 8 (2.0)
|   |   |   |   |   |   |   |   |   |   |   |   |   pixel107 > 18: 6 (12.0)
|   |   |   |   |   |   |   |   |   |   |   |   pixel123 > 45: 3 (9.0/2.0)
|   |   |   |   |   |   |   |   |   |   |   pixel381 > 136
|   |   |   |   |   |   |   |   |   |   |   |   pixel510 <= 2: 8 (24.0/7.0)
|   |   |   |   |   |   |   |   |   |   |   |   pixel510 > 2: 5 (2.0)
|   |   |   |   |   |   |   |   |   |   pixel384 > 15: 2 (7.0/4.0)
|   |   |   |   |   |   |   |   |   pixel415 > 2: 0 (8.0/4.0)
|   |   |   |   |   |   |   |   pixel383 > 2
|   |   |   |   |   |   |   |   |   pixel429 <= 53
|   |   |   |   |   |   |   |   |   |   pixel376 <= 2
|   |   |   |   |   |   |   |   |   |   |   pixel403 <= 116
|   |   |   |   |   |   |   |   |   |   |   |   pixel377 <= 102: 2 (47.0/3.0)
|   |   |   |   |   |   |   |   |   |   |   |   pixel377 > 102: 8 (2.0)
|   |   |   |   |   |   |   |   |   |   |   pixel403 > 116: 9 (4.0/2.0)
|   |   |   |   |   |   |   |   |   |   pixel376 > 2
|   |   |   |   |   |   |   |   |   |   |   pixel469 <= 10
|   |   |   |   |   |   |   |   |   |   |   |   pixel351 <= 41
|   |   |   |   |   |   |   |   |   |   |   |   |   pixel638 <= 27: 8 (335.0/17.0)
|   |   |   |   |   |   |   |   |   |   |   |   |   pixel638 > 27
|   |   |   |   |   |   |   |   |   |   |   |   |   |   pixel379 <= 8: 2 (5.0)
|   |   |   |   |   |   |   |   |   |   |   |   |   |   pixel379 > 8: 8 (2.0)
|   |   |   |   |   |   |   |   |   |   |   |   pixel351 > 41
|   |   |   |   |   |   |   |   |   |   |   |   |   pixel462 <= 159: 0 (8.0/2.0)
|   |   |   |   |   |   |   |   |   |   |   |   |   pixel462 > 159: 8 (10.0/4.0)
|   |   |   |   |   |   |   |   |   |   |   pixel469 > 10
|   |   |   |   |   |   |   |   |   |   |   |   pixel70 <= 62
|   |   |   |   |   |   |   |   |   |   |   |   |   pixel403 <= 218: 2 (13.0/7.0)
|   |   |   |   |   |   |   |   |   |   |   |   |   pixel403 > 218
|   |   |   |   |   |   |   |   |   |   |   |   |   |   pixel157 <= 29: 4 (8.0)
|   |   |   |   |   |   |   |   |   |   |   |   |   |   pixel157 > 29
|   |   |   |   |   |   |   |   |   |   |   |   |   |   |   pixel156 <= 250: 8 (2.0)
|   |   |   |   |   |   |   |   |   |   |   |   |   |   |   pixel156 > 250: 5 (2.0)
|   |   |   |   |   |   |   |   |   |   |   |   pixel70 > 62: 6 (2.0)
|   |   |   |   |   |   |   |   |   pixel429 > 53
|   |   |   |   |   |   |   |   |   |   pixel610 <= 15
|   |   |   |   |   |   |   |   |   |   |   pixel684 <= 128
|   |   |   |   |   |   |   |   |   |   |   |   pixel305 <= 22
|   |   |   |   |   |   |   |   |   |   |   |   |   pixel690 <= 12
|   |   |   |   |   |   |   |   |   |   |   |   |   |   pixel71 <= 49
|   |   |   |   |   |   |   |   |   |   |   |   |   |   |   pixel462 <= 39
|   |   |   |   |   |   |   |   |   |   |   |   |   |   |   |   pixel686 <= 63
|   |   |   |   |   |   |   |   |   |   |   |   |   |   |   |   |   pixel498 <= 10: 0 (41.0/4.0)
|   |   |   |   |   |   |   |   |   |   |   |   |   |   |   |   |   pixel498 > 10: 4 (3.0)
|   |   |   |   |   |   |   |   |   |   |   |   |   |   |   |   pixel686 > 63: 9 (2.0)
|   |   |   |   |   |   |   |   |   |   |   |   |   |   |   pixel462 > 39
|   |   |   |   |   |   |   |   |   |   |   |   |   |   |   |   pixel327 <= 4
|   |   |   |   |   |   |   |   |   |   |   |   |   |   |   |   |   pixel453 <= 68
|   |   |   |   |   |   |   |   |   |   |   |   |   |   |   |   |   |   pixel329 <= 86
|   |   |   |   |   |   |   |   |   |   |   |   |   |   |   |   |   |   |   pixel221 <= 8: 6 (12.0)
|   |   |   |   |   |   |   |   |   |   |   |   |   |   |   |   |   |   |   pixel221 > 8: 5 (2.0/1.0)
|   |   |   |   |   |   |   |   |   |   |   |   |   |   |   |   |   |   pixel329 > 86: 0 (2.0)
|   |   |   |   |   |   |   |   |   |   |   |   |   |   |   |   |   pixel453 > 68: 2 (2.0/1.0)
|   |   |   |   |   |   |   |   |   |   |   |   |   |   |   |   pixel327 > 4
|   |   |   |   |   |   |   |   |   |   |   |   |   |   |   |   |   pixel329 <= 254
|   |   |   |   |   |   |   |   |   |   |   |   |   |   |   |   |   |   pixel185 <= 130
|   |   |   |   |   |   |   |   |   |   |   |   |   |   |   |   |   |   |   pixel97 <= 26
|   |   |   |   |   |   |   |   |   |   |   |   |   |   |   |   |   |   |   |   pixel324 <= 243: 4 (43.0)
|   |   |   |   |   |   |   |   |   |   |   |   |   |   |   |   |   |   |   |   pixel324 > 243: 0 (2.0/1.0)
|   |   |   |   |   |   |   |   |   |   |   |   |   |   |   |   |   |   |   pixel97 > 26: 6 (2.0)
|   |   |   |   |   |   |   |   |   |   |   |   |   |   |   |   |   |   pixel185 > 130
|   |   |   |   |   |   |   |   |   |   |   |   |   |   |   |   |   |   |   pixel598 <= 8: 4 (4.0/1.0)
|   |   |   |   |   |   |   |   |   |   |   |   |   |   |   |   |   |   |   pixel598 > 8
|   |   |   |   |   |   |   |   |   |   |   |   |   |   |   |   |   |   |   |   pixel132 <= 231
|   |   |   |   |   |   |   |   |   |   |   |   |   |   |   |   |   |   |   |   |   pixel403 <= 253: 2 (13.0/1.0)
|   |   |   |   |   |   |   |   |   |   |   |   |   |   |   |   |   |   |   |   |   pixel403 > 253: 0 (4.0)
|   |   |   |   |   |   |   |   |   |   |   |   |   |   |   |   |   |   |   |   pixel132 > 231: 6 (2.0/1.0)
|   |   |   |   |   |   |   |   |   |   |   |   |   |   |   |   |   pixel329 > 254: 7 (2.0)
|   |   |   |   |   |   |   |   |   |   |   |   |   |   pixel71 > 49: 6 (10.0)
|   |   |   |   |   |   |   |   |   |   |   |   |   pixel690 > 12: 9 (14.0/3.0)
|   |   |   |   |   |   |   |   |   |   |   |   pixel305 > 22
|   |   |   |   |   |   |   |   |   |   |   |   |   pixel440 <= 10: 8 (4.0)
|   |   |   |   |   |   |   |   |   |   |   |   |   pixel440 > 10: 4 (2.0/1.0)
|   |   |   |   |   |   |   |   |   |   |   pixel684 > 128: 8 (11.0/3.0)
|   |   |   |   |   |   |   |   |   |   pixel610 > 15: 2 (9.0)
|   |   |   |   |   |   pixel707 > 0
|   |   |   |   |   |   |   pixel598 <= 85: 8 (10.0/1.0)
|   |   |   |   |   |   |   pixel598 > 85: 7 (79.0/13.0)
|   |   |   |   pixel104 > 4
|   |   |   |   |   pixel273 <= 6
|   |   |   |   |   |   pixel593 <= 11
|   |   |   |   |   |   |   pixel271 <= 234
|   |   |   |   |   |   |   |   pixel153 <= 10
|   |   |   |   |   |   |   |   |   pixel154 <= 2
|   |   |   |   |   |   |   |   |   |   pixel300 <= 141: 6 (278.0/2.0)
|   |   |   |   |   |   |   |   |   |   pixel300 > 141: 5 (3.0/1.0)
|   |   |   |   |   |   |   |   |   pixel154 > 2: 5 (3.0/1.0)
|   |   |   |   |   |   |   |   pixel153 > 10: 5 (3.0)
|   |   |   |   |   |   |   pixel271 > 234: 0 (4.0/3.0)
|   |   |   |   |   |   pixel593 > 11: 2 (3.0/1.0)
|   |   |   |   |   pixel273 > 6
|   |   |   |   |   |   pixel325 <= 220
|   |   |   |   |   |   |   pixel489 <= 8: 0 (27.0/2.0)
|   |   |   |   |   |   |   pixel489 > 8: 2 (40.0/6.0)
|   |   |   |   |   |   pixel325 > 220: 3 (4.0)
|   |   pixel379 > 111
|   |   |   pixel490 <= 5
|   |   |   |   pixel487 <= 1
|   |   |   |   |   pixel627 <= 0
|   |   |   |   |   |   pixel572 <= 25
|   |   |   |   |   |   |   pixel681 <= 0
|   |   |   |   |   |   |   |   pixel405 <= 6
|   |   |   |   |   |   |   |   |   pixel354 <= 14
|   |   |   |   |   |   |   |   |   |   pixel548 <= 25: 3 (23.0/6.0)
|   |   |   |   |   |   |   |   |   |   pixel548 > 25: 1 (119.0/8.0)
|   |   |   |   |   |   |   |   |   pixel354 > 14
|   |   |   |   |   |   |   |   |   |   pixel156 <= 35
|   |   |   |   |   |   |   |   |   |   |   pixel148 <= 84
|   |   |   |   |   |   |   |   |   |   |   |   pixel152 <= 136
|   |   |   |   |   |   |   |   |   |   |   |   |   pixel499 <= 2
|   |   |   |   |   |   |   |   |   |   |   |   |   |   pixel655 <= 2
|   |   |   |   |   |   |   |   |   |   |   |   |   |   |   pixel153 <= 7
|   |   |   |   |   |   |   |   |   |   |   |   |   |   |   |   pixel191 <= 3
|   |   |   |   |   |   |   |   |   |   |   |   |   |   |   |   |   pixel611 <= 4
|   |   |   |   |   |   |   |   |   |   |   |   |   |   |   |   |   |   pixel440 <= 27
|   |   |   |   |   |   |   |   |   |   |   |   |   |   |   |   |   |   |   pixel463 <= 109
|   |   |   |   |   |   |   |   |   |   |   |   |   |   |   |   |   |   |   |   pixel210 <= 15: 4 (3.0/1.0)
|   |   |   |   |   |   |   |   |   |   |   |   |   |   |   |   |   |   |   |   pixel210 > 15: 9 (17.0)
|   |   |   |   |   |   |   |   |   |   |   |   |   |   |   |   |   |   |   pixel463 > 109: 7 (10.0/3.0)
|   |   |   |   |   |   |   |   |   |   |   |   |   |   |   |   |   |   pixel440 > 27: 7 (21.0)
|   |   |   |   |   |   |   |   |   |   |   |   |   |   |   |   |   pixel611 > 4: 4 (2.0)
|   |   |   |   |   |   |   |   |   |   |   |   |   |   |   |   pixel191 > 3: 4 (2.0)
|   |   |   |   |   |   |   |   |   |   |   |   |   |   |   pixel153 > 7: 4 (2.0)
|   |   |   |   |   |   |   |   |   |   |   |   |   |   pixel655 > 2: 3 (3.0/1.0)
|   |   |   |   |   |   |   |   |   |   |   |   |   pixel499 > 2: 3 (2.0/1.0)
|   |   |   |   |   |   |   |   |   |   |   |   pixel152 > 136: 5 (3.0/1.0)
|   |   |   |   |   |   |   |   |   |   |   pixel148 > 84: 3 (2.0)
|   |   |   |   |   |   |   |   |   |   pixel156 > 35: 1 (4.0/2.0)
|   |   |   |   |   |   |   |   pixel405 > 6
|   |   |   |   |   |   |   |   |   pixel211 <= 1
|   |   |   |   |   |   |   |   |   |   pixel516 <= 64
|   |   |   |   |   |   |   |   |   |   |   pixel654 <= 48
|   |   |   |   |   |   |   |   |   |   |   |   pixel123 <= 69
|   |   |   |   |   |   |   |   |   |   |   |   |   pixel267 <= 86
|   |   |   |   |   |   |   |   |   |   |   |   |   |   pixel155 <= 142
|   |   |   |   |   |   |   |   |   |   |   |   |   |   |   pixel410 <= 19
|   |   |   |   |   |   |   |   |   |   |   |   |   |   |   |   pixel214 <= 157
|   |   |   |   |   |   |   |   |   |   |   |   |   |   |   |   |   pixel386 <= 28
|   |   |   |   |   |   |   |   |   |   |   |   |   |   |   |   |   |   pixel152 <= 34: 4 (3.0)
|   |   |   |   |   |   |   |   |   |   |   |   |   |   |   |   |   |   pixel152 > 34: 1 (2.0/1.0)
|   |   |   |   |   |   |   |   |   |   |   |   |   |   |   |   |   pixel386 > 28: 7 (4.0)
|   |   |   |   |   |   |   |   |   |   |   |   |   |   |   |   pixel214 > 157: 9 (2.0)
|   |   |   |   |   |   |   |   |   |   |   |   |   |   |   pixel410 > 19: 4 (292.0/8.0)
|   |   |   |   |   |   |   |   |   |   |   |   |   |   pixel155 > 142
|   |   |   |   |   |   |   |   |   |   |   |   |   |   |   pixel657 <= 1: 9 (4.0)
|   |   |   |   |   |   |   |   |   |   |   |   |   |   |   pixel657 > 1: 3 (4.0/1.0)
|   |   |   |   |   |   |   |   |   |   |   |   |   pixel267 > 86
|   |   |   |   |   |   |   |   |   |   |   |   |   |   pixel512 <= 52
|   |   |   |   |   |   |   |   |   |   |   |   |   |   |   pixel203 <= 90
|   |   |   |   |   |   |   |   |   |   |   |   |   |   |   |   pixel147 <= 47
|   |   |   |   |   |   |   |   |   |   |   |   |   |   |   |   |   pixel322 <= 252: 9 (37.0/1.0)
|   |   |   |   |   |   |   |   |   |   |   |   |   |   |   |   |   pixel322 > 252: 7 (3.0)
|   |   |   |   |   |   |   |   |   |   |   |   |   |   |   |   pixel147 > 47: 3 (2.0/1.0)
|   |   |   |   |   |   |   |   |   |   |   |   |   |   |   pixel203 > 90: 3 (4.0)
|   |   |   |   |   |   |   |   |   |   |   |   |   |   pixel512 > 52: 5 (2.0)
|   |   |   |   |   |   |   |   |   |   |   |   pixel123 > 69
|   |   |   |   |   |   |   |   |   |   |   |   |   pixel148 <= 6: 1 (2.0/1.0)
|   |   |   |   |   |   |   |   |   |   |   |   |   pixel148 > 6: 5 (2.0)
|   |   |   |   |   |   |   |   |   |   |   pixel654 > 48: 3 (4.0)
|   |   |   |   |   |   |   |   |   |   pixel516 > 64: 5 (4.0/2.0)
|   |   |   |   |   |   |   |   |   pixel211 > 1
|   |   |   |   |   |   |   |   |   |   pixel151 <= 1
|   |   |   |   |   |   |   |   |   |   |   pixel175 <= 2
|   |   |   |   |   |   |   |   |   |   |   |   pixel155 <= 3
|   |   |   |   |   |   |   |   |   |   |   |   |   pixel191 <= 0
|   |   |   |   |   |   |   |   |   |   |   |   |   |   pixel176 <= 0
|   |   |   |   |   |   |   |   |   |   |   |   |   |   |   pixel527 <= 2
|   |   |   |   |   |   |   |   |   |   |   |   |   |   |   |   pixel204 <= 70
|   |   |   |   |   |   |   |   |   |   |   |   |   |   |   |   |   pixel354 <= 87
|   |   |   |   |   |   |   |   |   |   |   |   |   |   |   |   |   |   pixel156 <= 57
|   |   |   |   |   |   |   |   |   |   |   |   |   |   |   |   |   |   |   pixel217 <= 73
|   |   |   |   |   |   |   |   |   |   |   |   |   |   |   |   |   |   |   |   pixel346 <= 1
|   |   |   |   |   |   |   |   |   |   |   |   |   |   |   |   |   |   |   |   |   pixel209 <= 137: 9 (9.0)
|   |   |   |   |   |   |   |   |   |   |   |   |   |   |   |   |   |   |   |   |   pixel209 > 137
|   |   |   |   |   |   |   |   |   |   |   |   |   |   |   |   |   |   |   |   |   |   pixel491 <= 106
|   |   |   |   |   |   |   |   |   |   |   |   |   |   |   |   |   |   |   |   |   |   |   pixel400 <= 43: 3 (23.0/1.0)
|   |   |   |   |   |   |   |   |   |   |   |   |   |   |   |   |   |   |   |   |   |   |   pixel400 > 43: 9 (2.0)
|   |   |   |   |   |   |   |   |   |   |   |   |   |   |   |   |   |   |   |   |   |   pixel491 > 106: 7 (2.0)
|   |   |   |   |   |   |   |   |   |   |   |   |   |   |   |   |   |   |   |   pixel346 > 1: 9 (66.0/15.0)
|   |   |   |   |   |   |   |   |   |   |   |   |   |   |   |   |   |   |   pixel217 > 73: 5 (9.0/1.0)
|   |   |   |   |   |   |   |   |   |   |   |   |   |   |   |   |   |   pixel156 > 57: 4 (3.0)
|   |   |   |   |   |   |   |   |   |   |   |   |   |   |   |   |   pixel354 > 87: 9 (664.0/20.0)
|   |   |   |   |   |   |   |   |   |   |   |   |   |   |   |   pixel204 > 70
|   |   |   |   |   |   |   |   |   |   |   |   |   |   |   |   |   pixel345 <= 18: 3 (9.0/1.0)
|   |   |   |   |   |   |   |   |   |   |   |   |   |   |   |   |   pixel345 > 18: 9 (3.0)
|   |   |   |   |   |   |   |   |   |   |   |   |   |   |   pixel527 > 2
|   |   |   |   |   |   |   |   |   |   |   |   |   |   |   |   pixel356 <= 98
|   |   |   |   |   |   |   |   |   |   |   |   |   |   |   |   |   pixel325 <= 1: 5 (6.0/1.0)
|   |   |   |   |   |   |   |   |   |   |   |   |   |   |   |   |   pixel325 > 1: 3 (5.0)
|   |   |   |   |   |   |   |   |   |   |   |   |   |   |   |   pixel356 > 98: 9 (4.0)
|   |   |   |   |   |   |   |   |   |   |   |   |   |   pixel176 > 0
|   |   |   |   |   |   |   |   |   |   |   |   |   |   |   pixel317 <= 126: 3 (7.0)
|   |   |   |   |   |   |   |   |   |   |   |   |   |   |   pixel317 > 126: 9 (2.0)
|   |   |   |   |   |   |   |   |   |   |   |   |   pixel191 > 0
|   |   |   |   |   |   |   |   |   |   |   |   |   |   pixel213 <= 138: 4 (6.0)
|   |   |   |   |   |   |   |   |   |   |   |   |   |   pixel213 > 138: 5 (5.0/2.0)
|   |   |   |   |   |   |   |   |   |   |   |   pixel155 > 3
|   |   |   |   |   |   |   |   |   |   |   |   |   pixel375 <= 68
|   |   |   |   |   |   |   |   |   |   |   |   |   |   pixel464 <= 249: 3 (5.0/1.0)
|   |   |   |   |   |   |   |   |   |   |   |   |   |   pixel464 > 249: 1 (7.0)
|   |   |   |   |   |   |   |   |   |   |   |   |   pixel375 > 68
|   |   |   |   |   |   |   |   |   |   |   |   |   |   pixel521 <= 72: 5 (14.0/3.0)
|   |   |   |   |   |   |   |   |   |   |   |   |   |   pixel521 > 72
|   |   |   |   |   |   |   |   |   |   |   |   |   |   |   pixel683 <= 3
|   |   |   |   |   |   |   |   |   |   |   |   |   |   |   |   pixel493 <= 53: 3 (2.0)
|   |   |   |   |   |   |   |   |   |   |   |   |   |   |   |   pixel493 > 53
|   |   |   |   |   |   |   |   |   |   |   |   |   |   |   |   |   pixel186 <= 11: 4 (26.0)
|   |   |   |   |   |   |   |   |   |   |   |   |   |   |   |   |   pixel186 > 11: 9 (11.0/3.0)
|   |   |   |   |   |   |   |   |   |   |   |   |   |   |   pixel683 > 3: 3 (2.0/1.0)
|   |   |   |   |   |   |   |   |   |   |   pixel175 > 2: 3 (21.0/5.0)
|   |   |   |   |   |   |   |   |   |   pixel151 > 1
|   |   |   |   |   |   |   |   |   |   |   pixel520 <= 252
|   |   |   |   |   |   |   |   |   |   |   |   pixel291 <= 144
|   |   |   |   |   |   |   |   |   |   |   |   |   pixel188 <= 34
|   |   |   |   |   |   |   |   |   |   |   |   |   |   pixel317 <= 89: 3 (46.0)
|   |   |   |   |   |   |   |   |   |   |   |   |   |   pixel317 > 89: 9 (5.0/1.0)
|   |   |   |   |   |   |   |   |   |   |   |   |   pixel188 > 34: 5 (3.0)
|   |   |   |   |   |   |   |   |   |   |   |   pixel291 > 144
|   |   |   |   |   |   |   |   |   |   |   |   |   pixel148 <= 162: 5 (10.0)
|   |   |   |   |   |   |   |   |   |   |   |   |   pixel148 > 162: 3 (2.0/1.0)
|   |   |   |   |   |   |   |   |   |   |   pixel520 > 252: 8 (3.0/1.0)
|   |   |   |   |   |   |   pixel681 > 0
|   |   |   |   |   |   |   |   pixel318 <= 54
|   |   |   |   |   |   |   |   |   pixel164 <= 65
|   |   |   |   |   |   |   |   |   |   pixel320 <= 242: 3 (126.0/5.0)
|   |   |   |   |   |   |   |   |   |   pixel320 > 242: 5 (5.0)
|   |   |   |   |   |   |   |   |   pixel164 > 65: 5 (6.0)
|   |   |   |   |   |   |   |   pixel318 > 54
|   |   |   |   |   |   |   |   |   pixel357 <= 1
|   |   |   |   |   |   |   |   |   |   pixel258 <= 15: 5 (34.0/1.0)
|   |   |   |   |   |   |   |   |   |   pixel258 > 15: 3 (2.0)
|   |   |   |   |   |   |   |   |   pixel357 > 1: 3 (2.0/1.0)
|   |   |   |   |   |   pixel572 > 25
|   |   |   |   |   |   |   pixel488 <= 89
|   |   |   |   |   |   |   |   pixel105 <= 111
|   |   |   |   |   |   |   |   |   pixel530 <= 47
|   |   |   |   |   |   |   |   |   |   pixel640 <= 59
|   |   |   |   |   |   |   |   |   |   |   pixel458 <= 195
|   |   |   |   |   |   |   |   |   |   |   |   pixel229 <= 6
|   |   |   |   |   |   |   |   |   |   |   |   |   pixel536 <= 2
|   |   |   |   |   |   |   |   |   |   |   |   |   |   pixel694 <= 59
|   |   |   |   |   |   |   |   |   |   |   |   |   |   |   pixel354 <= 230
|   |   |   |   |   |   |   |   |   |   |   |   |   |   |   |   pixel173 <= 6
|   |   |   |   |   |   |   |   |   |   |   |   |   |   |   |   |   pixel285 <= 16
|   |   |   |   |   |   |   |   |   |   |   |   |   |   |   |   |   |   pixel148 <= 72
|   |   |   |   |   |   |   |   |   |   |   |   |   |   |   |   |   |   |   pixel126 <= 212
|   |   |   |   |   |   |   |   |   |   |   |   |   |   |   |   |   |   |   |   pixel357 <= 55
|   |   |   |   |   |   |   |   |   |   |   |   |   |   |   |   |   |   |   |   |   pixel176 <= 68: 5 (120.0/3.0)
|   |   |   |   |   |   |   |   |   |   |   |   |   |   |   |   |   |   |   |   |   pixel176 > 68: 3 (3.0/1.0)
|   |   |   |   |   |   |   |   |   |   |   |   |   |   |   |   |   |   |   |   pixel357 > 55: 3 (2.0)
|   |   |   |   |   |   |   |   |   |   |   |   |   |   |   |   |   |   |   pixel126 > 212: 3 (3.0)
|   |   |   |   |   |   |   |   |   |   |   |   |   |   |   |   |   |   pixel148 > 72: 3 (9.0/2.0)
|   |   |   |   |   |   |   |   |   |   |   |   |   |   |   |   |   pixel285 > 16: 3 (2.0)
|   |   |   |   |   |   |   |   |   |   |   |   |   |   |   |   pixel173 > 6: 3 (2.0)
|   |   |   |   |   |   |   |   |   |   |   |   |   |   |   pixel354 > 230: 3 (16.0/2.0)
|   |   |   |   |   |   |   |   |   |   |   |   |   |   pixel694 > 59: 2 (2.0/1.0)
|   |   |   |   |   |   |   |   |   |   |   |   |   pixel536 > 2: 3 (15.0/1.0)
|   |   |   |   |   |   |   |   |   |   |   |   pixel229 > 6: 3 (16.0)
|   |   |   |   |   |   |   |   |   |   |   pixel458 > 195: 8 (4.0/2.0)
|   |   |   |   |   |   |   |   |   |   pixel640 > 59: 2 (3.0)
|   |   |   |   |   |   |   |   |   pixel530 > 47: 1 (2.0/1.0)
|   |   |   |   |   |   |   |   pixel105 > 111: 6 (4.0)
|   |   |   |   |   |   |   pixel488 > 89: 8 (11.0/2.0)
|   |   |   |   |   pixel627 > 0
|   |   |   |   |   |   pixel298 <= 0
|   |   |   |   |   |   |   pixel301 <= 59
|   |   |   |   |   |   |   |   pixel296 <= 94
|   |   |   |   |   |   |   |   |   pixel359 <= 0
|   |   |   |   |   |   |   |   |   |   pixel120 <= 11
|   |   |   |   |   |   |   |   |   |   |   pixel174 <= 17
|   |   |   |   |   |   |   |   |   |   |   |   pixel378 <= 23
|   |   |   |   |   |   |   |   |   |   |   |   |   pixel190 <= 64: 3 (6.0/1.0)
|   |   |   |   |   |   |   |   |   |   |   |   |   pixel190 > 64: 5 (5.0/1.0)
|   |   |   |   |   |   |   |   |   |   |   |   pixel378 > 23
|   |   |   |   |   |   |   |   |   |   |   |   |   pixel107 <= 29
|   |   |   |   |   |   |   |   |   |   |   |   |   |   pixel295 <= 44: 5 (776.0/5.0)
|   |   |   |   |   |   |   |   |   |   |   |   |   |   pixel295 > 44
|   |   |   |   |   |   |   |   |   |   |   |   |   |   |   pixel216 <= 3
|   |   |   |   |   |   |   |   |   |   |   |   |   |   |   |   pixel161 <= 32: 3 (35.0/2.0)
|   |   |   |   |   |   |   |   |   |   |   |   |   |   |   |   pixel161 > 32: 5 (8.0)
|   |   |   |   |   |   |   |   |   |   |   |   |   |   |   pixel216 > 3: 5 (123.0)
|   |   |   |   |   |   |   |   |   |   |   |   |   pixel107 > 29
|   |   |   |   |   |   |   |   |   |   |   |   |   |   pixel457 <= 198: 5 (13.0)
|   |   |   |   |   |   |   |   |   |   |   |   |   |   pixel457 > 198: 6 (3.0)
|   |   |   |   |   |   |   |   |   |   |   pixel174 > 17
|   |   |   |   |   |   |   |   |   |   |   |   pixel293 <= 92: 5 (7.0)
|   |   |   |   |   |   |   |   |   |   |   |   pixel293 > 92: 3 (10.0)
|   |   |   |   |   |   |   |   |   |   pixel120 > 11
|   |   |   |   |   |   |   |   |   |   |   pixel204 <= 244: 3 (18.0)
|   |   |   |   |   |   |   |   |   |   |   pixel204 > 244: 5 (6.0)
|   |   |   |   |   |   |   |   |   pixel359 > 0: 5 (11.0/7.0)
|   |   |   |   |   |   |   |   pixel296 > 94
|   |   |   |   |   |   |   |   |   pixel190 <= 8
|   |   |   |   |   |   |   |   |   |   pixel491 <= 49
|   |   |   |   |   |   |   |   |   |   |   pixel268 <= 44: 5 (3.0)
|   |   |   |   |   |   |   |   |   |   |   pixel268 > 44: 3 (216.0/6.0)
|   |   |   |   |   |   |   |   |   |   pixel491 > 49: 1 (12.0/2.0)
|   |   |   |   |   |   |   |   |   pixel190 > 8: 5 (35.0/1.0)
|   |   |   |   |   |   |   pixel301 > 59
|   |   |   |   |   |   |   |   pixel221 <= 2
|   |   |   |   |   |   |   |   |   pixel354 <= 114
|   |   |   |   |   |   |   |   |   |   pixel664 <= 64
|   |   |   |   |   |   |   |   |   |   |   pixel634 <= 16
|   |   |   |   |   |   |   |   |   |   |   |   pixel683 <= 6: 2 (12.0)
|   |   |   |   |   |   |   |   |   |   |   |   pixel683 > 6: 9 (10.0/1.0)
|   |   |   |   |   |   |   |   |   |   |   pixel634 > 16: 0 (2.0/1.0)
|   |   |   |   |   |   |   |   |   |   pixel664 > 64: 3 (2.0/1.0)
|   |   |   |   |   |   |   |   |   pixel354 > 114
|   |   |   |   |   |   |   |   |   |   pixel519 <= 38
|   |   |   |   |   |   |   |   |   |   |   pixel457 <= 34: 3 (57.0/1.0)
|   |   |   |   |   |   |   |   |   |   |   pixel457 > 34: 8 (12.0/2.0)
|   |   |   |   |   |   |   |   |   |   pixel519 > 38
|   |   |   |   |   |   |   |   |   |   |   pixel537 <= 16
|   |   |   |   |   |   |   |   |   |   |   |   pixel154 <= 14: 9 (20.0)
|   |   |   |   |   |   |   |   |   |   |   |   pixel154 > 14: 3 (2.0/1.0)
|   |   |   |   |   |   |   |   |   |   |   pixel537 > 16: 3 (3.0)
|   |   |   |   |   |   |   |   pixel221 > 2: 4 (11.0/4.0)
|   |   |   |   |   |   pixel298 > 0
|   |   |   |   |   |   |   pixel249 <= 0
|   |   |   |   |   |   |   |   pixel486 <= 81
|   |   |   |   |   |   |   |   |   pixel456 <= 186
|   |   |   |   |   |   |   |   |   |   pixel292 <= 190
|   |   |   |   |   |   |   |   |   |   |   pixel317 <= 122
|   |   |   |   |   |   |   |   |   |   |   |   pixel248 <= 104
|   |   |   |   |   |   |   |   |   |   |   |   |   pixel398 <= 42
|   |   |   |   |   |   |   |   |   |   |   |   |   |   pixel192 <= 25
|   |   |   |   |   |   |   |   |   |   |   |   |   |   |   pixel318 <= 186
|   |   |   |   |   |   |   |   |   |   |   |   |   |   |   |   pixel492 <= 252
|   |   |   |   |   |   |   |   |   |   |   |   |   |   |   |   |   pixel134 <= 147
|   |   |   |   |   |   |   |   |   |   |   |   |   |   |   |   |   |   pixel516 <= 73: 3 (1707.0/5.0)
|   |   |   |   |   |   |   |   |   |   |   |   |   |   |   |   |   |   pixel516 > 73
