=== Run information ===

Scheme:weka.classifiers.trees.J48 -R -N 3 -Q 1 -M 2
Relation:     DATA=train-images.idx3-ubyte-LABELS=train-labels.idx1-ubyte
Instances:    60000
Attributes:   785
[list of attributes omitted]
Test mode:user supplied test set: size unknown (reading incrementally)

=== Classifier model (full training set) ===

J48 pruned tree
------------------

pixel101 <= 0
|   pixel388 <= 2
|   |   pixel741 <= 0
|   |   |   pixel374 <= 0
|   |   |   |   pixel371 <= 3
|   |   |   |   |   pixel348 <= 1
|   |   |   |   |   |   pixel351 <= 32
|   |   |   |   |   |   |   pixel155 <= 0
|   |   |   |   |   |   |   |   pixel372 <= 60
|   |   |   |   |   |   |   |   |   pixel539 <= 2
|   |   |   |   |   |   |   |   |   |   pixel350 <= 66
|   |   |   |   |   |   |   |   |   |   |   pixel161 <= 0
|   |   |   |   |   |   |   |   |   |   |   |   pixel556 <= 9
|   |   |   |   |   |   |   |   |   |   |   |   |   pixel425 <= 6
|   |   |   |   |   |   |   |   |   |   |   |   |   |   pixel160 <= 3
|   |   |   |   |   |   |   |   |   |   |   |   |   |   |   pixel638 <= 53
|   |   |   |   |   |   |   |   |   |   |   |   |   |   |   |   pixel501 <= 1
|   |   |   |   |   |   |   |   |   |   |   |   |   |   |   |   |   pixel378 <= 3
|   |   |   |   |   |   |   |   |   |   |   |   |   |   |   |   |   |   pixel554 <= 42
|   |   |   |   |   |   |   |   |   |   |   |   |   |   |   |   |   |   |   pixel154 <= 7
|   |   |   |   |   |   |   |   |   |   |   |   |   |   |   |   |   |   |   |   pixel402 <= 14
|   |   |   |   |   |   |   |   |   |   |   |   |   |   |   |   |   |   |   |   |   pixel568 <= 35
|   |   |   |   |   |   |   |   |   |   |   |   |   |   |   |   |   |   |   |   |   |   pixel665 <= 2
|   |   |   |   |   |   |   |   |   |   |   |   |   |   |   |   |   |   |   |   |   |   |   pixel608 <= 11
|   |   |   |   |   |   |   |   |   |   |   |   |   |   |   |   |   |   |   |   |   |   |   |   pixel664 <= 5
|   |   |   |   |   |   |   |   |   |   |   |   |   |   |   |   |   |   |   |   |   |   |   |   |   pixel433 <= 133
|   |   |   |   |   |   |   |   |   |   |   |   |   |   |   |   |   |   |   |   |   |   |   |   |   |   pixel238 <= 0
|   |   |   |   |   |   |   |   |   |   |   |   |   |   |   |   |   |   |   |   |   |   |   |   |   |   |   pixel157 <= 23: 7 (82.0/6.0)
|   |   |   |   |   |   |   |   |   |   |   |   |   |   |   |   |   |   |   |   |   |   |   |   |   |   |   pixel157 > 23: 1 (3.0)
|   |   |   |   |   |   |   |   |   |   |   |   |   |   |   |   |   |   |   |   |   |   |   |   |   |   pixel238 > 0: 7 (1173.0/14.0)
|   |   |   |   |   |   |   |   |   |   |   |   |   |   |   |   |   |   |   |   |   |   |   |   |   pixel433 > 133
|   |   |   |   |   |   |   |   |   |   |   |   |   |   |   |   |   |   |   |   |   |   |   |   |   |   pixel635 <= 170
|   |   |   |   |   |   |   |   |   |   |   |   |   |   |   |   |   |   |   |   |   |   |   |   |   |   |   pixel438 <= 58: 3 (13.0/6.0)
|   |   |   |   |   |   |   |   |   |   |   |   |   |   |   |   |   |   |   |   |   |   |   |   |   |   |   pixel438 > 58: 7 (55.0/1.0)
|   |   |   |   |   |   |   |   |   |   |   |   |   |   |   |   |   |   |   |   |   |   |   |   |   |   pixel635 > 170: 3 (2.0)
|   |   |   |   |   |   |   |   |   |   |   |   |   |   |   |   |   |   |   |   |   |   |   |   pixel664 > 5: 7 (18.0/4.0)
|   |   |   |   |   |   |   |   |   |   |   |   |   |   |   |   |   |   |   |   |   |   |   pixel608 > 11
|   |   |   |   |   |   |   |   |   |   |   |   |   |   |   |   |   |   |   |   |   |   |   |   pixel434 <= 11: 7 (42.0)
|   |   |   |   |   |   |   |   |   |   |   |   |   |   |   |   |   |   |   |   |   |   |   |   pixel434 > 11: 3 (11.0/1.0)
|   |   |   |   |   |   |   |   |   |   |   |   |   |   |   |   |   |   |   |   |   |   pixel665 > 2: 7 (22.0/7.0)
|   |   |   |   |   |   |   |   |   |   |   |   |   |   |   |   |   |   |   |   |   pixel568 > 35
|   |   |   |   |   |   |   |   |   |   |   |   |   |   |   |   |   |   |   |   |   |   pixel163 <= 2: 7 (16.0/4.0)
|   |   |   |   |   |   |   |   |   |   |   |   |   |   |   |   |   |   |   |   |   |   pixel163 > 2: 1 (2.0)
|   |   |   |   |   |   |   |   |   |   |   |   |   |   |   |   |   |   |   |   pixel402 > 14: 7 (15.0/5.0)
|   |   |   |   |   |   |   |   |   |   |   |   |   |   |   |   |   |   |   pixel154 > 7
|   |   |   |   |   |   |   |   |   |   |   |   |   |   |   |   |   |   |   |   pixel204 <= 64: 7 (13.0/6.0)
|   |   |   |   |   |   |   |   |   |   |   |   |   |   |   |   |   |   |   |   pixel204 > 64: 2 (3.0)
|   |   |   |   |   |   |   |   |   |   |   |   |   |   |   |   |   |   pixel554 > 42
|   |   |   |   |   |   |   |   |   |   |   |   |   |   |   |   |   |   |   pixel214 <= 252
|   |   |   |   |   |   |   |   |   |   |   |   |   |   |   |   |   |   |   |   pixel93 <= 1
|   |   |   |   |   |   |   |   |   |   |   |   |   |   |   |   |   |   |   |   |   pixel521 <= 103: 2 (5.0/1.0)
|   |   |   |   |   |   |   |   |   |   |   |   |   |   |   |   |   |   |   |   |   pixel521 > 103: 7 (6.0)
|   |   |   |   |   |   |   |   |   |   |   |   |   |   |   |   |   |   |   |   pixel93 > 1: 2 (2.0/1.0)
|   |   |   |   |   |   |   |   |   |   |   |   |   |   |   |   |   |   |   pixel214 > 252: 3 (4.0)
|   |   |   |   |   |   |   |   |   |   |   |   |   |   |   |   |   pixel378 > 3
|   |   |   |   |   |   |   |   |   |   |   |   |   |   |   |   |   |   pixel162 <= 16
|   |   |   |   |   |   |   |   |   |   |   |   |   |   |   |   |   |   |   pixel578 <= 6: 7 (24.0/6.0)
|   |   |   |   |   |   |   |   |   |   |   |   |   |   |   |   |   |   |   pixel578 > 6: 3 (24.0)
|   |   |   |   |   |   |   |   |   |   |   |   |   |   |   |   |   |   pixel162 > 16: 1 (2.0)
|   |   |   |   |   |   |   |   |   |   |   |   |   |   |   |   pixel501 > 1
|   |   |   |   |   |   |   |   |   |   |   |   |   |   |   |   |   pixel684 <= 14: 2 (16.0/3.0)
|   |   |   |   |   |   |   |   |   |   |   |   |   |   |   |   |   pixel684 > 14: 7 (6.0)
|   |   |   |   |   |   |   |   |   |   |   |   |   |   |   pixel638 > 53
|   |   |   |   |   |   |   |   |   |   |   |   |   |   |   |   pixel554 <= 42: 2 (16.0/3.0)
|   |   |   |   |   |   |   |   |   |   |   |   |   |   |   |   pixel554 > 42: 3 (4.0)
|   |   |   |   |   |   |   |   |   |   |   |   |   |   pixel160 > 3: 1 (20.0/8.0)
|   |   |   |   |   |   |   |   |   |   |   |   |   pixel425 > 6
|   |   |   |   |   |   |   |   |   |   |   |   |   |   pixel577 <= 48: 9 (13.0/3.0)
|   |   |   |   |   |   |   |   |   |   |   |   |   |   pixel577 > 48: 7 (4.0)
|   |   |   |   |   |   |   |   |   |   |   |   pixel556 > 9: 2 (57.0/4.0)
|   |   |   |   |   |   |   |   |   |   |   pixel161 > 0
|   |   |   |   |   |   |   |   |   |   |   |   pixel398 <= 6
|   |   |   |   |   |   |   |   |   |   |   |   |   pixel183 <= 1: 1 (49.0/1.0)
|   |   |   |   |   |   |   |   |   |   |   |   |   pixel183 > 1
|   |   |   |   |   |   |   |   |   |   |   |   |   |   pixel545 <= 82: 3 (13.0)
|   |   |   |   |   |   |   |   |   |   |   |   |   |   pixel545 > 82: 2 (8.0/1.0)
|   |   |   |   |   |   |   |   |   |   |   |   pixel398 > 6: 4 (2.0/1.0)
|   |   |   |   |   |   |   |   |   |   pixel350 > 66
|   |   |   |   |   |   |   |   |   |   |   pixel125 <= 60
|   |   |   |   |   |   |   |   |   |   |   |   pixel181 <= 10
|   |   |   |   |   |   |   |   |   |   |   |   |   pixel104 <= 79
|   |   |   |   |   |   |   |   |   |   |   |   |   |   pixel515 <= 47: 5 (5.0/2.0)
|   |   |   |   |   |   |   |   |   |   |   |   |   |   pixel515 > 47: 8 (6.0)
|   |   |   |   |   |   |   |   |   |   |   |   |   pixel104 > 79: 6 (4.0)
|   |   |   |   |   |   |   |   |   |   |   |   pixel181 > 10: 3 (2.0)
|   |   |   |   |   |   |   |   |   |   |   pixel125 > 60: 1 (2.0)
|   |   |   |   |   |   |   |   |   pixel539 > 2
|   |   |   |   |   |   |   |   |   |   pixel368 <= 62
|   |   |   |   |   |   |   |   |   |   |   pixel349 <= 100
|   |   |   |   |   |   |   |   |   |   |   |   pixel630 <= 42
|   |   |   |   |   |   |   |   |   |   |   |   |   pixel277 <= 2
|   |   |   |   |   |   |   |   |   |   |   |   |   |   pixel686 <= 55: 2 (176.0/11.0)
|   |   |   |   |   |   |   |   |   |   |   |   |   |   pixel686 > 55: 3 (2.0/1.0)
|   |   |   |   |   |   |   |   |   |   |   |   |   pixel277 > 2: 3 (2.0/1.0)
|   |   |   |   |   |   |   |   |   |   |   |   pixel630 > 42
|   |   |   |   |   |   |   |   |   |   |   |   |   pixel277 <= 6
|   |   |   |   |   |   |   |   |   |   |   |   |   |   pixel489 <= 105: 3 (6.0)
|   |   |   |   |   |   |   |   |   |   |   |   |   |   pixel489 > 105: 7 (9.0)
|   |   |   |   |   |   |   |   |   |   |   |   |   pixel277 > 6: 2 (2.0/1.0)
|   |   |   |   |   |   |   |   |   |   |   pixel349 > 100: 5 (2.0)
|   |   |   |   |   |   |   |   |   |   pixel368 > 62: 0 (3.0/2.0)
|   |   |   |   |   |   |   |   pixel372 > 60
|   |   |   |   |   |   |   |   |   pixel154 <= 37
|   |   |   |   |   |   |   |   |   |   pixel68 <= 23
|   |   |   |   |   |   |   |   |   |   |   pixel569 <= 32: 9 (39.0/23.0)
|   |   |   |   |   |   |   |   |   |   |   pixel569 > 32: 2 (2.0/1.0)
|   |   |   |   |   |   |   |   |   |   pixel68 > 23: 6 (3.0)
|   |   |   |   |   |   |   |   |   pixel154 > 37: 0 (2.0)
|   |   |   |   |   |   |   pixel155 > 0
|   |   |   |   |   |   |   |   pixel372 <= 59
|   |   |   |   |   |   |   |   |   pixel349 <= 31
|   |   |   |   |   |   |   |   |   |   pixel684 <= 13
|   |   |   |   |   |   |   |   |   |   |   pixel679 <= 140
|   |   |   |   |   |   |   |   |   |   |   |   pixel295 <= 188
|   |   |   |   |   |   |   |   |   |   |   |   |   pixel686 <= 15
|   |   |   |   |   |   |   |   |   |   |   |   |   |   pixel688 <= 10
|   |   |   |   |   |   |   |   |   |   |   |   |   |   |   pixel490 <= 0
|   |   |   |   |   |   |   |   |   |   |   |   |   |   |   |   pixel268 <= 253
|   |   |   |   |   |   |   |   |   |   |   |   |   |   |   |   |   pixel380 <= 217
|   |   |   |   |   |   |   |   |   |   |   |   |   |   |   |   |   |   pixel535 <= 90
|   |   |   |   |   |   |   |   |   |   |   |   |   |   |   |   |   |   |   pixel660 <= 9: 2 (120.0/2.0)
|   |   |   |   |   |   |   |   |   |   |   |   |   |   |   |   |   |   |   pixel660 > 9
|   |   |   |   |   |   |   |   |   |   |   |   |   |   |   |   |   |   |   |   pixel481 <= 23: 2 (29.0/9.0)
|   |   |   |   |   |   |   |   |   |   |   |   |   |   |   |   |   |   |   |   pixel481 > 23: 3 (2.0)
|   |   |   |   |   |   |   |   |   |   |   |   |   |   |   |   |   |   pixel535 > 90: 3 (2.0)
|   |   |   |   |   |   |   |   |   |   |   |   |   |   |   |   |   pixel380 > 217
|   |   |   |   |   |   |   |   |   |   |   |   |   |   |   |   |   |   pixel489 <= 33: 3 (23.0/1.0)
|   |   |   |   |   |   |   |   |   |   |   |   |   |   |   |   |   |   pixel489 > 33: 2 (4.0)
|   |   |   |   |   |   |   |   |   |   |   |   |   |   |   |   pixel268 > 253: 5 (4.0/1.0)
|   |   |   |   |   |   |   |   |   |   |   |   |   |   |   pixel490 > 0: 2 (1184.0/21.0)
|   |   |   |   |   |   |   |   |   |   |   |   |   |   pixel688 > 10: 2 (17.0/6.0)
|   |   |   |   |   |   |   |   |   |   |   |   |   pixel686 > 15
|   |   |   |   |   |   |   |   |   |   |   |   |   |   pixel580 <= 102
|   |   |   |   |   |   |   |   |   |   |   |   |   |   |   pixel663 <= 20: 7 (10.0/3.0)
|   |   |   |   |   |   |   |   |   |   |   |   |   |   |   pixel663 > 20: 2 (11.0)
|   |   |   |   |   |   |   |   |   |   |   |   |   |   pixel580 > 102: 3 (4.0)
|   |   |   |   |   |   |   |   |   |   |   |   pixel295 > 188
|   |   |   |   |   |   |   |   |   |   |   |   |   pixel491 <= 28: 3 (20.0/9.0)
|   |   |   |   |   |   |   |   |   |   |   |   |   pixel491 > 28: 2 (20.0/3.0)
|   |   |   |   |   |   |   |   |   |   |   pixel679 > 140
|   |   |   |   |   |   |   |   |   |   |   |   pixel351 <= 3
|   |   |   |   |   |   |   |   |   |   |   |   |   pixel160 <= 6: 7 (8.0)
|   |   |   |   |   |   |   |   |   |   |   |   |   pixel160 > 6: 2 (6.0)
|   |   |   |   |   |   |   |   |   |   |   |   pixel351 > 3: 3 (2.0)
|   |   |   |   |   |   |   |   |   |   pixel684 > 13
|   |   |   |   |   |   |   |   |   |   |   pixel545 <= 8
|   |   |   |   |   |   |   |   |   |   |   |   pixel546 <= 99
|   |   |   |   |   |   |   |   |   |   |   |   |   pixel514 <= 175
|   |   |   |   |   |   |   |   |   |   |   |   |   |   pixel323 <= 170
|   |   |   |   |   |   |   |   |   |   |   |   |   |   |   pixel543 <= 142: 3 (81.0/1.0)
|   |   |   |   |   |   |   |   |   |   |   |   |   |   |   pixel543 > 142: 2 (2.0)
|   |   |   |   |   |   |   |   |   |   |   |   |   |   pixel323 > 170: 2 (2.0/1.0)
|   |   |   |   |   |   |   |   |   |   |   |   |   pixel514 > 175: 2 (5.0)
|   |   |   |   |   |   |   |   |   |   |   |   pixel546 > 99: 7 (5.0/3.0)
|   |   |   |   |   |   |   |   |   |   |   pixel545 > 8: 2 (81.0/27.0)
|   |   |   |   |   |   |   |   |   pixel349 > 31
|   |   |   |   |   |   |   |   |   |   pixel467 <= 18: 8 (21.0/6.0)
|   |   |   |   |   |   |   |   |   |   pixel467 > 18: 3 (7.0/2.0)
|   |   |   |   |   |   |   |   pixel372 > 59: 0 (20.0/8.0)
|   |   |   |   |   |   pixel351 > 32
|   |   |   |   |   |   |   pixel529 <= 1
|   |   |   |   |   |   |   |   pixel467 <= 0
|   |   |   |   |   |   |   |   |   pixel609 <= 1
|   |   |   |   |   |   |   |   |   |   pixel206 <= 1
|   |   |   |   |   |   |   |   |   |   |   pixel510 <= 1
|   |   |   |   |   |   |   |   |   |   |   |   pixel276 <= 1
|   |   |   |   |   |   |   |   |   |   |   |   |   pixel552 <= 2
|   |   |   |   |   |   |   |   |   |   |   |   |   |   pixel357 <= 0
|   |   |   |   |   |   |   |   |   |   |   |   |   |   |   pixel711 <= 13
|   |   |   |   |   |   |   |   |   |   |   |   |   |   |   |   pixel379 <= 104
|   |   |   |   |   |   |   |   |   |   |   |   |   |   |   |   |   pixel152 <= 4
|   |   |   |   |   |   |   |   |   |   |   |   |   |   |   |   |   |   pixel405 <= 186
|   |   |   |   |   |   |   |   |   |   |   |   |   |   |   |   |   |   |   pixel208 <= 42
|   |   |   |   |   |   |   |   |   |   |   |   |   |   |   |   |   |   |   |   pixel487 <= 13: 1 (16.0/5.0)
|   |   |   |   |   |   |   |   |   |   |   |   |   |   |   |   |   |   |   |   pixel487 > 13: 8 (4.0)
|   |   |   |   |   |   |   |   |   |   |   |   |   |   |   |   |   |   |   pixel208 > 42: 7 (2.0/1.0)
|   |   |   |   |   |   |   |   |   |   |   |   |   |   |   |   |   |   pixel405 > 186: 6 (17.0/7.0)
|   |   |   |   |   |   |   |   |   |   |   |   |   |   |   |   |   pixel152 > 4: 3 (9.0/2.0)
|   |   |   |   |   |   |   |   |   |   |   |   |   |   |   |   pixel379 > 104
|   |   |   |   |   |   |   |   |   |   |   |   |   |   |   |   |   pixel263 <= 2
|   |   |   |   |   |   |   |   |   |   |   |   |   |   |   |   |   |   pixel329 <= 2
|   |   |   |   |   |   |   |   |   |   |   |   |   |   |   |   |   |   |   pixel523 <= 3
|   |   |   |   |   |   |   |   |   |   |   |   |   |   |   |   |   |   |   |   pixel494 <= 3
|   |   |   |   |   |   |   |   |   |   |   |   |   |   |   |   |   |   |   |   |   pixel207 <= 16
|   |   |   |   |   |   |   |   |   |   |   |   |   |   |   |   |   |   |   |   |   |   pixel220 <= 4
|   |   |   |   |   |   |   |   |   |   |   |   |   |   |   |   |   |   |   |   |   |   |   pixel264 <= 85
|   |   |   |   |   |   |   |   |   |   |   |   |   |   |   |   |   |   |   |   |   |   |   |   pixel407 <= 135
|   |   |   |   |   |   |   |   |   |   |   |   |   |   |   |   |   |   |   |   |   |   |   |   |   pixel104 <= 60: 1 (29.0/8.0)
|   |   |   |   |   |   |   |   |   |   |   |   |   |   |   |   |   |   |   |   |   |   |   |   |   pixel104 > 60: 6 (2.0)
|   |   |   |   |   |   |   |   |   |   |   |   |   |   |   |   |   |   |   |   |   |   |   |   pixel407 > 135
|   |   |   |   |   |   |   |   |   |   |   |   |   |   |   |   |   |   |   |   |   |   |   |   |   pixel411 <= 1
|   |   |   |   |   |   |   |   |   |   |   |   |   |   |   |   |   |   |   |   |   |   |   |   |   |   pixel539 <= 3
|   |   |   |   |   |   |   |   |   |   |   |   |   |   |   |   |   |   |   |   |   |   |   |   |   |   |   pixel301 <= 3
|   |   |   |   |   |   |   |   |   |   |   |   |   |   |   |   |   |   |   |   |   |   |   |   |   |   |   |   pixel151 <= 7
|   |   |   |   |   |   |   |   |   |   |   |   |   |   |   |   |   |   |   |   |   |   |   |   |   |   |   |   |   pixel485 <= 9: 1 (3689.0/33.0)
|   |   |   |   |   |   |   |   |   |   |   |   |   |   |   |   |   |   |   |   |   |   |   |   |   |   |   |   |   pixel485 > 9
|   |   |   |   |   |   |   |   |   |   |   |   |   |   |   |   |   |   |   |   |   |   |   |   |   |   |   |   |   |   pixel210 <= 9: 1 (22.0/2.0)
|   |   |   |   |   |   |   |   |   |   |   |   |   |   |   |   |   |   |   |   |   |   |   |   |   |   |   |   |   |   pixel210 > 9: 8 (3.0)
|   |   |   |   |   |   |   |   |   |   |   |   |   |   |   |   |   |   |   |   |   |   |   |   |   |   |   |   pixel151 > 7: 1 (32.0/5.0)
|   |   |   |   |   |   |   |   |   |   |   |   |   |   |   |   |   |   |   |   |   |   |   |   |   |   |   pixel301 > 3
|   |   |   |   |   |   |   |   |   |   |   |   |   |   |   |   |   |   |   |   |   |   |   |   |   |   |   |   pixel550 <= 2
|   |   |   |   |   |   |   |   |   |   |   |   |   |   |   |   |   |   |   |   |   |   |   |   |   |   |   |   |   pixel631 <= 5: 1 (56.0)
|   |   |   |   |   |   |   |   |   |   |   |   |   |   |   |   |   |   |   |   |   |   |   |   |   |   |   |   |   pixel631 > 5: 8 (13.0)
|   |   |   |   |   |   |   |   |   |   |   |   |   |   |   |   |   |   |   |   |   |   |   |   |   |   |   |   pixel550 > 2: 3 (3.0)
|   |   |   |   |   |   |   |   |   |   |   |   |   |   |   |   |   |   |   |   |   |   |   |   |   |   pixel539 > 3: 1 (25.0/7.0)
|   |   |   |   |   |   |   |   |   |   |   |   |   |   |   |   |   |   |   |   |   |   |   |   |   pixel411 > 1
|   |   |   |   |   |   |   |   |   |   |   |   |   |   |   |   |   |   |   |   |   |   |   |   |   |   pixel297 <= 185: 8 (7.0)
|   |   |   |   |   |   |   |   |   |   |   |   |   |   |   |   |   |   |   |   |   |   |   |   |   |   pixel297 > 185: 1 (18.0/1.0)
|   |   |   |   |   |   |   |   |   |   |   |   |   |   |   |   |   |   |   |   |   |   |   pixel264 > 85
|   |   |   |   |   |   |   |   |   |   |   |   |   |   |   |   |   |   |   |   |   |   |   |   pixel274 <= 1
|   |   |   |   |   |   |   |   |   |   |   |   |   |   |   |   |   |   |   |   |   |   |   |   |   pixel492 <= 5: 4 (2.0/1.0)
|   |   |   |   |   |   |   |   |   |   |   |   |   |   |   |   |   |   |   |   |   |   |   |   |   pixel492 > 5
|   |   |   |   |   |   |   |   |   |   |   |   |   |   |   |   |   |   |   |   |   |   |   |   |   |   pixel515 <= 48: 1 (21.0/2.0)
|   |   |   |   |   |   |   |   |   |   |   |   |   |   |   |   |   |   |   |   |   |   |   |   |   |   pixel515 > 48: 8 (5.0)
|   |   |   |   |   |   |   |   |   |   |   |   |   |   |   |   |   |   |   |   |   |   |   |   pixel274 > 1: 3 (2.0)
|   |   |   |   |   |   |   |   |   |   |   |   |   |   |   |   |   |   |   |   |   |   pixel220 > 4
|   |   |   |   |   |   |   |   |   |   |   |   |   |   |   |   |   |   |   |   |   |   |   pixel214 <= 252
|   |   |   |   |   |   |   |   |   |   |   |   |   |   |   |   |   |   |   |   |   |   |   |   pixel239 <= 70: 1 (16.0)
|   |   |   |   |   |   |   |   |   |   |   |   |   |   |   |   |   |   |   |   |   |   |   |   pixel239 > 70: 8 (5.0)
|   |   |   |   |   |   |   |   |   |   |   |   |   |   |   |   |   |   |   |   |   |   |   pixel214 > 252: 5 (4.0/1.0)
|   |   |   |   |   |   |   |   |   |   |   |   |   |   |   |   |   |   |   |   |   pixel207 > 16
|   |   |   |   |   |   |   |   |   |   |   |   |   |   |   |   |   |   |   |   |   |   pixel629 <= 109: 1 (19.0/1.0)
|   |   |   |   |   |   |   |   |   |   |   |   |   |   |   |   |   |   |   |   |   |   pixel629 > 109
|   |   |   |   |   |   |   |   |   |   |   |   |   |   |   |   |   |   |   |   |   |   |   pixel293 <= 74
|   |   |   |   |   |   |   |   |   |   |   |   |   |   |   |   |   |   |   |   |   |   |   |   pixel544 <= 97
|   |   |   |   |   |   |   |   |   |   |   |   |   |   |   |   |   |   |   |   |   |   |   |   |   pixel151 <= 22: 7 (3.0)
|   |   |   |   |   |   |   |   |   |   |   |   |   |   |   |   |   |   |   |   |   |   |   |   |   pixel151 > 22: 3 (4.0)
|   |   |   |   |   |   |   |   |   |   |   |   |   |   |   |   |   |   |   |   |   |   |   |   pixel544 > 97: 2 (2.0)
|   |   |   |   |   |   |   |   |   |   |   |   |   |   |   |   |   |   |   |   |   |   |   pixel293 > 74: 8 (3.0)
|   |   |   |   |   |   |   |   |   |   |   |   |   |   |   |   |   |   |   |   pixel494 > 3
|   |   |   |   |   |   |   |   |   |   |   |   |   |   |   |   |   |   |   |   |   pixel104 <= 23
|   |   |   |   |   |   |   |   |   |   |   |   |   |   |   |   |   |   |   |   |   |   pixel491 <= 123
|   |   |   |   |   |   |   |   |   |   |   |   |   |   |   |   |   |   |   |   |   |   |   pixel124 <= 205
|   |   |   |   |   |   |   |   |   |   |   |   |   |   |   |   |   |   |   |   |   |   |   |   pixel294 <= 27: 3 (23.0/2.0)
|   |   |   |   |   |   |   |   |   |   |   |   |   |   |   |   |   |   |   |   |   |   |   |   pixel294 > 27
|   |   |   |   |   |   |   |   |   |   |   |   |   |   |   |   |   |   |   |   |   |   |   |   |   pixel193 <= 65
|   |   |   |   |   |   |   |   |   |   |   |   |   |   |   |   |   |   |   |   |   |   |   |   |   |   pixel519 <= 112: 8 (30.0/2.0)
|   |   |   |   |   |   |   |   |   |   |   |   |   |   |   |   |   |   |   |   |   |   |   |   |   |   pixel519 > 112: 3 (3.0/1.0)
|   |   |   |   |   |   |   |   |   |   |   |   |   |   |   |   |   |   |   |   |   |   |   |   |   pixel193 > 65: 5 (2.0)
|   |   |   |   |   |   |   |   |   |   |   |   |   |   |   |   |   |   |   |   |   |   |   pixel124 > 205: 1 (2.0/1.0)
|   |   |   |   |   |   |   |   |   |   |   |   |   |   |   |   |   |   |   |   |   |   pixel491 > 123
|   |   |   |   |   |   |   |   |   |   |   |   |   |   |   |   |   |   |   |   |   |   |   pixel623 <= 9
|   |   |   |   |   |   |   |   |   |   |   |   |   |   |   |   |   |   |   |   |   |   |   |   pixel189 <= 33
|   |   |   |   |   |   |   |   |   |   |   |   |   |   |   |   |   |   |   |   |   |   |   |   |   pixel295 <= 79: 8 (2.0)
|   |   |   |   |   |   |   |   |   |   |   |   |   |   |   |   |   |   |   |   |   |   |   |   |   pixel295 > 79: 1 (105.0/1.0)
|   |   |   |   |   |   |   |   |   |   |   |   |   |   |   |   |   |   |   |   |   |   |   |   pixel189 > 33: 8 (3.0)
|   |   |   |   |   |   |   |   |   |   |   |   |   |   |   |   |   |   |   |   |   |   |   pixel623 > 9: 3 (2.0)
|   |   |   |   |   |   |   |   |   |   |   |   |   |   |   |   |   |   |   |   |   pixel104 > 23: 6 (8.0)
|   |   |   |   |   |   |   |   |   |   |   |   |   |   |   |   |   |   |   pixel523 > 3
|   |   |   |   |   |   |   |   |   |   |   |   |   |   |   |   |   |   |   |   pixel132 <= 96
|   |   |   |   |   |   |   |   |   |   |   |   |   |   |   |   |   |   |   |   |   pixel294 <= 15: 3 (13.0/1.0)
|   |   |   |   |   |   |   |   |   |   |   |   |   |   |   |   |   |   |   |   |   pixel294 > 15: 1 (21.0/9.0)
|   |   |   |   |   |   |   |   |   |   |   |   |   |   |   |   |   |   |   |   pixel132 > 96: 5 (2.0)
|   |   |   |   |   |   |   |   |   |   |   |   |   |   |   |   |   |   pixel329 > 2
|   |   |   |   |   |   |   |   |   |   |   |   |   |   |   |   |   |   |   pixel294 <= 10
|   |   |   |   |   |   |   |   |   |   |   |   |   |   |   |   |   |   |   |   pixel182 <= 18
|   |   |   |   |   |   |   |   |   |   |   |   |   |   |   |   |   |   |   |   |   pixel211 <= 5: 1 (38.0/1.0)
|   |   |   |   |   |   |   |   |   |   |   |   |   |   |   |   |   |   |   |   |   pixel211 > 5: 8 (2.0)
|   |   |   |   |   |   |   |   |   |   |   |   |   |   |   |   |   |   |   |   pixel182 > 18: 3 (9.0/1.0)
|   |   |   |   |   |   |   |   |   |   |   |   |   |   |   |   |   |   |   pixel294 > 10: 8 (46.0/2.0)
|   |   |   |   |   |   |   |   |   |   |   |   |   |   |   |   |   pixel263 > 2
|   |   |   |   |   |   |   |   |   |   |   |   |   |   |   |   |   |   pixel372 <= 37
|   |   |   |   |   |   |   |   |   |   |   |   |   |   |   |   |   |   |   pixel429 <= 96
|   |   |   |   |   |   |   |   |   |   |   |   |   |   |   |   |   |   |   |   pixel232 <= 8
|   |   |   |   |   |   |   |   |   |   |   |   |   |   |   |   |   |   |   |   |   pixel322 <= 85
|   |   |   |   |   |   |   |   |   |   |   |   |   |   |   |   |   |   |   |   |   |   pixel296 <= 224: 3 (15.0/2.0)
|   |   |   |   |   |   |   |   |   |   |   |   |   |   |   |   |   |   |   |   |   |   pixel296 > 224: 1 (9.0/1.0)
|   |   |   |   |   |   |   |   |   |   |   |   |   |   |   |   |   |   |   |   |   pixel322 > 85
|   |   |   |   |   |   |   |   |   |   |   |   |   |   |   |   |   |   |   |   |   |   pixel326 <= 4: 1 (11.0/1.0)
|   |   |   |   |   |   |   |   |   |   |   |   |   |   |   |   |   |   |   |   |   |   pixel326 > 4: 8 (18.0)
|   |   |   |   |   |   |   |   |   |   |   |   |   |   |   |   |   |   |   |   pixel232 > 8: 7 (5.0)
|   |   |   |   |   |   |   |   |   |   |   |   |   |   |   |   |   |   |   pixel429 > 96: 2 (2.0)
|   |   |   |   |   |   |   |   |   |   |   |   |   |   |   |   |   |   pixel372 > 37: 9 (2.0)
|   |   |   |   |   |   |   |   |   |   |   |   |   |   |   pixel711 > 13
|   |   |   |   |   |   |   |   |   |   |   |   |   |   |   |   pixel569 <= 5
|   |   |   |   |   |   |   |   |   |   |   |   |   |   |   |   |   pixel549 <= 29
|   |   |   |   |   |   |   |   |   |   |   |   |   |   |   |   |   |   pixel548 <= 4
|   |   |   |   |   |   |   |   |   |   |   |   |   |   |   |   |   |   |   pixel210 <= 56: 1 (8.0/1.0)
|   |   |   |   |   |   |   |   |   |   |   |   |   |   |   |   |   |   |   pixel210 > 56: 7 (9.0)
|   |   |   |   |   |   |   |   |   |   |   |   |   |   |   |   |   |   pixel548 > 4: 9 (9.0)
|   |   |   |   |   |   |   |   |   |   |   |   |   |   |   |   |   pixel549 > 29: 3 (7.0)
|   |   |   |   |   |   |   |   |   |   |   |   |   |   |   |   pixel569 > 5: 8 (2.0)
|   |   |   |   |   |   |   |   |   |   |   |   |   |   pixel357 > 0
|   |   |   |   |   |   |   |   |   |   |   |   |   |   |   pixel593 <= 21: 8 (79.0/21.0)
|   |   |   |   |   |   |   |   |   |   |   |   |   |   |   pixel593 > 21: 3 (2.0)
|   |   |   |   |   |   |   |   |   |   |   |   |   pixel552 > 2
|   |   |   |   |   |   |   |   |   |   |   |   |   |   pixel320 <= 32
|   |   |   |   |   |   |   |   |   |   |   |   |   |   |   pixel411 <= 15
|   |   |   |   |   |   |   |   |   |   |   |   |   |   |   |   pixel322 <= 143: 2 (26.0/3.0)
|   |   |   |   |   |   |   |   |   |   |   |   |   |   |   |   pixel322 > 143: 1 (7.0/1.0)
|   |   |   |   |   |   |   |   |   |   |   |   |   |   |   pixel411 > 15: 3 (7.0)
|   |   |   |   |   |   |   |   |   |   |   |   |   |   pixel320 > 32: 5 (3.0/2.0)
|   |   |   |   |   |   |   |   |   |   |   |   pixel276 > 1
|   |   |   |   |   |   |   |   |   |   |   |   |   pixel678 <= 18
|   |   |   |   |   |   |   |   |   |   |   |   |   |   pixel354 <= 54
|   |   |   |   |   |   |   |   |   |   |   |   |   |   |   pixel160 <= 105: 5 (13.0/1.0)
|   |   |   |   |   |   |   |   |   |   |   |   |   |   |   pixel160 > 105: 8 (4.0)
|   |   |   |   |   |   |   |   |   |   |   |   |   |   pixel354 > 54: 8 (58.0/3.0)
|   |   |   |   |   |   |   |   |   |   |   |   |   pixel678 > 18: 1 (4.0)
|   |   |   |   |   |   |   |   |   |   |   pixel510 > 1
|   |   |   |   |   |   |   |   |   |   |   |   pixel458 <= 14
|   |   |   |   |   |   |   |   |   |   |   |   |   pixel181 <= 12
|   |   |   |   |   |   |   |   |   |   |   |   |   |   pixel384 <= 5: 5 (26.0)
|   |   |   |   |   |   |   |   |   |   |   |   |   |   pixel384 > 5: 3 (2.0)
|   |   |   |   |   |   |   |   |   |   |   |   |   pixel181 > 12: 3 (8.0)
|   |   |   |   |   |   |   |   |   |   |   |   pixel458 > 14
|   |   |   |   |   |   |   |   |   |   |   |   |   pixel542 <= 217: 8 (26.0/2.0)
|   |   |   |   |   |   |   |   |   |   |   |   |   pixel542 > 217: 2 (6.0/1.0)
|   |   |   |   |   |   |   |   |   |   pixel206 > 1
|   |   |   |   |   |   |   |   |   |   |   pixel516 <= 84
|   |   |   |   |   |   |   |   |   |   |   |   pixel519 <= 131
|   |   |   |   |   |   |   |   |   |   |   |   |   pixel718 <= 39
|   |   |   |   |   |   |   |   |   |   |   |   |   |   pixel545 <= 126
|   |   |   |   |   |   |   |   |   |   |   |   |   |   |   pixel293 <= 155: 3 (71.0/1.0)
|   |   |   |   |   |   |   |   |   |   |   |   |   |   |   pixel293 > 155: 8 (5.0/3.0)
|   |   |   |   |   |   |   |   |   |   |   |   |   |   pixel545 > 126: 8 (2.0)
|   |   |   |   |   |   |   |   |   |   |   |   |   pixel718 > 39: 7 (2.0)
|   |   |   |   |   |   |   |   |   |   |   |   pixel519 > 131
|   |   |   |   |   |   |   |   |   |   |   |   |   pixel372 <= 111
|   |   |   |   |   |   |   |   |   |   |   |   |   |   pixel664 <= 56
|   |   |   |   |   |   |   |   |   |   |   |   |   |   |   pixel468 <= 1
|   |   |   |   |   |   |   |   |   |   |   |   |   |   |   |   pixel404 <= 14
|   |   |   |   |   |   |   |   |   |   |   |   |   |   |   |   |   pixel158 <= 107: 7 (69.0/11.0)
|   |   |   |   |   |   |   |   |   |   |   |   |   |   |   |   |   pixel158 > 107: 3 (3.0)
|   |   |   |   |   |   |   |   |   |   |   |   |   |   |   |   pixel404 > 14: 3 (12.0)
|   |   |   |   |   |   |   |   |   |   |   |   |   |   |   pixel468 > 1: 1 (2.0/1.0)
|   |   |   |   |   |   |   |   |   |   |   |   |   |   pixel664 > 56: 2 (2.0/1.0)
|   |   |   |   |   |   |   |   |   |   |   |   |   pixel372 > 111: 6 (2.0)
|   |   |   |   |   |   |   |   |   |   |   pixel516 > 84
|   |   |   |   |   |   |   |   |   |   |   |   pixel321 <= 151
|   |   |   |   |   |   |   |   |   |   |   |   |   pixel687 <= 253
|   |   |   |   |   |   |   |   |   |   |   |   |   |   pixel709 <= 59
|   |   |   |   |   |   |   |   |   |   |   |   |   |   |   pixel712 <= 4: 2 (38.0/7.0)
|   |   |   |   |   |   |   |   |   |   |   |   |   |   |   pixel712 > 4
|   |   |   |   |   |   |   |   |   |   |   |   |   |   |   |   pixel180 <= 145: 7 (2.0)
|   |   |   |   |   |   |   |   |   |   |   |   |   |   |   |   pixel180 > 145: 3 (2.0)
|   |   |   |   |   |   |   |   |   |   |   |   |   |   pixel709 > 59: 7 (2.0)
|   |   |   |   |   |   |   |   |   |   |   |   |   pixel687 > 253: 8 (3.0/1.0)
|   |   |   |   |   |   |   |   |   |   |   |   pixel321 > 151: 8 (12.0)
|   |   |   |   |   |   |   |   |   pixel609 > 1
|   |   |   |   |   |   |   |   |   |   pixel413 <= 23
|   |   |   |   |   |   |   |   |   |   |   pixel716 <= 18
|   |   |   |   |   |   |   |   |   |   |   |   pixel682 <= 67
|   |   |   |   |   |   |   |   |   |   |   |   |   pixel516 <= 3
|   |   |   |   |   |   |   |   |   |   |   |   |   |   pixel494 <= 21
|   |   |   |   |   |   |   |   |   |   |   |   |   |   |   pixel319 <= 16
|   |   |   |   |   |   |   |   |   |   |   |   |   |   |   |   pixel294 <= 121: 2 (18.0/2.0)
|   |   |   |   |   |   |   |   |   |   |   |   |   |   |   |   pixel294 > 121: 1 (4.0)
|   |   |   |   |   |   |   |   |   |   |   |   |   |   |   pixel319 > 16: 1 (2.0/1.0)
|   |   |   |   |   |   |   |   |   |   |   |   |   |   pixel494 > 21: 3 (10.0/2.0)
|   |   |   |   |   |   |   |   |   |   |   |   |   pixel516 > 3: 2 (217.0/3.0)
|   |   |   |   |   |   |   |   |   |   |   |   pixel682 > 67: 3 (5.0/1.0)
|   |   |   |   |   |   |   |   |   |   |   pixel716 > 18: 3 (4.0)
|   |   |   |   |   |   |   |   |   |   pixel413 > 23
|   |   |   |   |   |   |   |   |   |   |   pixel491 <= 115: 3 (43.0/5.0)
|   |   |   |   |   |   |   |   |   |   |   pixel491 > 115: 2 (2.0)
|   |   |   |   |   |   |   |   pixel467 > 0
|   |   |   |   |   |   |   |   |   pixel103 <= 9
|   |   |   |   |   |   |   |   |   |   pixel612 <= 64
|   |   |   |   |   |   |   |   |   |   |   pixel473 <= 5
|   |   |   |   |   |   |   |   |   |   |   |   pixel491 <= 197
|   |   |   |   |   |   |   |   |   |   |   |   |   pixel516 <= 76
|   |   |   |   |   |   |   |   |   |   |   |   |   |   pixel193 <= 1
|   |   |   |   |   |   |   |   |   |   |   |   |   |   |   pixel486 <= 114
|   |   |   |   |   |   |   |   |   |   |   |   |   |   |   |   pixel293 <= 194
|   |   |   |   |   |   |   |   |   |   |   |   |   |   |   |   |   pixel718 <= 123
|   |   |   |   |   |   |   |   |   |   |   |   |   |   |   |   |   |   pixel415 <= 36
|   |   |   |   |   |   |   |   |   |   |   |   |   |   |   |   |   |   |   pixel220 <= 167
|   |   |   |   |   |   |   |   |   |   |   |   |   |   |   |   |   |   |   |   pixel492 <= 251
|   |   |   |   |   |   |   |   |   |   |   |   |   |   |   |   |   |   |   |   |   pixel344 <= 88
|   |   |   |   |   |   |   |   |   |   |   |   |   |   |   |   |   |   |   |   |   |   pixel518 <= 125
|   |   |   |   |   |   |   |   |   |   |   |   |   |   |   |   |   |   |   |   |   |   |   pixel134 <= 141: 3 (563.0/4.0)
|   |   |   |   |   |   |   |   |   |   |   |   |   |   |   |   |   |   |   |   |   |   |   pixel134 > 141
|   |   |   |   |   |   |   |   |   |   |   |   |   |   |   |   |   |   |   |   |   |   |   |   pixel189 <= 177: 5 (2.0)
|   |   |   |   |   |   |   |   |   |   |   |   |   |   |   |   |   |   |   |   |   |   |   |   pixel189 > 177: 3 (6.0)
|   |   |   |   |   |   |   |   |   |   |   |   |   |   |   |   |   |   |   |   |   |   pixel518 > 125: 3 (6.0/1.0)
|   |   |   |   |   |   |   |   |   |   |   |   |   |   |   |   |   |   |   |   |   pixel344 > 88: 3 (6.0/1.0)
|   |   |   |   |   |   |   |   |   |   |   |   |   |   |   |   |   |   |   |   pixel492 > 251: 3 (8.0/2.0)
|   |   |   |   |   |   |   |   |   |   |   |   |   |   |   |   |   |   |   pixel220 > 167: 3 (6.0/3.0)
|   |   |   |   |   |   |   |   |   |   |   |   |   |   |   |   |   |   pixel415 > 36: 3 (7.0/3.0)
|   |   |   |   |   |   |   |   |   |   |   |   |   |   |   |   |   pixel718 > 123: 3 (7.0/4.0)
|   |   |   |   |   |   |   |   |   |   |   |   |   |   |   |   pixel293 > 194
|   |   |   |   |   |   |   |   |   |   |   |   |   |   |   |   |   pixel230 <= 5
|   |   |   |   |   |   |   |   |   |   |   |   |   |   |   |   |   |   pixel386 <= 42
|   |   |   |   |   |   |   |   |   |   |   |   |   |   |   |   |   |   |   pixel267 <= 63: 5 (19.0/4.0)
|   |   |   |   |   |   |   |   |   |   |   |   |   |   |   |   |   |   |   pixel267 > 63: 3 (32.0/8.0)
|   |   |   |   |   |   |   |   |   |   |   |   |   |   |   |   |   |   pixel386 > 42: 2 (2.0/1.0)
|   |   |   |   |   |   |   |   |   |   |   |   |   |   |   |   |   pixel230 > 5: 7 (10.0/2.0)
|   |   |   |   |   |   |   |   |   |   |   |   |   |   |   pixel486 > 114
|   |   |   |   |   |   |   |   |   |   |   |   |   |   |   |   pixel121 <= 27
|   |   |   |   |   |   |   |   |   |   |   |   |   |   |   |   |   pixel401 <= 19
|   |   |   |   |   |   |   |   |   |   |   |   |   |   |   |   |   |   pixel460 <= 254
|   |   |   |   |   |   |   |   |   |   |   |   |   |   |   |   |   |   |   pixel294 <= 25: 3 (27.0/1.0)
|   |   |   |   |   |   |   |   |   |   |   |   |   |   |   |   |   |   |   pixel294 > 25: 8 (44.0/7.0)
|   |   |   |   |   |   |   |   |   |   |   |   |   |   |   |   |   |   pixel460 > 254: 0 (2.0/1.0)
|   |   |   |   |   |   |   |   |   |   |   |   |   |   |   |   |   pixel401 > 19: 2 (2.0/1.0)
|   |   |   |   |   |   |   |   |   |   |   |   |   |   |   |   pixel121 > 27: 2 (2.0)
|   |   |   |   |   |   |   |   |   |   |   |   |   |   pixel193 > 1: 5 (8.0/3.0)
|   |   |   |   |   |   |   |   |   |   |   |   |   pixel516 > 76
|   |   |   |   |   |   |   |   |   |   |   |   |   |   pixel107 <= 63
|   |   |   |   |   |   |   |   |   |   |   |   |   |   |   pixel222 <= 32
|   |   |   |   |   |   |   |   |   |   |   |   |   |   |   |   pixel471 <= 27
|   |   |   |   |   |   |   |   |   |   |   |   |   |   |   |   |   pixel402 <= 104
|   |   |   |   |   |   |   |   |   |   |   |   |   |   |   |   |   |   pixel149 <= 240
|   |   |   |   |   |   |   |   |   |   |   |   |   |   |   |   |   |   |   pixel482 <= 24
|   |   |   |   |   |   |   |   |   |   |   |   |   |   |   |   |   |   |   |   pixel518 <= 186
|   |   |   |   |   |   |   |   |   |   |   |   |   |   |   |   |   |   |   |   |   pixel230 <= 2
|   |   |   |   |   |   |   |   |   |   |   |   |   |   |   |   |   |   |   |   |   |   pixel538 <= 42
|   |   |   |   |   |   |   |   |   |   |   |   |   |   |   |   |   |   |   |   |   |   |   pixel348 <= 0
|   |   |   |   |   |   |   |   |   |   |   |   |   |   |   |   |   |   |   |   |   |   |   |   pixel318 <= 25
|   |   |   |   |   |   |   |   |   |   |   |   |   |   |   |   |   |   |   |   |   |   |   |   |   pixel293 <= 1
|   |   |   |   |   |   |   |   |   |   |   |   |   |   |   |   |   |   |   |   |   |   |   |   |   |   pixel266 <= 131: 3 (4.0)
|   |   |   |   |   |   |   |   |   |   |   |   |   |   |   |   |   |   |   |   |   |   |   |   |   |   pixel266 > 131: 8 (7.0)
|   |   |   |   |   |   |   |   |   |   |   |   |   |   |   |   |   |   |   |   |   |   |   |   |   pixel293 > 1: 8 (75.0)
|   |   |   |   |   |   |   |   |   |   |   |   |   |   |   |   |   |   |   |   |   |   |   |   pixel318 > 25: 3 (5.0/1.0)
|   |   |   |   |   |   |   |   |   |   |   |   |   |   |   |   |   |   |   |   |   |   |   pixel348 > 0: 0 (2.0/1.0)
|   |   |   |   |   |   |   |   |   |   |   |   |   |   |   |   |   |   |   |   |   |   pixel538 > 42: 3 (2.0)
|   |   |   |   |   |   |   |   |   |   |   |   |   |   |   |   |   |   |   |   |   pixel230 > 2: 3 (5.0)
|   |   |   |   |   |   |   |   |   |   |   |   |   |   |   |   |   |   |   |   pixel518 > 186: 3 (8.0/3.0)
|   |   |   |   |   |   |   |   |   |   |   |   |   |   |   |   |   |   |   pixel482 > 24
|   |   |   |   |   |   |   |   |   |   |   |   |   |   |   |   |   |   |   |   pixel377 <= 31: 3 (5.0)
|   |   |   |   |   |   |   |   |   |   |   |   |   |   |   |   |   |   |   |   pixel377 > 31: 5 (3.0)
|   |   |   |   |   |   |   |   |   |   |   |   |   |   |   |   |   |   pixel149 > 240: 2 (5.0/2.0)
|   |   |   |   |   |   |   |   |   |   |   |   |   |   |   |   |   pixel402 > 104: 2 (3.0/1.0)
|   |   |   |   |   |   |   |   |   |   |   |   |   |   |   |   pixel471 > 27: 2 (8.0/1.0)
|   |   |   |   |   |   |   |   |   |   |   |   |   |   |   pixel222 > 32: 5 (2.0)
|   |   |   |   |   |   |   |   |   |   |   |   |   |   pixel107 > 63: 6 (4.0)
|   |   |   |   |   |   |   |   |   |   |   |   pixel491 > 197
|   |   |   |   |   |   |   |   |   |   |   |   |   pixel554 <= 62
|   |   |   |   |   |   |   |   |   |   |   |   |   |   pixel378 <= 195
|   |   |   |   |   |   |   |   |   |   |   |   |   |   |   pixel539 <= 35
|   |   |   |   |   |   |   |   |   |   |   |   |   |   |   |   pixel347 <= 49
|   |   |   |   |   |   |   |   |   |   |   |   |   |   |   |   |   pixel609 <= 16
|   |   |   |   |   |   |   |   |   |   |   |   |   |   |   |   |   |   pixel130 <= 127
|   |   |   |   |   |   |   |   |   |   |   |   |   |   |   |   |   |   |   pixel124 <= 14
|   |   |   |   |   |   |   |   |   |   |   |   |   |   |   |   |   |   |   |   pixel248 <= 15
|   |   |   |   |   |   |   |   |   |   |   |   |   |   |   |   |   |   |   |   |   pixel329 <= 231: 7 (81.0/2.0)
|   |   |   |   |   |   |   |   |   |   |   |   |   |   |   |   |   |   |   |   |   pixel329 > 231: 8 (2.0)
|   |   |   |   |   |   |   |   |   |   |   |   |   |   |   |   |   |   |   |   pixel248 > 15: 8 (2.0)
|   |   |   |   |   |   |   |   |   |   |   |   |   |   |   |   |   |   |   pixel124 > 14
|   |   |   |   |   |   |   |   |   |   |   |   |   |   |   |   |   |   |   |   pixel239 <= 75: 8 (3.0)
|   |   |   |   |   |   |   |   |   |   |   |   |   |   |   |   |   |   |   |   pixel239 > 75: 2 (2.0/1.0)
|   |   |   |   |   |   |   |   |   |   |   |   |   |   |   |   |   |   pixel130 > 127: 4 (2.0/1.0)
|   |   |   |   |   |   |   |   |   |   |   |   |   |   |   |   |   pixel609 > 16: 3 (3.0/1.0)
|   |   |   |   |   |   |   |   |   |   |   |   |   |   |   |   pixel347 > 49: 3 (2.0/1.0)
|   |   |   |   |   |   |   |   |   |   |   |   |   |   |   pixel539 > 35: 2 (10.0/1.0)
|   |   |   |   |   |   |   |   |   |   |   |   |   |   pixel378 > 195
|   |   |   |   |   |   |   |   |   |   |   |   |   |   |   pixel322 <= 208: 3 (18.0/4.0)
|   |   |   |   |   |   |   |   |   |   |   |   |   |   |   pixel322 > 208
|   |   |   |   |   |   |   |   |   |   |   |   |   |   |   |   pixel404 <= 66
|   |   |   |   |   |   |   |   |   |   |   |   |   |   |   |   |   pixel185 <= 105: 1 (3.0)
|   |   |   |   |   |   |   |   |   |   |   |   |   |   |   |   |   pixel185 > 105: 8 (7.0/1.0)
|   |   |   |   |   |   |   |   |   |   |   |   |   |   |   |   pixel404 > 66: 5 (2.0/1.0)
|   |   |   |   |   |   |   |   |   |   |   |   |   pixel554 > 62
|   |   |   |   |   |   |   |   |   |   |   |   |   |   pixel257 <= 23: 2 (20.0/2.0)
|   |   |   |   |   |   |   |   |   |   |   |   |   |   pixel257 > 23: 3 (3.0)
|   |   |   |   |   |   |   |   |   |   |   pixel473 > 5: 2 (29.0/3.0)
|   |   |   |   |   |   |   |   |   |   pixel612 > 64: 2 (22.0)
|   |   |   |   |   |   |   |   |   pixel103 > 9
|   |   |   |   |   |   |   |   |   |   pixel128 <= 21: 6 (17.0)
|   |   |   |   |   |   |   |   |   |   pixel128 > 21: 3 (2.0/1.0)
|   |   |   |   |   |   |   pixel529 > 1: 2 (234.0/5.0)
|   |   |   |   |   pixel348 > 1
|   |   |   |   |   |   pixel104 <= 1
|   |   |   |   |   |   |   pixel488 <= 1
|   |   |   |   |   |   |   |   pixel344 <= 6
|   |   |   |   |   |   |   |   |   pixel491 <= 63
|   |   |   |   |   |   |   |   |   |   pixel458 <= 181
|   |   |   |   |   |   |   |   |   |   |   pixel489 <= 88
|   |   |   |   |   |   |   |   |   |   |   |   pixel744 <= 8
|   |   |   |   |   |   |   |   |   |   |   |   |   pixel292 <= 92
|   |   |   |   |   |   |   |   |   |   |   |   |   |   pixel221 <= 2
|   |   |   |   |   |   |   |   |   |   |   |   |   |   |   pixel345 <= 2
|   |   |   |   |   |   |   |   |   |   |   |   |   |   |   |   pixel305 <= 4
|   |   |   |   |   |   |   |   |   |   |   |   |   |   |   |   |   pixel318 <= 81
|   |   |   |   |   |   |   |   |   |   |   |   |   |   |   |   |   |   pixel136 <= 1
|   |   |   |   |   |   |   |   |   |   |   |   |   |   |   |   |   |   |   pixel319 <= 209
|   |   |   |   |   |   |   |   |   |   |   |   |   |   |   |   |   |   |   |   pixel220 <= 3: 3 (862.0/37.0)
|   |   |   |   |   |   |   |   |   |   |   |   |   |   |   |   |   |   |   |   pixel220 > 3
|   |   |   |   |   |   |   |   |   |   |   |   |   |   |   |   |   |   |   |   |   pixel328 <= 5: 5 (9.0)
|   |   |   |   |   |   |   |   |   |   |   |   |   |   |   |   |   |   |   |   |   pixel328 > 5: 3 (7.0)
|   |   |   |   |   |   |   |   |   |   |   |   |   |   |   |   |   |   |   pixel319 > 209
|   |   |   |   |   |   |   |   |   |   |   |   |   |   |   |   |   |   |   |   pixel432 <= 20
|   |   |   |   |   |   |   |   |   |   |   |   |   |   |   |   |   |   |   |   |   pixel467 <= 10: 9 (5.0/1.0)
|   |   |   |   |   |   |   |   |   |   |   |   |   |   |   |   |   |   |   |   |   pixel467 > 10: 3 (6.0)
|   |   |   |   |   |   |   |   |   |   |   |   |   |   |   |   |   |   |   |   pixel432 > 20: 4 (2.0/1.0)
|   |   |   |   |   |   |   |   |   |   |   |   |   |   |   |   |   |   pixel136 > 1: 5 (9.0/1.0)
|   |   |   |   |   |   |   |   |   |   |   |   |   |   |   |   |   pixel318 > 81
|   |   |   |   |   |   |   |   |   |   |   |   |   |   |   |   |   |   pixel465 <= 136
|   |   |   |   |   |   |   |   |   |   |   |   |   |   |   |   |   |   |   pixel242 <= 4: 5 (14.0)
|   |   |   |   |   |   |   |   |   |   |   |   |   |   |   |   |   |   |   pixel242 > 4: 3 (2.0)
|   |   |   |   |   |   |   |   |   |   |   |   |   |   |   |   |   |   pixel465 > 136
|   |   |   |   |   |   |   |   |   |   |   |   |   |   |   |   |   |   |   pixel211 <= 3: 4 (4.0/1.0)
|   |   |   |   |   |   |   |   |   |   |   |   |   |   |   |   |   |   |   pixel211 > 3: 9 (6.0/1.0)
|   |   |   |   |   |   |   |   |   |   |   |   |   |   |   |   pixel305 > 4: 5 (10.0)
|   |   |   |   |   |   |   |   |   |   |   |   |   |   |   pixel345 > 2: 5 (16.0/5.0)
|   |   |   |   |   |   |   |   |   |   |   |   |   |   pixel221 > 2: 5 (39.0/1.0)
|   |   |   |   |   |   |   |   |   |   |   |   |   pixel292 > 92
|   |   |   |   |   |   |   |   |   |   |   |   |   |   pixel487 <= 127
|   |   |   |   |   |   |   |   |   |   |   |   |   |   |   pixel288 <= 252
|   |   |   |   |   |   |   |   |   |   |   |   |   |   |   |   pixel121 <= 52
|   |   |   |   |   |   |   |   |   |   |   |   |   |   |   |   |   pixel714 <= 4
|   |   |   |   |   |   |   |   |   |   |   |   |   |   |   |   |   |   pixel717 <= 28
|   |   |   |   |   |   |   |   |   |   |   |   |   |   |   |   |   |   |   pixel175 <= 43
|   |   |   |   |   |   |   |   |   |   |   |   |   |   |   |   |   |   |   |   pixel296 <= 235
|   |   |   |   |   |   |   |   |   |   |   |   |   |   |   |   |   |   |   |   |   pixel463 <= 240
|   |   |   |   |   |   |   |   |   |   |   |   |   |   |   |   |   |   |   |   |   |   pixel298 <= 85
|   |   |   |   |   |   |   |   |   |   |   |   |   |   |   |   |   |   |   |   |   |   |   pixel301 <= 52
|   |   |   |   |   |   |   |   |   |   |   |   |   |   |   |   |   |   |   |   |   |   |   |   pixel98 <= 26
|   |   |   |   |   |   |   |   |   |   |   |   |   |   |   |   |   |   |   |   |   |   |   |   |   pixel297 <= 154
|   |   |   |   |   |   |   |   |   |   |   |   |   |   |   |   |   |   |   |   |   |   |   |   |   |   pixel299 <= 86
|   |   |   |   |   |   |   |   |   |   |   |   |   |   |   |   |   |   |   |   |   |   |   |   |   |   |   pixel402 <= 5
|   |   |   |   |   |   |   |   |   |   |   |   |   |   |   |   |   |   |   |   |   |   |   |   |   |   |   |   pixel122 <= 7
|   |   |   |   |   |   |   |   |   |   |   |   |   |   |   |   |   |   |   |   |   |   |   |   |   |   |   |   |   pixel176 <= 53
|   |   |   |   |   |   |   |   |   |   |   |   |   |   |   |   |   |   |   |   |   |   |   |   |   |   |   |   |   |   pixel416 <= 9
|   |   |   |   |   |   |   |   |   |   |   |   |   |   |   |   |   |   |   |   |   |   |   |   |   |   |   |   |   |   |   pixel297 <= 84
|   |   |   |   |   |   |   |   |   |   |   |   |   |   |   |   |   |   |   |   |   |   |   |   |   |   |   |   |   |   |   |   pixel187 <= 1
|   |   |   |   |   |   |   |   |   |   |   |   |   |   |   |   |   |   |   |   |   |   |   |   |   |   |   |   |   |   |   |   |   pixel630 <= 252: 5 (40.0)
|   |   |   |   |   |   |   |   |   |   |   |   |   |   |   |   |   |   |   |   |   |   |   |   |   |   |   |   |   |   |   |   |   pixel630 > 252
|   |   |   |   |   |   |   |   |   |   |   |   |   |   |   |   |   |   |   |   |   |   |   |   |   |   |   |   |   |   |   |   |   |   pixel239 <= 41: 5 (10.0/1.0)
|   |   |   |   |   |   |   |   |   |   |   |   |   |   |   |   |   |   |   |   |   |   |   |   |   |   |   |   |   |   |   |   |   |   pixel239 > 41: 3 (4.0)
|   |   |   |   |   |   |   |   |   |   |   |   |   |   |   |   |   |   |   |   |   |   |   |   |   |   |   |   |   |   |   |   pixel187 > 1: 5 (196.0/1.0)
|   |   |   |   |   |   |   |   |   |   |   |   |   |   |   |   |   |   |   |   |   |   |   |   |   |   |   |   |   |   |   pixel297 > 84: 5 (15.0/4.0)
|   |   |   |   |   |   |   |   |   |   |   |   |   |   |   |   |   |   |   |   |   |   |   |   |   |   |   |   |   |   pixel416 > 9: 5 (3.0/1.0)
|   |   |   |   |   |   |   |   |   |   |   |   |   |   |   |   |   |   |   |   |   |   |   |   |   |   |   |   |   pixel176 > 53: 3 (4.0/2.0)
|   |   |   |   |   |   |   |   |   |   |   |   |   |   |   |   |   |   |   |   |   |   |   |   |   |   |   |   pixel122 > 7
|   |   |   |   |   |   |   |   |   |   |   |   |   |   |   |   |   |   |   |   |   |   |   |   |   |   |   |   |   pixel239 <= 106: 5 (7.0)
|   |   |   |   |   |   |   |   |   |   |   |   |   |   |   |   |   |   |   |   |   |   |   |   |   |   |   |   |   pixel239 > 106: 3 (6.0)
|   |   |   |   |   |   |   |   |   |   |   |   |   |   |   |   |   |   |   |   |   |   |   |   |   |   |   pixel402 > 5: 5 (4.0/1.0)
|   |   |   |   |   |   |   |   |   |   |   |   |   |   |   |   |   |   |   |   |   |   |   |   |   |   pixel299 > 86: 4 (3.0/2.0)
|   |   |   |   |   |   |   |   |   |   |   |   |   |   |   |   |   |   |   |   |   |   |   |   |   pixel297 > 154: 4 (3.0/1.0)
|   |   |   |   |   |   |   |   |   |   |   |   |   |   |   |   |   |   |   |   |   |   |   |   pixel98 > 26: 3 (3.0/1.0)
|   |   |   |   |   |   |   |   |   |   |   |   |   |   |   |   |   |   |   |   |   |   |   pixel301 > 52
|   |   |   |   |   |   |   |   |   |   |   |   |   |   |   |   |   |   |   |   |   |   |   |   pixel190 <= 45: 9 (2.0)
|   |   |   |   |   |   |   |   |   |   |   |   |   |   |   |   |   |   |   |   |   |   |   |   pixel190 > 45: 3 (2.0)
|   |   |   |   |   |   |   |   |   |   |   |   |   |   |   |   |   |   |   |   |   |   pixel298 > 85
|   |   |   |   |   |   |   |   |   |   |   |   |   |   |   |   |   |   |   |   |   |   |   pixel354 <= 60: 5 (10.0)
|   |   |   |   |   |   |   |   |   |   |   |   |   |   |   |   |   |   |   |   |   |   |   pixel354 > 60
|   |   |   |   |   |   |   |   |   |   |   |   |   |   |   |   |   |   |   |   |   |   |   |   pixel657 <= 32: 4 (5.0)
|   |   |   |   |   |   |   |   |   |   |   |   |   |   |   |   |   |   |   |   |   |   |   |   pixel657 > 32
|   |   |   |   |   |   |   |   |   |   |   |   |   |   |   |   |   |   |   |   |   |   |   |   |   pixel551 <= 128: 9 (15.0/1.0)
|   |   |   |   |   |   |   |   |   |   |   |   |   |   |   |   |   |   |   |   |   |   |   |   |   pixel551 > 128: 3 (10.0/1.0)
|   |   |   |   |   |   |   |   |   |   |   |   |   |   |   |   |   |   |   |   |   pixel463 > 240: 4 (4.0/2.0)
|   |   |   |   |   |   |   |   |   |   |   |   |   |   |   |   |   |   |   |   pixel296 > 235
|   |   |   |   |   |   |   |   |   |   |   |   |   |   |   |   |   |   |   |   |   pixel691 <= 30
|   |   |   |   |   |   |   |   |   |   |   |   |   |   |   |   |   |   |   |   |   |   pixel358 <= 137
|   |   |   |   |   |   |   |   |   |   |   |   |   |   |   |   |   |   |   |   |   |   |   pixel248 <= 121
|   |   |   |   |   |   |   |   |   |   |   |   |   |   |   |   |   |   |   |   |   |   |   |   pixel164 <= 112
|   |   |   |   |   |   |   |   |   |   |   |   |   |   |   |   |   |   |   |   |   |   |   |   |   pixel346 <= 132
|   |   |   |   |   |   |   |   |   |   |   |   |   |   |   |   |   |   |   |   |   |   |   |   |   |   pixel131 <= 153
|   |   |   |   |   |   |   |   |   |   |   |   |   |   |   |   |   |   |   |   |   |   |   |   |   |   |   pixel295 <= 210
|   |   |   |   |   |   |   |   |   |   |   |   |   |   |   |   |   |   |   |   |   |   |   |   |   |   |   |   pixel266 <= 25: 9 (3.0)
|   |   |   |   |   |   |   |   |   |   |   |   |   |   |   |   |   |   |   |   |   |   |   |   |   |   |   |   pixel266 > 25: 3 (2.0)
|   |   |   |   |   |   |   |   |   |   |   |   |   |   |   |   |   |   |   |   |   |   |   |   |   |   |   pixel295 > 210: 3 (36.0/1.0)
|   |   |   |   |   |   |   |   |   |   |   |   |   |   |   |   |   |   |   |   |   |   |   |   |   |   pixel131 > 153
|   |   |   |   |   |   |   |   |   |   |   |   |   |   |   |   |   |   |   |   |   |   |   |   |   |   |   pixel245 <= 20: 5 (4.0)
|   |   |   |   |   |   |   |   |   |   |   |   |   |   |   |   |   |   |   |   |   |   |   |   |   |   |   pixel245 > 20: 3 (2.0)
|   |   |   |   |   |   |   |   |   |   |   |   |   |   |   |   |   |   |   |   |   |   |   |   |   pixel346 > 132: 1 (2.0/1.0)
|   |   |   |   |   |   |   |   |   |   |   |   |   |   |   |   |   |   |   |   |   |   |   |   pixel164 > 112: 5 (3.0)
|   |   |   |   |   |   |   |   |   |   |   |   |   |   |   |   |   |   |   |   |   |   |   pixel248 > 121: 5 (5.0)
|   |   |   |   |   |   |   |   |   |   |   |   |   |   |   |   |   |   |   |   |   |   pixel358 > 137: 2 (2.0/1.0)
|   |   |   |   |   |   |   |   |   |   |   |   |   |   |   |   |   |   |   |   |   pixel691 > 30: 4 (2.0/1.0)
|   |   |   |   |   |   |   |   |   |   |   |   |   |   |   |   |   |   |   pixel175 > 43: 3 (16.0/1.0)
|   |   |   |   |   |   |   |   |   |   |   |   |   |   |   |   |   |   pixel717 > 28
|   |   |   |   |   |   |   |   |   |   |   |   |   |   |   |   |   |   |   pixel183 <= 61: 4 (5.0/1.0)
|   |   |   |   |   |   |   |   |   |   |   |   |   |   |   |   |   |   |   pixel183 > 61: 9 (4.0)
|   |   |   |   |   |   |   |   |   |   |   |   |   |   |   |   |   pixel714 > 4
|   |   |   |   |   |   |   |   |   |   |   |   |   |   |   |   |   |   pixel690 <= 11
|   |   |   |   |   |   |   |   |   |   |   |   |   |   |   |   |   |   |   pixel380 <= 4: 7 (6.0)
|   |   |   |   |   |   |   |   |   |   |   |   |   |   |   |   |   |   |   pixel380 > 4
|   |   |   |   |   |   |   |   |   |   |   |   |   |   |   |   |   |   |   |   pixel494 <= 247: 9 (15.0)
|   |   |   |   |   |   |   |   |   |   |   |   |   |   |   |   |   |   |   |   pixel494 > 247: 5 (5.0)
|   |   |   |   |   |   |   |   |   |   |   |   |   |   |   |   |   |   pixel690 > 11: 3 (5.0)
|   |   |   |   |   |   |   |   |   |   |   |   |   |   |   |   pixel121 > 52: 3 (27.0/1.0)
|   |   |   |   |   |   |   |   |   |   |   |   |   |   |   pixel288 > 252: 7 (7.0)
|   |   |   |   |   |   |   |   |   |   |   |   |   |   pixel487 > 127
|   |   |   |   |   |   |   |   |   |   |   |   |   |   |   pixel375 <= 2: 8 (4.0)
|   |   |   |   |   |   |   |   |   |   |   |   |   |   |   pixel375 > 2: 0 (2.0/1.0)
|   |   |   |   |   |   |   |   |   |   |   |   pixel744 > 8
|   |   |   |   |   |   |   |   |   |   |   |   |   pixel355 <= 150: 9 (12.0/1.0)
|   |   |   |   |   |   |   |   |   |   |   |   |   pixel355 > 150: 7 (8.0)
|   |   |   |   |   |   |   |   |   |   |   pixel489 > 88
|   |   |   |   |   |   |   |   |   |   |   |   pixel460 <= 20
|   |   |   |   |   |   |   |   |   |   |   |   |   pixel627 <= 36: 8 (16.0)
|   |   |   |   |   |   |   |   |   |   |   |   |   pixel627 > 36: 5 (2.0/1.0)
|   |   |   |   |   |   |   |   |   |   |   |   pixel460 > 20: 8 (2.0/1.0)
|   |   |   |   |   |   |   |   |   |   pixel458 > 181
|   |   |   |   |   |   |   |   |   |   |   pixel380 <= 8: 0 (33.0/13.0)
|   |   |   |   |   |   |   |   |   |   |   pixel380 > 8: 8 (53.0/15.0)
|   |   |   |   |   |   |   |   |   pixel491 > 63
|   |   |   |   |   |   |   |   |   |   pixel354 <= 1
|   |   |   |   |   |   |   |   |   |   |   pixel219 <= 0
|   |   |   |   |   |   |   |   |   |   |   |   pixel715 <= 69
|   |   |   |   |   |   |   |   |   |   |   |   |   pixel379 <= 197
|   |   |   |   |   |   |   |   |   |   |   |   |   |   pixel441 <= 7
|   |   |   |   |   |   |   |   |   |   |   |   |   |   |   pixel409 <= 15
|   |   |   |   |   |   |   |   |   |   |   |   |   |   |   |   pixel486 <= 196
|   |   |   |   |   |   |   |   |   |   |   |   |   |   |   |   |   pixel383 <= 54
|   |   |   |   |   |   |   |   |   |   |   |   |   |   |   |   |   |   pixel97 <= 9
|   |   |   |   |   |   |   |   |   |   |   |   |   |   |   |   |   |   |   pixel150 <= 4
|   |   |   |   |   |   |   |   |   |   |   |   |   |   |   |   |   |   |   |   pixel353 <= 9
|   |   |   |   |   |   |   |   |   |   |   |   |   |   |   |   |   |   |   |   |   pixel690 <= 107
|   |   |   |   |   |   |   |   |   |   |   |   |   |   |   |   |   |   |   |   |   |   pixel126 <= 71: 5 (51.0/2.0)
|   |   |   |   |   |   |   |   |   |   |   |   |   |   |   |   |   |   |   |   |   |   pixel126 > 71: 1 (3.0/1.0)
|   |   |   |   |   |   |   |   |   |   |   |   |   |   |   |   |   |   |   |   |   pixel690 > 107: 1 (3.0/1.0)
|   |   |   |   |   |   |   |   |   |   |   |   |   |   |   |   |   |   |   |   pixel353 > 9: 3 (3.0)
|   |   |   |   |   |   |   |   |   |   |   |   |   |   |   |   |   |   |   pixel150 > 4: 3 (9.0)
|   |   |   |   |   |   |   |   |   |   |   |   |   |   |   |   |   |   pixel97 > 9: 1 (2.0)
|   |   |   |   |   |   |   |   |   |   |   |   |   |   |   |   |   pixel383 > 54: 8 (2.0)
|   |   |   |   |   |   |   |   |   |   |   |   |   |   |   |   pixel486 > 196: 8 (4.0/1.0)
|   |   |   |   |   |   |   |   |   |   |   |   |   |   |   pixel409 > 15
|   |   |   |   |   |   |   |   |   |   |   |   |   |   |   |   pixel266 <= 25: 8 (7.0)
|   |   |   |   |   |   |   |   |   |   |   |   |   |   |   |   pixel266 > 25: 9 (6.0/2.0)
|   |   |   |   |   |   |   |   |   |   |   |   |   |   pixel441 > 7: 6 (3.0/1.0)
|   |   |   |   |   |   |   |   |   |   |   |   |   pixel379 > 197
|   |   |   |   |   |   |   |   |   |   |   |   |   |   pixel713 <= 1
|   |   |   |   |   |   |   |   |   |   |   |   |   |   |   pixel189 <= 88
|   |   |   |   |   |   |   |   |   |   |   |   |   |   |   |   pixel249 <= 12
|   |   |   |   |   |   |   |   |   |   |   |   |   |   |   |   |   pixel597 <= 77: 1 (97.0/19.0)
|   |   |   |   |   |   |   |   |   |   |   |   |   |   |   |   |   pixel597 > 77: 3 (2.0)
|   |   |   |   |   |   |   |   |   |   |   |   |   |   |   |   pixel249 > 12: 5 (2.0)
|   |   |   |   |   |   |   |   |   |   |   |   |   |   |   pixel189 > 88: 5 (3.0)
|   |   |   |   |   |   |   |   |   |   |   |   |   |   pixel713 > 1: 9 (2.0)
|   |   |   |   |   |   |   |   |   |   |   |   pixel715 > 69
|   |   |   |   |   |   |   |   |   |   |   |   |   pixel635 <= 113: 9 (9.0/2.0)
|   |   |   |   |   |   |   |   |   |   |   |   |   pixel635 > 113: 3 (3.0)
|   |   |   |   |   |   |   |   |   |   |   pixel219 > 0: 5 (87.0/4.0)
|   |   |   |   |   |   |   |   |   |   pixel354 > 1
|   |   |   |   |   |   |   |   |   |   |   pixel305 <= 0
|   |   |   |   |   |   |   |   |   |   |   |   pixel377 <= 1: 7 (75.0/23.0)
|   |   |   |   |   |   |   |   |   |   |   |   pixel377 > 1
|   |   |   |   |   |   |   |   |   |   |   |   |   pixel606 <= 2
|   |   |   |   |   |   |   |   |   |   |   |   |   |   pixel596 <= 36
|   |   |   |   |   |   |   |   |   |   |   |   |   |   |   pixel213 <= 49
|   |   |   |   |   |   |   |   |   |   |   |   |   |   |   |   pixel268 <= 198
|   |   |   |   |   |   |   |   |   |   |   |   |   |   |   |   |   pixel157 <= 59: 4 (41.0/3.0)
|   |   |   |   |   |   |   |   |   |   |   |   |   |   |   |   |   pixel157 > 59: 8 (8.0/2.0)
|   |   |   |   |   |   |   |   |   |   |   |   |   |   |   |   pixel268 > 198: 1 (2.0/1.0)
|   |   |   |   |   |   |   |   |   |   |   |   |   |   |   pixel213 > 49: 9 (175.0/44.0)
|   |   |   |   |   |   |   |   |   |   |   |   |   |   pixel596 > 36
|   |   |   |   |   |   |   |   |   |   |   |   |   |   |   pixel136 <= 12
|   |   |   |   |   |   |   |   |   |   |   |   |   |   |   |   pixel484 <= 9: 3 (17.0/5.0)
|   |   |   |   |   |   |   |   |   |   |   |   |   |   |   |   pixel484 > 9: 8 (7.0)
|   |   |   |   |   |   |   |   |   |   |   |   |   |   |   pixel136 > 12: 5 (3.0/1.0)
|   |   |   |   |   |   |   |   |   |   |   |   |   pixel606 > 2
|   |   |   |   |   |   |   |   |   |   |   |   |   |   pixel97 <= 17
|   |   |   |   |   |   |   |   |   |   |   |   |   |   |   pixel441 <= 11
|   |   |   |   |   |   |   |   |   |   |   |   |   |   |   |   pixel320 <= 54: 3 (13.0/3.0)
|   |   |   |   |   |   |   |   |   |   |   |   |   |   |   |   pixel320 > 54
|   |   |   |   |   |   |   |   |   |   |   |   |   |   |   |   |   pixel295 <= 215: 8 (66.0/1.0)
|   |   |   |   |   |   |   |   |   |   |   |   |   |   |   |   |   pixel295 > 215: 1 (5.0/2.0)
|   |   |   |   |   |   |   |   |   |   |   |   |   |   |   pixel441 > 11: 4 (3.0/1.0)
|   |   |   |   |   |   |   |   |   |   |   |   |   |   pixel97 > 17: 1 (2.0/1.0)
|   |   |   |   |   |   |   |   |   |   |   pixel305 > 0
|   |   |   |   |   |   |   |   |   |   |   |   pixel209 <= 1: 5 (11.0)
|   |   |   |   |   |   |   |   |   |   |   |   pixel209 > 1: 8 (4.0)
|   |   |   |   |   |   |   |   pixel344 > 6
|   |   |   |   |   |   |   |   |   pixel181 <= 11
|   |   |   |   |   |   |   |   |   |   pixel541 <= 8: 7 (66.0/2.0)
|   |   |   |   |   |   |   |   |   |   pixel541 > 8: 5 (2.0)
|   |   |   |   |   |   |   |   |   pixel181 > 11
|   |   |   |   |   |   |   |   |   |   pixel299 <= 121
|   |   |   |   |   |   |   |   |   |   |   pixel268 <= 170: 5 (15.0/1.0)
|   |   |   |   |   |   |   |   |   |   |   pixel268 > 170: 3 (2.0)
|   |   |   |   |   |   |   |   |   |   pixel299 > 121: 8 (2.0)
|   |   |   |   |   |   |   pixel488 > 1
|   |   |   |   |   |   |   |   pixel70 <= 1
|   |   |   |   |   |   |   |   |   pixel557 <= 2
|   |   |   |   |   |   |   |   |   |   pixel435 <= 27
|   |   |   |   |   |   |   |   |   |   |   pixel134 <= 166
|   |   |   |   |   |   |   |   |   |   |   |   pixel99 <= 4
|   |   |   |   |   |   |   |   |   |   |   |   |   pixel380 <= 47
|   |   |   |   |   |   |   |   |   |   |   |   |   |   pixel178 <= 112
|   |   |   |   |   |   |   |   |   |   |   |   |   |   |   pixel404 <= 6: 2 (16.0/5.0)
|   |   |   |   |   |   |   |   |   |   |   |   |   |   |   pixel404 > 6
|   |   |   |   |   |   |   |   |   |   |   |   |   |   |   |   pixel715 <= 3
|   |   |   |   |   |   |   |   |   |   |   |   |   |   |   |   |   pixel439 <= 3
|   |   |   |   |   |   |   |   |   |   |   |   |   |   |   |   |   |   pixel437 <= 50
|   |   |   |   |   |   |   |   |   |   |   |   |   |   |   |   |   |   |   pixel357 <= 69: 5 (45.0/12.0)
|   |   |   |   |   |   |   |   |   |   |   |   |   |   |   |   |   |   |   pixel357 > 69: 0 (2.0/1.0)
|   |   |   |   |   |   |   |   |   |   |   |   |   |   |   |   |   |   pixel437 > 50: 4 (12.0/8.0)
|   |   |   |   |   |   |   |   |   |   |   |   |   |   |   |   |   pixel439 > 3
|   |   |   |   |   |   |   |   |   |   |   |   |   |   |   |   |   |   pixel233 <= 29
|   |   |   |   |   |   |   |   |   |   |   |   |   |   |   |   |   |   |   pixel628 <= 9
|   |   |   |   |   |   |   |   |   |   |   |   |   |   |   |   |   |   |   |   pixel601 <= 3: 4 (17.0/1.0)
|   |   |   |   |   |   |   |   |   |   |   |   |   |   |   |   |   |   |   |   pixel601 > 3
|   |   |   |   |   |   |   |   |   |   |   |   |   |   |   |   |   |   |   |   |   pixel216 <= 48
|   |   |   |   |   |   |   |   |   |   |   |   |   |   |   |   |   |   |   |   |   |   pixel154 <= 24: 6 (2.0)
|   |   |   |   |   |   |   |   |   |   |   |   |   |   |   |   |   |   |   |   |   |   pixel154 > 24: 0 (2.0)
|   |   |   |   |   |   |   |   |   |   |   |   |   |   |   |   |   |   |   |   |   pixel216 > 48: 5 (2.0/1.0)
|   |   |   |   |   |   |   |   |   |   |   |   |   |   |   |   |   |   |   pixel628 > 9
|   |   |   |   |   |   |   |   |   |   |   |   |   |   |   |   |   |   |   |   pixel463 <= 135: 0 (83.0/5.0)
|   |   |   |   |   |   |   |   |   |   |   |   |   |   |   |   |   |   |   |   pixel463 > 135: 6 (3.0/1.0)
|   |   |   |   |   |   |   |   |   |   |   |   |   |   |   |   |   |   pixel233 > 29: 5 (3.0/1.0)
|   |   |   |   |   |   |   |   |   |   |   |   |   |   |   |   pixel715 > 3: 9 (5.0/3.0)
|   |   |   |   |   |   |   |   |   |   |   |   |   |   pixel178 > 112: 3 (16.0/8.0)
|   |   |   |   |   |   |   |   |   |   |   |   |   pixel380 > 47
|   |   |   |   |   |   |   |   |   |   |   |   |   |   pixel511 <= 194
|   |   |   |   |   |   |   |   |   |   |   |   |   |   |   pixel463 <= 240
|   |   |   |   |   |   |   |   |   |   |   |   |   |   |   |   pixel250 <= 77: 8 (124.0/56.0)
|   |   |   |   |   |   |   |   |   |   |   |   |   |   |   |   pixel250 > 77: 5 (5.0)
|   |   |   |   |   |   |   |   |   |   |   |   |   |   |   pixel463 > 240: 4 (2.0)
|   |   |   |   |   |   |   |   |   |   |   |   |   |   pixel511 > 194: 5 (11.0/1.0)
|   |   |   |   |   |   |   |   |   |   |   |   pixel99 > 4: 6 (19.0/4.0)
|   |   |   |   |   |   |   |   |   |   |   pixel134 > 166: 6 (20.0/3.0)
|   |   |   |   |   |   |   |   |   |   pixel435 > 27
|   |   |   |   |   |   |   |   |   |   |   pixel98 <= 3
|   |   |   |   |   |   |   |   |   |   |   |   pixel527 <= 1
|   |   |   |   |   |   |   |   |   |   |   |   |   pixel295 <= 180
|   |   |   |   |   |   |   |   |   |   |   |   |   |   pixel320 <= 0
|   |   |   |   |   |   |   |   |   |   |   |   |   |   |   pixel78 <= 30
|   |   |   |   |   |   |   |   |   |   |   |   |   |   |   |   pixel165 <= 59
|   |   |   |   |   |   |   |   |   |   |   |   |   |   |   |   |   pixel135 <= 7
|   |   |   |   |   |   |   |   |   |   |   |   |   |   |   |   |   |   pixel584 <= 5
|   |   |   |   |   |   |   |   |   |   |   |   |   |   |   |   |   |   |   pixel181 <= 61
|   |   |   |   |   |   |   |   |   |   |   |   |   |   |   |   |   |   |   |   pixel509 <= 13
|   |   |   |   |   |   |   |   |   |   |   |   |   |   |   |   |   |   |   |   |   pixel406 <= 105: 4 (2.0)
|   |   |   |   |   |   |   |   |   |   |   |   |   |   |   |   |   |   |   |   |   pixel406 > 105: 8 (14.0/4.0)
|   |   |   |   |   |   |   |   |   |   |   |   |   |   |   |   |   |   |   |   pixel509 > 13: 3 (2.0)
|   |   |   |   |   |   |   |   |   |   |   |   |   |   |   |   |   |   |   pixel181 > 61: 3 (22.0/2.0)
|   |   |   |   |   |   |   |   |   |   |   |   |   |   |   |   |   |   pixel584 > 5: 2 (4.0)
|   |   |   |   |   |   |   |   |   |   |   |   |   |   |   |   |   pixel135 > 7: 1 (2.0/1.0)
|   |   |   |   |   |   |   |   |   |   |   |   |   |   |   |   pixel165 > 59: 4 (2.0/1.0)
|   |   |   |   |   |   |   |   |   |   |   |   |   |   |   pixel78 > 30: 6 (2.0)
|   |   |   |   |   |   |   |   |   |   |   |   |   |   pixel320 > 0
|   |   |   |   |   |   |   |   |   |   |   |   |   |   |   pixel402 <= 1
|   |   |   |   |   |   |   |   |   |   |   |   |   |   |   |   pixel406 <= 25
|   |   |   |   |   |   |   |   |   |   |   |   |   |   |   |   |   pixel635 <= 237
|   |   |   |   |   |   |   |   |   |   |   |   |   |   |   |   |   |   pixel650 <= 1
|   |   |   |   |   |   |   |   |   |   |   |   |   |   |   |   |   |   |   pixel544 <= 3
|   |   |   |   |   |   |   |   |   |   |   |   |   |   |   |   |   |   |   |   pixel551 <= 76
|   |   |   |   |   |   |   |   |   |   |   |   |   |   |   |   |   |   |   |   |   pixel468 <= 24
|   |   |   |   |   |   |   |   |   |   |   |   |   |   |   |   |   |   |   |   |   |   pixel130 <= 17
|   |   |   |   |   |   |   |   |   |   |   |   |   |   |   |   |   |   |   |   |   |   |   pixel412 <= 26
|   |   |   |   |   |   |   |   |   |   |   |   |   |   |   |   |   |   |   |   |   |   |   |   pixel240 <= 27: 4 (2.0)
|   |   |   |   |   |   |   |   |   |   |   |   |   |   |   |   |   |   |   |   |   |   |   |   pixel240 > 27: 9 (12.0)
|   |   |   |   |   |   |   |   |   |   |   |   |   |   |   |   |   |   |   |   |   |   |   pixel412 > 26: 4 (2.0)
|   |   |   |   |   |   |   |   |   |   |   |   |   |   |   |   |   |   |   |   |   |   pixel130 > 17: 4 (2.0/1.0)
|   |   |   |   |   |   |   |   |   |   |   |   |   |   |   |   |   |   |   |   |   pixel468 > 24: 7 (2.0)
|   |   |   |   |   |   |   |   |   |   |   |   |   |   |   |   |   |   |   |   pixel551 > 76: 5 (5.0)
|   |   |   |   |   |   |   |   |   |   |   |   |   |   |   |   |   |   |   pixel544 > 3: 8 (47.0/18.0)
|   |   |   |   |   |   |   |   |   |   |   |   |   |   |   |   |   |   pixel650 > 1: 2 (3.0/1.0)
|   |   |   |   |   |   |   |   |   |   |   |   |   |   |   |   |   pixel635 > 237: 2 (7.0)
|   |   |   |   |   |   |   |   |   |   |   |   |   |   |   |   pixel406 > 25
|   |   |   |   |   |   |   |   |   |   |   |   |   |   |   |   |   pixel461 <= 1: 8 (28.0/10.0)
|   |   |   |   |   |   |   |   |   |   |   |   |   |   |   |   |   pixel461 > 1
|   |   |   |   |   |   |   |   |   |   |   |   |   |   |   |   |   |   pixel657 <= 0
|   |   |   |   |   |   |   |   |   |   |   |   |   |   |   |   |   |   |   pixel583 <= 25
|   |   |   |   |   |   |   |   |   |   |   |   |   |   |   |   |   |   |   |   pixel707 <= 51
|   |   |   |   |   |   |   |   |   |   |   |   |   |   |   |   |   |   |   |   |   pixel96 <= 81: 8 (74.0/20.0)
|   |   |   |   |   |   |   |   |   |   |   |   |   |   |   |   |   |   |   |   |   pixel96 > 81: 6 (2.0)
|   |   |   |   |   |   |   |   |   |   |   |   |   |   |   |   |   |   |   |   pixel707 > 51: 9 (4.0)
|   |   |   |   |   |   |   |   |   |   |   |   |   |   |   |   |   |   |   pixel583 > 25: 2 (2.0)
|   |   |   |   |   |   |   |   |   |   |   |   |   |   |   |   |   |   pixel657 > 0
|   |   |   |   |   |   |   |   |   |   |   |   |   |   |   |   |   |   |   pixel441 <= 194
|   |   |   |   |   |   |   |   |   |   |   |   |   |   |   |   |   |   |   |   pixel516 <= 6
|   |   |   |   |   |   |   |   |   |   |   |   |   |   |   |   |   |   |   |   |   pixel486 <= 50: 5 (15.0/4.0)
|   |   |   |   |   |   |   |   |   |   |   |   |   |   |   |   |   |   |   |   |   pixel486 > 50: 8 (70.0/1.0)
|   |   |   |   |   |   |   |   |   |   |   |   |   |   |   |   |   |   |   |   pixel516 > 6
|   |   |   |   |   |   |   |   |   |   |   |   |   |   |   |   |   |   |   |   |   pixel497 <= 185
|   |   |   |   |   |   |   |   |   |   |   |   |   |   |   |   |   |   |   |   |   |   pixel638 <= 17: 8 (1029.0/5.0)
|   |   |   |   |   |   |   |   |   |   |   |   |   |   |   |   |   |   |   |   |   |   pixel638 > 17
|   |   |   |   |   |   |   |   |   |   |   |   |   |   |   |   |   |   |   |   |   |   |   pixel548 <= 215: 8 (9.0)
|   |   |   |   |   |   |   |   |   |   |   |   |   |   |   |   |   |   |   |   |   |   |   pixel548 > 215: 2 (2.0)
|   |   |   |   |   |   |   |   |   |   |   |   |   |   |   |   |   |   |   |   |   pixel497 > 185: 8 (19.0/4.0)
|   |   |   |   |   |   |   |   |   |   |   |   |   |   |   |   |   |   |   pixel441 > 194
|   |   |   |   |   |   |   |   |   |   |   |   |   |   |   |   |   |   |   |   pixel519 <= 165
|   |   |   |   |   |   |   |   |   |   |   |   |   |   |   |   |   |   |   |   |   pixel130 <= 75: 8 (7.0)
|   |   |   |   |   |   |   |   |   |   |   |   |   |   |   |   |   |   |   |   |   pixel130 > 75: 5 (2.0)
|   |   |   |   |   |   |   |   |   |   |   |   |   |   |   |   |   |   |   |   pixel519 > 165: 4 (3.0/1.0)
|   |   |   |   |   |   |   |   |   |   |   |   |   |   |   pixel402 > 1
|   |   |   |   |   |   |   |   |   |   |   |   |   |   |   |   pixel378 <= 136
|   |   |   |   |   |   |   |   |   |   |   |   |   |   |   |   |   pixel679 <= 10
|   |   |   |   |   |   |   |   |   |   |   |   |   |   |   |   |   |   pixel260 <= 23
|   |   |   |   |   |   |   |   |   |   |   |   |   |   |   |   |   |   |   pixel714 <= 55
|   |   |   |   |   |   |   |   |   |   |   |   |   |   |   |   |   |   |   |   pixel596 <= 9
|   |   |   |   |   |   |   |   |   |   |   |   |   |   |   |   |   |   |   |   |   pixel578 <= 253: 4 (35.0/1.0)
|   |   |   |   |   |   |   |   |   |   |   |   |   |   |   |   |   |   |   |   |   pixel578 > 253: 5 (2.0)
|   |   |   |   |   |   |   |   |   |   |   |   |   |   |   |   |   |   |   |   pixel596 > 9: 2 (2.0/1.0)
|   |   |   |   |   |   |   |   |   |   |   |   |   |   |   |   |   |   |   pixel714 > 55: 9 (3.0/1.0)
|   |   |   |   |   |   |   |   |   |   |   |   |   |   |   |   |   |   pixel260 > 23: 2 (2.0/1.0)
|   |   |   |   |   |   |   |   |   |   |   |   |   |   |   |   |   pixel679 > 10: 8 (2.0)
|   |   |   |   |   |   |   |   |   |   |   |   |   |   |   |   pixel378 > 136: 8 (30.0/5.0)
|   |   |   |   |   |   |   |   |   |   |   |   |   pixel295 > 180
|   |   |   |   |   |   |   |   |   |   |   |   |   |   pixel377 <= 88
|   |   |   |   |   |   |   |   |   |   |   |   |   |   |   pixel550 <= 76: 7 (25.0/7.0)
|   |   |   |   |   |   |   |   |   |   |   |   |   |   |   pixel550 > 76
|   |   |   |   |   |   |   |   |   |   |   |   |   |   |   |   pixel658 <= 233: 2 (9.0)
|   |   |   |   |   |   |   |   |   |   |   |   |   |   |   |   pixel658 > 233: 8 (8.0/2.0)
|   |   |   |   |   |   |   |   |   |   |   |   |   |   pixel377 > 88
|   |   |   |   |   |   |   |   |   |   |   |   |   |   |   pixel351 <= 240
|   |   |   |   |   |   |   |   |   |   |   |   |   |   |   |   pixel126 <= 186
|   |   |   |   |   |   |   |   |   |   |   |   |   |   |   |   |   pixel431 <= 146
|   |   |   |   |   |   |   |   |   |   |   |   |   |   |   |   |   |   pixel130 <= 110
|   |   |   |   |   |   |   |   |   |   |   |   |   |   |   |   |   |   |   pixel482 <= 5: 8 (61.0/7.0)
|   |   |   |   |   |   |   |   |   |   |   |   |   |   |   |   |   |   |   pixel482 > 5: 5 (3.0)
|   |   |   |   |   |   |   |   |   |   |   |   |   |   |   |   |   |   pixel130 > 110: 6 (4.0)
|   |   |   |   |   |   |   |   |   |   |   |   |   |   |   |   |   pixel431 > 146
|   |   |   |   |   |   |   |   |   |   |   |   |   |   |   |   |   |   pixel593 <= 3
|   |   |   |   |   |   |   |   |   |   |   |   |   |   |   |   |   |   |   pixel233 <= 20
|   |   |   |   |   |   |   |   |   |   |   |   |   |   |   |   |   |   |   |   pixel331 <= 4
|   |   |   |   |   |   |   |   |   |   |   |   |   |   |   |   |   |   |   |   |   pixel301 <= 210
|   |   |   |   |   |   |   |   |   |   |   |   |   |   |   |   |   |   |   |   |   |   pixel326 <= 116
|   |   |   |   |   |   |   |   |   |   |   |   |   |   |   |   |   |   |   |   |   |   |   pixel543 <= 2
|   |   |   |   |   |   |   |   |   |   |   |   |   |   |   |   |   |   |   |   |   |   |   |   pixel108 <= 95
|   |   |   |   |   |   |   |   |   |   |   |   |   |   |   |   |   |   |   |   |   |   |   |   |   pixel627 <= 21: 4 (4.0)
|   |   |   |   |   |   |   |   |   |   |   |   |   |   |   |   |   |   |   |   |   |   |   |   |   pixel627 > 21: 5 (17.0)
|   |   |   |   |   |   |   |   |   |   |   |   |   |   |   |   |   |   |   |   |   |   |   |   pixel108 > 95: 6 (2.0)
|   |   |   |   |   |   |   |   |   |   |   |   |   |   |   |   |   |   |   |   |   |   |   pixel543 > 2: 6 (13.0/1.0)
|   |   |   |   |   |   |   |   |   |   |   |   |   |   |   |   |   |   |   |   |   |   pixel326 > 116: 4 (8.0)
|   |   |   |   |   |   |   |   |   |   |   |   |   |   |   |   |   |   |   |   |   pixel301 > 210: 8 (2.0/1.0)
|   |   |   |   |   |   |   |   |   |   |   |   |   |   |   |   |   |   |   |   pixel331 > 4: 8 (3.0)
|   |   |   |   |   |   |   |   |   |   |   |   |   |   |   |   |   |   |   pixel233 > 20: 3 (2.0/1.0)
|   |   |   |   |   |   |   |   |   |   |   |   |   |   |   |   |   |   pixel593 > 3: 2 (2.0/1.0)
|   |   |   |   |   |   |   |   |   |   |   |   |   |   |   |   pixel126 > 186: 1 (6.0/4.0)
|   |   |   |   |   |   |   |   |   |   |   |   |   |   |   pixel351 > 240
|   |   |   |   |   |   |   |   |   |   |   |   |   |   |   |   pixel123 <= 82
|   |   |   |   |   |   |   |   |   |   |   |   |   |   |   |   |   pixel263 <= 1
|   |   |   |   |   |   |   |   |   |   |   |   |   |   |   |   |   |   pixel711 <= 41
|   |   |   |   |   |   |   |   |   |   |   |   |   |   |   |   |   |   |   pixel468 <= 14
|   |   |   |   |   |   |   |   |   |   |   |   |   |   |   |   |   |   |   |   pixel108 <= 6
|   |   |   |   |   |   |   |   |   |   |   |   |   |   |   |   |   |   |   |   |   pixel165 <= 68
|   |   |   |   |   |   |   |   |   |   |   |   |   |   |   |   |   |   |   |   |   |   pixel455 <= 43
|   |   |   |   |   |   |   |   |   |   |   |   |   |   |   |   |   |   |   |   |   |   |   pixel518 <= 69: 8 (10.0)
|   |   |   |   |   |   |   |   |   |   |   |   |   |   |   |   |   |   |   |   |   |   |   pixel518 > 69
|   |   |   |   |   |   |   |   |   |   |   |   |   |   |   |   |   |   |   |   |   |   |   |   pixel330 <= 48: 1 (94.0/6.0)
|   |   |   |   |   |   |   |   |   |   |   |   |   |   |   |   |   |   |   |   |   |   |   |   pixel330 > 48: 8 (5.0)
|   |   |   |   |   |   |   |   |   |   |   |   |   |   |   |   |   |   |   |   |   |   pixel455 > 43: 5 (2.0)
|   |   |   |   |   |   |   |   |   |   |   |   |   |   |   |   |   |   |   |   |   pixel165 > 68: 5 (2.0)
|   |   |   |   |   |   |   |   |   |   |   |   |   |   |   |   |   |   |   |   pixel108 > 6: 6 (2.0)
|   |   |   |   |   |   |   |   |   |   |   |   |   |   |   |   |   |   |   pixel468 > 14: 6 (5.0/2.0)
|   |   |   |   |   |   |   |   |   |   |   |   |   |   |   |   |   |   pixel711 > 41: 4 (3.0/2.0)
|   |   |   |   |   |   |   |   |   |   |   |   |   |   |   |   |   pixel263 > 1
|   |   |   |   |   |   |   |   |   |   |   |   |   |   |   |   |   |   pixel543 <= 15
|   |   |   |   |   |   |   |   |   |   |   |   |   |   |   |   |   |   |   pixel236 <= 228: 8 (7.0)
|   |   |   |   |   |   |   |   |   |   |   |   |   |   |   |   |   |   |   pixel236 > 228
|   |   |   |   |   |   |   |   |   |   |   |   |   |   |   |   |   |   |   |   pixel546 <= 156: 3 (7.0/1.0)
|   |   |   |   |   |   |   |   |   |   |   |   |   |   |   |   |   |   |   |   pixel546 > 156: 1 (5.0)
|   |   |   |   |   |   |   |   |   |   |   |   |   |   |   |   |   |   pixel543 > 15: 8 (32.0)
|   |   |   |   |   |   |   |   |   |   |   |   |   |   |   |   pixel123 > 82: 3 (5.0/2.0)
|   |   |   |   |   |   |   |   |   |   |   |   pixel527 > 1
|   |   |   |   |   |   |   |   |   |   |   |   |   pixel659 <= 9: 2 (26.0/2.0)
|   |   |   |   |   |   |   |   |   |   |   |   |   pixel659 > 9
|   |   |   |   |   |   |   |   |   |   |   |   |   |   pixel548 <= 90
|   |   |   |   |   |   |   |   |   |   |   |   |   |   |   pixel319 <= 15: 3 (15.0/2.0)
|   |   |   |   |   |   |   |   |   |   |   |   |   |   |   pixel319 > 15: 8 (14.0/1.0)
|   |   |   |   |   |   |   |   |   |   |   |   |   |   pixel548 > 90: 7 (3.0)
|   |   |   |   |   |   |   |   |   |   |   pixel98 > 3: 6 (29.0/3.0)
|   |   |   |   |   |   |   |   |   pixel557 > 2: 2 (40.0)
|   |   |   |   |   |   |   |   pixel70 > 1
|   |   |   |   |   |   |   |   |   pixel528 <= 17: 6 (57.0)
|   |   |   |   |   |   |   |   |   pixel528 > 17: 2 (2.0)
|   |   |   |   |   |   pixel104 > 1
|   |   |   |   |   |   |   pixel325 <= 247
|   |   |   |   |   |   |   |   pixel264 <= 48: 6 (213.0/4.0)
|   |   |   |   |   |   |   |   pixel264 > 48
|   |   |   |   |   |   |   |   |   pixel461 <= 66: 5 (9.0)
|   |   |   |   |   |   |   |   |   pixel461 > 66: 8 (2.0)
|   |   |   |   |   |   |   pixel325 > 247: 3 (7.0/2.0)
|   |   |   |   pixel371 > 3
|   |   |   |   |   pixel597 <= 0
|   |   |   |   |   |   pixel457 <= 1
|   |   |   |   |   |   |   pixel512 <= 108
|   |   |   |   |   |   |   |   pixel430 <= 82
|   |   |   |   |   |   |   |   |   pixel131 <= 13
|   |   |   |   |   |   |   |   |   |   pixel598 <= 126
|   |   |   |   |   |   |   |   |   |   |   pixel376 <= 207
|   |   |   |   |   |   |   |   |   |   |   |   pixel571 <= 103
|   |   |   |   |   |   |   |   |   |   |   |   |   pixel639 <= 69
|   |   |   |   |   |   |   |   |   |   |   |   |   |   pixel406 <= 146
|   |   |   |   |   |   |   |   |   |   |   |   |   |   |   pixel529 <= 26
|   |   |   |   |   |   |   |   |   |   |   |   |   |   |   |   pixel433 <= 82
|   |   |   |   |   |   |   |   |   |   |   |   |   |   |   |   |   pixel583 <= 87: 7 (145.0/1.0)
|   |   |   |   |   |   |   |   |   |   |   |   |   |   |   |   |   pixel583 > 87: 2 (2.0/1.0)
|   |   |   |   |   |   |   |   |   |   |   |   |   |   |   |   pixel433 > 82: 7 (3.0/1.0)
|   |   |   |   |   |   |   |   |   |   |   |   |   |   |   pixel529 > 26: 2 (2.0/1.0)
|   |   |   |   |   |   |   |   |   |   |   |   |   |   pixel406 > 146: 3 (7.0/3.0)
|   |   |   |   |   |   |   |   |   |   |   |   |   pixel639 > 69: 2 (4.0)
|   |   |   |   |   |   |   |   |   |   |   |   pixel571 > 103: 2 (10.0/1.0)
|   |   |   |   |   |   |   |   |   |   |   pixel376 > 207: 3 (4.0/1.0)
|   |   |   |   |   |   |   |   |   |   pixel598 > 126: 0 (5.0/4.0)
|   |   |   |   |   |   |   |   |   pixel131 > 13: 1 (2.0/1.0)
|   |   |   |   |   |   |   |   pixel430 > 82
|   |   |   |   |   |   |   |   |   pixel210 <= 14: 4 (9.0)
|   |   |   |   |   |   |   |   |   pixel210 > 14: 9 (9.0/4.0)
|   |   |   |   |   |   |   pixel512 > 108
|   |   |   |   |   |   |   |   pixel322 <= 4
|   |   |   |   |   |   |   |   |   pixel276 <= 118
|   |   |   |   |   |   |   |   |   |   pixel129 <= 20
|   |   |   |   |   |   |   |   |   |   |   pixel149 <= 51: 9 (27.0/3.0)
|   |   |   |   |   |   |   |   |   |   |   pixel149 > 51: 4 (2.0)
|   |   |   |   |   |   |   |   |   |   pixel129 > 20: 0 (2.0/1.0)
|   |   |   |   |   |   |   |   |   pixel276 > 118: 2 (2.0)
|   |   |   |   |   |   |   |   pixel322 > 4: 5 (3.0)
|   |   |   |   |   |   pixel457 > 1
|   |   |   |   |   |   |   pixel95 <= 5
|   |   |   |   |   |   |   |   pixel211 <= 20
|   |   |   |   |   |   |   |   |   pixel418 <= 3
|   |   |   |   |   |   |   |   |   |   pixel571 <= 37
|   |   |   |   |   |   |   |   |   |   |   pixel267 <= 10
|   |   |   |   |   |   |   |   |   |   |   |   pixel321 <= 55
|   |   |   |   |   |   |   |   |   |   |   |   |   pixel183 <= 37: 4 (220.0/4.0)
|   |   |   |   |   |   |   |   |   |   |   |   |   pixel183 > 37: 9 (6.0/1.0)
|   |   |   |   |   |   |   |   |   |   |   |   pixel321 > 55: 7 (4.0)
|   |   |   |   |   |   |   |   |   |   |   pixel267 > 10
|   |   |   |   |   |   |   |   |   |   |   |   pixel221 <= 34
|   |   |   |   |   |   |   |   |   |   |   |   |   pixel187 <= 35
|   |   |   |   |   |   |   |   |   |   |   |   |   |   pixel458 <= 8: 7 (6.0)
|   |   |   |   |   |   |   |   |   |   |   |   |   |   pixel458 > 8
|   |   |   |   |   |   |   |   |   |   |   |   |   |   |   pixel660 <= 252
|   |   |   |   |   |   |   |   |   |   |   |   |   |   |   |   pixel541 <= 3: 9 (20.0)
|   |   |   |   |   |   |   |   |   |   |   |   |   |   |   |   pixel541 > 3: 7 (2.0/1.0)
|   |   |   |   |   |   |   |   |   |   |   |   |   |   |   pixel660 > 252: 7 (2.0)
|   |   |   |   |   |   |   |   |   |   |   |   |   pixel187 > 35: 4 (2.0)
|   |   |   |   |   |   |   |   |   |   |   |   pixel221 > 34: 5 (5.0)
|   |   |   |   |   |   |   |   |   |   pixel571 > 37
|   |   |   |   |   |   |   |   |   |   |   pixel156 <= 39
|   |   |   |   |   |   |   |   |   |   |   |   pixel119 <= 34: 4 (2.0/1.0)
|   |   |   |   |   |   |   |   |   |   |   |   pixel119 > 34: 6 (2.0)
|   |   |   |   |   |   |   |   |   |   |   pixel156 > 39: 0 (3.0)
|   |   |   |   |   |   |   |   |   pixel418 > 3: 6 (3.0)
|   |   |   |   |   |   |   |   pixel211 > 20
|   |   |   |   |   |   |   |   |   pixel123 <= 18
|   |   |   |   |   |   |   |   |   |   pixel220 <= 212: 9 (415.0/36.0)
|   |   |   |   |   |   |   |   |   |   pixel220 > 212
|   |   |   |   |   |   |   |   |   |   |   pixel243 <= 51: 4 (5.0/1.0)
|   |   |   |   |   |   |   |   |   |   |   pixel243 > 51: 5 (5.0)
|   |   |   |   |   |   |   |   |   pixel123 > 18: 0 (5.0/2.0)
|   |   |   |   |   |   |   pixel95 > 5: 6 (11.0)
|   |   |   |   |   pixel597 > 0
|   |   |   |   |   |   pixel487 <= 71
|   |   |   |   |   |   |   pixel95 <= 1
|   |   |   |   |   |   |   |   pixel681 <= 134
|   |   |   |   |   |   |   |   |   pixel490 <= 9
|   |   |   |   |   |   |   |   |   |   pixel694 <= 57
|   |   |   |   |   |   |   |   |   |   |   pixel406 <= 30
|   |   |   |   |   |   |   |   |   |   |   |   pixel323 <= 218
|   |   |   |   |   |   |   |   |   |   |   |   |   pixel134 <= 42
|   |   |   |   |   |   |   |   |   |   |   |   |   |   pixel434 <= 103: 0 (71.0/1.0)
|   |   |   |   |   |   |   |   |   |   |   |   |   |   pixel434 > 103: 5 (2.0)
|   |   |   |   |   |   |   |   |   |   |   |   |   pixel134 > 42: 5 (2.0)
|   |   |   |   |   |   |   |   |   |   |   |   pixel323 > 218
|   |   |   |   |   |   |   |   |   |   |   |   |   pixel129 <= 2: 5 (2.0)
|   |   |   |   |   |   |   |   |   |   |   |   |   pixel129 > 2: 3 (2.0)
|   |   |   |   |   |   |   |   |   |   |   pixel406 > 30
|   |   |   |   |   |   |   |   |   |   |   |   pixel192 <= 20: 3 (9.0)
|   |   |   |   |   |   |   |   |   |   |   |   pixel192 > 20: 5 (2.0)
|   |   |   |   |   |   |   |   |   |   pixel694 > 57: 9 (3.0/1.0)
|   |   |   |   |   |   |   |   |   pixel490 > 9: 2 (6.0/2.0)
|   |   |   |   |   |   |   |   pixel681 > 134: 7 (5.0)
|   |   |   |   |   |   |   pixel95 > 1: 6 (2.0)
|   |   |   |   |   |   pixel487 > 71
|   |   |   |   |   |   |   pixel499 <= 252
|   |   |   |   |   |   |   |   pixel687 <= 4: 2 (15.0/6.0)
|   |   |   |   |   |   |   |   pixel687 > 4: 8 (6.0)
|   |   |   |   |   |   |   pixel499 > 252: 3 (2.0/1.0)
|   |   |   pixel374 > 0
|   |   |   |   pixel97 <= 1
|   |   |   |   |   pixel104 <= 2
|   |   |   |   |   |   pixel597 <= 0
|   |   |   |   |   |   |   pixel570 <= 5
|   |   |   |   |   |   |   |   pixel651 <= 1
|   |   |   |   |   |   |   |   |   pixel212 <= 28
|   |   |   |   |   |   |   |   |   |   pixel94 <= 3
|   |   |   |   |   |   |   |   |   |   |   pixel99 <= 32
|   |   |   |   |   |   |   |   |   |   |   |   pixel156 <= 89
|   |   |   |   |   |   |   |   |   |   |   |   |   pixel295 <= 43
|   |   |   |   |   |   |   |   |   |   |   |   |   |   pixel240 <= 111
|   |   |   |   |   |   |   |   |   |   |   |   |   |   |   pixel323 <= 31
|   |   |   |   |   |   |   |   |   |   |   |   |   |   |   |   pixel121 <= 1
|   |   |   |   |   |   |   |   |   |   |   |   |   |   |   |   |   pixel544 <= 201
|   |   |   |   |   |   |   |   |   |   |   |   |   |   |   |   |   |   pixel267 <= 148
|   |   |   |   |   |   |   |   |   |   |   |   |   |   |   |   |   |   |   pixel313 <= 17
|   |   |   |   |   |   |   |   |   |   |   |   |   |   |   |   |   |   |   |   pixel528 <= 2
|   |   |   |   |   |   |   |   |   |   |   |   |   |   |   |   |   |   |   |   |   pixel184 <= 39
|   |   |   |   |   |   |   |   |   |   |   |   |   |   |   |   |   |   |   |   |   |   pixel150 <= 253: 4 (1978.0/15.0)
|   |   |   |   |   |   |   |   |   |   |   |   |   |   |   |   |   |   |   |   |   |   pixel150 > 253
|   |   |   |   |   |   |   |   |   |   |   |   |   |   |   |   |   |   |   |   |   |   |   pixel182 <= 4: 4 (18.0/1.0)
|   |   |   |   |   |   |   |   |   |   |   |   |   |   |   |   |   |   |   |   |   |   |   pixel182 > 4: 3 (2.0)
|   |   |   |   |   |   |   |   |   |   |   |   |   |   |   |   |   |   |   |   |   pixel184 > 39: 4 (21.0/4.0)
|   |   |   |   |   |   |   |   |   |   |   |   |   |   |   |   |   |   |   |   pixel528 > 2: 4 (24.0/3.0)
|   |   |   |   |   |   |   |   |   |   |   |   |   |   |   |   |   |   |   pixel313 > 17: 4 (41.0/6.0)
|   |   |   |   |   |   |   |   |   |   |   |   |   |   |   |   |   |   pixel267 > 148
|   |   |   |   |   |   |   |   |   |   |   |   |   |   |   |   |   |   |   pixel202 <= 2
|   |   |   |   |   |   |   |   |   |   |   |   |   |   |   |   |   |   |   |   pixel464 <= 154: 9 (5.0/1.0)
|   |   |   |   |   |   |   |   |   |   |   |   |   |   |   |   |   |   |   |   pixel464 > 154: 4 (17.0)
|   |   |   |   |   |   |   |   |   |   |   |   |   |   |   |   |   |   |   pixel202 > 2: 3 (2.0)
|   |   |   |   |   |   |   |   |   |   |   |   |   |   |   |   |   pixel544 > 201: 4 (46.0/9.0)
|   |   |   |   |   |   |   |   |   |   |   |   |   |   |   |   pixel121 > 1
|   |   |   |   |   |   |   |   |   |   |   |   |   |   |   |   |   pixel657 <= 69
|   |   |   |   |   |   |   |   |   |   |   |   |   |   |   |   |   |   pixel155 <= 11
|   |   |   |   |   |   |   |   |   |   |   |   |   |   |   |   |   |   |   pixel574 <= 22: 4 (19.0)
|   |   |   |   |   |   |   |   |   |   |   |   |   |   |   |   |   |   |   pixel574 > 22: 6 (4.0/1.0)
|   |   |   |   |   |   |   |   |   |   |   |   |   |   |   |   |   |   pixel155 > 11: 8 (2.0)
|   |   |   |   |   |   |   |   |   |   |   |   |   |   |   |   |   pixel657 > 69: 5 (2.0)
|   |   |   |   |   |   |   |   |   |   |   |   |   |   |   pixel323 > 31
|   |   |   |   |   |   |   |   |   |   |   |   |   |   |   |   pixel409 <= 21: 7 (25.0/11.0)
|   |   |   |   |   |   |   |   |   |   |   |   |   |   |   |   pixel409 > 21: 4 (79.0/18.0)
|   |   |   |   |   |   |   |   |   |   |   |   |   |   pixel240 > 111
|   |   |   |   |   |   |   |   |   |   |   |   |   |   |   pixel571 <= 6
|   |   |   |   |   |   |   |   |   |   |   |   |   |   |   |   pixel461 <= 84
|   |   |   |   |   |   |   |   |   |   |   |   |   |   |   |   |   pixel405 <= 23: 7 (35.0/1.0)
|   |   |   |   |   |   |   |   |   |   |   |   |   |   |   |   |   pixel405 > 23
|   |   |   |   |   |   |   |   |   |   |   |   |   |   |   |   |   |   pixel462 <= 11: 9 (12.0)
|   |   |   |   |   |   |   |   |   |   |   |   |   |   |   |   |   |   pixel462 > 11: 8 (2.0/1.0)
|   |   |   |   |   |   |   |   |   |   |   |   |   |   |   |   pixel461 > 84
|   |   |   |   |   |   |   |   |   |   |   |   |   |   |   |   |   pixel411 <= 37: 5 (5.0)
|   |   |   |   |   |   |   |   |   |   |   |   |   |   |   |   |   pixel411 > 37: 4 (11.0/2.0)
|   |   |   |   |   |   |   |   |   |   |   |   |   |   |   pixel571 > 6: 0 (2.0/1.0)
|   |   |   |   |   |   |   |   |   |   |   |   |   pixel295 > 43
|   |   |   |   |   |   |   |   |   |   |   |   |   |   pixel474 <= 8
|   |   |   |   |   |   |   |   |   |   |   |   |   |   |   pixel433 <= 3
|   |   |   |   |   |   |   |   |   |   |   |   |   |   |   |   pixel148 <= 14
|   |   |   |   |   |   |   |   |   |   |   |   |   |   |   |   |   pixel528 <= 38
|   |   |   |   |   |   |   |   |   |   |   |   |   |   |   |   |   |   pixel194 <= 29
|   |   |   |   |   |   |   |   |   |   |   |   |   |   |   |   |   |   |   pixel161 <= 30
|   |   |   |   |   |   |   |   |   |   |   |   |   |   |   |   |   |   |   |   pixel542 <= 17
|   |   |   |   |   |   |   |   |   |   |   |   |   |   |   |   |   |   |   |   |   pixel250 <= 9: 7 (345.0/31.0)
|   |   |   |   |   |   |   |   |   |   |   |   |   |   |   |   |   |   |   |   |   pixel250 > 9
|   |   |   |   |   |   |   |   |   |   |   |   |   |   |   |   |   |   |   |   |   |   pixel384 <= 126: 5 (3.0)
|   |   |   |   |   |   |   |   |   |   |   |   |   |   |   |   |   |   |   |   |   |   pixel384 > 126: 7 (3.0)
|   |   |   |   |   |   |   |   |   |   |   |   |   |   |   |   |   |   |   |   pixel542 > 17
|   |   |   |   |   |   |   |   |   |   |   |   |   |   |   |   |   |   |   |   |   pixel274 <= 1: 0 (3.0/1.0)
|   |   |   |   |   |   |   |   |   |   |   |   |   |   |   |   |   |   |   |   |   pixel274 > 1: 5 (2.0/1.0)
|   |   |   |   |   |   |   |   |   |   |   |   |   |   |   |   |   |   |   pixel161 > 30
|   |   |   |   |   |   |   |   |   |   |   |   |   |   |   |   |   |   |   |   pixel269 <= 211: 4 (8.0)
|   |   |   |   |   |   |   |   |   |   |   |   |   |   |   |   |   |   |   |   pixel269 > 211: 5 (2.0)
|   |   |   |   |   |   |   |   |   |   |   |   |   |   |   |   |   |   pixel194 > 29: 5 (6.0/1.0)
|   |   |   |   |   |   |   |   |   |   |   |   |   |   |   |   |   pixel528 > 38: 2 (5.0/3.0)
|   |   |   |   |   |   |   |   |   |   |   |   |   |   |   |   pixel148 > 14: 3 (9.0/1.0)
|   |   |   |   |   |   |   |   |   |   |   |   |   |   |   pixel433 > 3
|   |   |   |   |   |   |   |   |   |   |   |   |   |   |   |   pixel382 <= 23
|   |   |   |   |   |   |   |   |   |   |   |   |   |   |   |   |   pixel499 <= 122
|   |   |   |   |   |   |   |   |   |   |   |   |   |   |   |   |   |   pixel413 <= 26
|   |   |   |   |   |   |   |   |   |   |   |   |   |   |   |   |   |   |   pixel187 <= 62: 5 (46.0/2.0)
|   |   |   |   |   |   |   |   |   |   |   |   |   |   |   |   |   |   |   pixel187 > 62: 8 (4.0/1.0)
|   |   |   |   |   |   |   |   |   |   |   |   |   |   |   |   |   |   pixel413 > 26: 4 (7.0/1.0)
|   |   |   |   |   |   |   |   |   |   |   |   |   |   |   |   |   pixel499 > 122: 3 (7.0/3.0)
|   |   |   |   |   |   |   |   |   |   |   |   |   |   |   |   pixel382 > 23
|   |   |   |   |   |   |   |   |   |   |   |   |   |   |   |   |   pixel229 <= 97
|   |   |   |   |   |   |   |   |   |   |   |   |   |   |   |   |   |   pixel191 <= 2
|   |   |   |   |   |   |   |   |   |   |   |   |   |   |   |   |   |   |   pixel160 <= 3
|   |   |   |   |   |   |   |   |   |   |   |   |   |   |   |   |   |   |   |   pixel149 <= 91
|   |   |   |   |   |   |   |   |   |   |   |   |   |   |   |   |   |   |   |   |   pixel306 <= 21
|   |   |   |   |   |   |   |   |   |   |   |   |   |   |   |   |   |   |   |   |   |   pixel186 <= 31
|   |   |   |   |   |   |   |   |   |   |   |   |   |   |   |   |   |   |   |   |   |   |   pixel296 <= 12: 4 (9.0/1.0)
|   |   |   |   |   |   |   |   |   |   |   |   |   |   |   |   |   |   |   |   |   |   |   pixel296 > 12
|   |   |   |   |   |   |   |   |   |   |   |   |   |   |   |   |   |   |   |   |   |   |   |   pixel174 <= 85
|   |   |   |   |   |   |   |   |   |   |   |   |   |   |   |   |   |   |   |   |   |   |   |   |   pixel415 <= 142
|   |   |   |   |   |   |   |   |   |   |   |   |   |   |   |   |   |   |   |   |   |   |   |   |   |   pixel517 <= 251
|   |   |   |   |   |   |   |   |   |   |   |   |   |   |   |   |   |   |   |   |   |   |   |   |   |   |   pixel155 <= 115
|   |   |   |   |   |   |   |   |   |   |   |   |   |   |   |   |   |   |   |   |   |   |   |   |   |   |   |   pixel631 <= 213: 9 (86.0/7.0)
|   |   |   |   |   |   |   |   |   |   |   |   |   |   |   |   |   |   |   |   |   |   |   |   |   |   |   |   pixel631 > 213
|   |   |   |   |   |   |   |   |   |   |   |   |   |   |   |   |   |   |   |   |   |   |   |   |   |   |   |   |   pixel266 <= 209: 4 (2.0/1.0)
|   |   |   |   |   |   |   |   |   |   |   |   |   |   |   |   |   |   |   |   |   |   |   |   |   |   |   |   |   pixel266 > 209: 5 (4.0/2.0)
|   |   |   |   |   |   |   |   |   |   |   |   |   |   |   |   |   |   |   |   |   |   |   |   |   |   |   pixel155 > 115: 4 (2.0/1.0)
|   |   |   |   |   |   |   |   |   |   |   |   |   |   |   |   |   |   |   |   |   |   |   |   |   |   pixel517 > 251: 2 (2.0/1.0)
|   |   |   |   |   |   |   |   |   |   |   |   |   |   |   |   |   |   |   |   |   |   |   |   |   pixel415 > 142: 7 (2.0)
|   |   |   |   |   |   |   |   |   |   |   |   |   |   |   |   |   |   |   |   |   |   |   |   pixel174 > 85: 4 (2.0/1.0)
|   |   |   |   |   |   |   |   |   |   |   |   |   |   |   |   |   |   |   |   |   |   pixel186 > 31: 4 (10.0/2.0)
|   |   |   |   |   |   |   |   |   |   |   |   |   |   |   |   |   |   |   |   |   pixel306 > 21: 4 (2.0/1.0)
|   |   |   |   |   |   |   |   |   |   |   |   |   |   |   |   |   |   |   |   pixel149 > 91: 5 (2.0/1.0)
|   |   |   |   |   |   |   |   |   |   |   |   |   |   |   |   |   |   |   pixel160 > 3: 4 (21.0/1.0)
|   |   |   |   |   |   |   |   |   |   |   |   |   |   |   |   |   |   pixel191 > 2: 4 (51.0/4.0)
|   |   |   |   |   |   |   |   |   |   |   |   |   |   |   |   |   pixel229 > 97: 3 (7.0/3.0)
|   |   |   |   |   |   |   |   |   |   |   |   |   |   pixel474 > 8: 2 (11.0)
|   |   |   |   |   |   |   |   |   |   |   |   pixel156 > 89
|   |   |   |   |   |   |   |   |   |   |   |   |   pixel545 <= 45
|   |   |   |   |   |   |   |   |   |   |   |   |   |   pixel542 <= 4
|   |   |   |   |   |   |   |   |   |   |   |   |   |   |   pixel157 <= 6: 4 (11.0/1.0)
|   |   |   |   |   |   |   |   |   |   |   |   |   |   |   pixel157 > 6
|   |   |   |   |   |   |   |   |   |   |   |   |   |   |   |   pixel239 <= 35
|   |   |   |   |   |   |   |   |   |   |   |   |   |   |   |   |   pixel543 <= 137
|   |   |   |   |   |   |   |   |   |   |   |   |   |   |   |   |   |   pixel546 <= 53
|   |   |   |   |   |   |   |   |   |   |   |   |   |   |   |   |   |   |   pixel213 <= 29
|   |   |   |   |   |   |   |   |   |   |   |   |   |   |   |   |   |   |   |   pixel327 <= 117
|   |   |   |   |   |   |   |   |   |   |   |   |   |   |   |   |   |   |   |   |   pixel243 <= 151
|   |   |   |   |   |   |   |   |   |   |   |   |   |   |   |   |   |   |   |   |   |   pixel657 <= 1: 9 (3.0/1.0)
|   |   |   |   |   |   |   |   |   |   |   |   |   |   |   |   |   |   |   |   |   |   pixel657 > 1: 5 (41.0)
|   |   |   |   |   |   |   |   |   |   |   |   |   |   |   |   |   |   |   |   |   pixel243 > 151: 9 (2.0)
|   |   |   |   |   |   |   |   |   |   |   |   |   |   |   |   |   |   |   |   pixel327 > 117: 9 (9.0/1.0)
|   |   |   |   |   |   |   |   |   |   |   |   |   |   |   |   |   |   |   pixel213 > 29
|   |   |   |   |   |   |   |   |   |   |   |   |   |   |   |   |   |   |   |   pixel264 <= 41: 3 (11.0)
|   |   |   |   |   |   |   |   |   |   |   |   |   |   |   |   |   |   |   |   pixel264 > 41: 9 (6.0/1.0)
|   |   |   |   |   |   |   |   |   |   |   |   |   |   |   |   |   |   pixel546 > 53: 3 (2.0/1.0)
|   |   |   |   |   |   |   |   |   |   |   |   |   |   |   |   |   pixel543 > 137: 8 (7.0/1.0)
|   |   |   |   |   |   |   |   |   |   |   |   |   |   |   |   pixel239 > 35: 4 (3.0)
|   |   |   |   |   |   |   |   |   |   |   |   |   |   pixel542 > 4: 0 (8.0/3.0)
|   |   |   |   |   |   |   |   |   |   |   |   |   pixel545 > 45
|   |   |   |   |   |   |   |   |   |   |   |   |   |   pixel486 <= 10: 8 (72.0/12.0)
|   |   |   |   |   |   |   |   |   |   |   |   |   |   pixel486 > 10
|   |   |   |   |   |   |   |   |   |   |   |   |   |   |   pixel242 <= 43
|   |   |   |   |   |   |   |   |   |   |   |   |   |   |   |   pixel214 <= 49
|   |   |   |   |   |   |   |   |   |   |   |   |   |   |   |   |   pixel272 <= 6: 6 (9.0)
|   |   |   |   |   |   |   |   |   |   |   |   |   |   |   |   |   pixel272 > 6: 4 (2.0/1.0)
|   |   |   |   |   |   |   |   |   |   |   |   |   |   |   |   pixel214 > 49: 9 (2.0)
|   |   |   |   |   |   |   |   |   |   |   |   |   |   |   pixel242 > 43: 0 (4.0/1.0)
|   |   |   |   |   |   |   |   |   |   |   pixel99 > 32: 6 (34.0/4.0)
|   |   |   |   |   |   |   |   |   |   pixel94 > 3
|   |   |   |   |   |   |   |   |   |   |   pixel455 <= 23: 6 (36.0/1.0)
|   |   |   |   |   |   |   |   |   |   |   pixel455 > 23: 4 (2.0)
|   |   |   |   |   |   |   |   |   pixel212 > 28
|   |   |   |   |   |   |   |   |   |   pixel150 <= 2
|   |   |   |   |   |   |   |   |   |   |   pixel156 <= 0
|   |   |   |   |   |   |   |   |   |   |   |   pixel193 <= 6
|   |   |   |   |   |   |   |   |   |   |   |   |   pixel500 <= 11
|   |   |   |   |   |   |   |   |   |   |   |   |   |   pixel175 <= 0
|   |   |   |   |   |   |   |   |   |   |   |   |   |   |   pixel249 <= 17
|   |   |   |   |   |   |   |   |   |   |   |   |   |   |   |   pixel157 <= 2
|   |   |   |   |   |   |   |   |   |   |   |   |   |   |   |   |   pixel154 <= 1
|   |   |   |   |   |   |   |   |   |   |   |   |   |   |   |   |   |   pixel162 <= 9
|   |   |   |   |   |   |   |   |   |   |   |   |   |   |   |   |   |   |   pixel382 <= 17
|   |   |   |   |   |   |   |   |   |   |   |   |   |   |   |   |   |   |   |   pixel446 <= 37
|   |   |   |   |   |   |   |   |   |   |   |   |   |   |   |   |   |   |   |   |   pixel331 <= 9
|   |   |   |   |   |   |   |   |   |   |   |   |   |   |   |   |   |   |   |   |   |   pixel325 <= 4
|   |   |   |   |   |   |   |   |   |   |   |   |   |   |   |   |   |   |   |   |   |   |   pixel412 <= 24
|   |   |   |   |   |   |   |   |   |   |   |   |   |   |   |   |   |   |   |   |   |   |   |   pixel330 <= 28
|   |   |   |   |   |   |   |   |   |   |   |   |   |   |   |   |   |   |   |   |   |   |   |   |   pixel411 <= 110
|   |   |   |   |   |   |   |   |   |   |   |   |   |   |   |   |   |   |   |   |   |   |   |   |   |   pixel298 <= 192
|   |   |   |   |   |   |   |   |   |   |   |   |   |   |   |   |   |   |   |   |   |   |   |   |   |   |   pixel323 <= 139: 5 (68.0/4.0)
|   |   |   |   |   |   |   |   |   |   |   |   |   |   |   |   |   |   |   |   |   |   |   |   |   |   |   pixel323 > 139
|   |   |   |   |   |   |   |   |   |   |   |   |   |   |   |   |   |   |   |   |   |   |   |   |   |   |   |   pixel244 <= 26: 3 (3.0)
|   |   |   |   |   |   |   |   |   |   |   |   |   |   |   |   |   |   |   |   |   |   |   |   |   |   |   |   pixel244 > 26: 5 (2.0/1.0)
|   |   |   |   |   |   |   |   |   |   |   |   |   |   |   |   |   |   |   |   |   |   |   |   |   |   pixel298 > 192: 9 (2.0)
|   |   |   |   |   |   |   |   |   |   |   |   |   |   |   |   |   |   |   |   |   |   |   |   |   pixel411 > 110: 9 (3.0/1.0)
|   |   |   |   |   |   |   |   |   |   |   |   |   |   |   |   |   |   |   |   |   |   |   |   pixel330 > 28: 9 (2.0)
|   |   |   |   |   |   |   |   |   |   |   |   |   |   |   |   |   |   |   |   |   |   |   pixel412 > 24
|   |   |   |   |   |   |   |   |   |   |   |   |   |   |   |   |   |   |   |   |   |   |   |   pixel159 <= 13
|   |   |   |   |   |   |   |   |   |   |   |   |   |   |   |   |   |   |   |   |   |   |   |   |   pixel482 <= 22
|   |   |   |   |   |   |   |   |   |   |   |   |   |   |   |   |   |   |   |   |   |   |   |   |   |   pixel688 <= 241
|   |   |   |   |   |   |   |   |   |   |   |   |   |   |   |   |   |   |   |   |   |   |   |   |   |   |   pixel432 <= 12: 7 (11.0/5.0)
|   |   |   |   |   |   |   |   |   |   |   |   |   |   |   |   |   |   |   |   |   |   |   |   |   |   |   pixel432 > 12: 9 (22.0)
|   |   |   |   |   |   |   |   |   |   |   |   |   |   |   |   |   |   |   |   |   |   |   |   |   |   pixel688 > 241: 7 (5.0/2.0)
