=== Run information ===

Scheme:weka.classifiers.trees.J48 -C 0.25 -M 2
Relation:     DATA=train-images.idx3-ubyte-LABELS=train-labels.idx1-ubyte
Instances:    60000
Attributes:   503
[list of attributes omitted]
Test mode:user supplied test set: size unknown (reading incrementally)

=== Classifier model (full training set) ===

J48 pruned tree
------------------

pixel101 <= 0
|   pixel388 <= 3
|   |   pixel379 <= 104
|   |   |   pixel569 <= 0
|   |   |   |   pixel98 <= 0
|   |   |   |   |   pixel460 <= 0
|   |   |   |   |   |   pixel406 <= 65
|   |   |   |   |   |   |   pixel155 <= 1
|   |   |   |   |   |   |   |   pixel595 <= 2
|   |   |   |   |   |   |   |   |   pixel95 <= 5
|   |   |   |   |   |   |   |   |   |   pixel131 <= 1
|   |   |   |   |   |   |   |   |   |   |   pixel162 <= 1
|   |   |   |   |   |   |   |   |   |   |   |   pixel157 <= 0
|   |   |   |   |   |   |   |   |   |   |   |   |   pixel556 <= 16
|   |   |   |   |   |   |   |   |   |   |   |   |   |   pixel515 <= 53
|   |   |   |   |   |   |   |   |   |   |   |   |   |   |   pixel433 <= 68
|   |   |   |   |   |   |   |   |   |   |   |   |   |   |   |   pixel154 <= 11
|   |   |   |   |   |   |   |   |   |   |   |   |   |   |   |   |   pixel378 <= 6
|   |   |   |   |   |   |   |   |   |   |   |   |   |   |   |   |   |   pixel611 <= 4
|   |   |   |   |   |   |   |   |   |   |   |   |   |   |   |   |   |   |   pixel152 <= 0
|   |   |   |   |   |   |   |   |   |   |   |   |   |   |   |   |   |   |   |   pixel554 <= 51
|   |   |   |   |   |   |   |   |   |   |   |   |   |   |   |   |   |   |   |   |   pixel462 <= 206
|   |   |   |   |   |   |   |   |   |   |   |   |   |   |   |   |   |   |   |   |   |   pixel350 <= 48: 7 (4412.0/44.0)
|   |   |   |   |   |   |   |   |   |   |   |   |   |   |   |   |   |   |   |   |   |   pixel350 > 48
|   |   |   |   |   |   |   |   |   |   |   |   |   |   |   |   |   |   |   |   |   |   |   pixel184 <= 98
|   |   |   |   |   |   |   |   |   |   |   |   |   |   |   |   |   |   |   |   |   |   |   |   pixel293 <= 103
|   |   |   |   |   |   |   |   |   |   |   |   |   |   |   |   |   |   |   |   |   |   |   |   |   pixel211 <= 105
|   |   |   |   |   |   |   |   |   |   |   |   |   |   |   |   |   |   |   |   |   |   |   |   |   |   pixel238 <= 241: 7 (24.0/2.0)
|   |   |   |   |   |   |   |   |   |   |   |   |   |   |   |   |   |   |   |   |   |   |   |   |   |   pixel238 > 241: 9 (2.0)
|   |   |   |   |   |   |   |   |   |   |   |   |   |   |   |   |   |   |   |   |   |   |   |   |   pixel211 > 105: 9 (8.0)
|   |   |   |   |   |   |   |   |   |   |   |   |   |   |   |   |   |   |   |   |   |   |   |   pixel293 > 103: 7 (279.0/3.0)
|   |   |   |   |   |   |   |   |   |   |   |   |   |   |   |   |   |   |   |   |   |   |   pixel184 > 98
|   |   |   |   |   |   |   |   |   |   |   |   |   |   |   |   |   |   |   |   |   |   |   |   pixel385 <= 32: 9 (17.0/1.0)
|   |   |   |   |   |   |   |   |   |   |   |   |   |   |   |   |   |   |   |   |   |   |   |   pixel385 > 32: 7 (5.0)
|   |   |   |   |   |   |   |   |   |   |   |   |   |   |   |   |   |   |   |   |   pixel462 > 206
|   |   |   |   |   |   |   |   |   |   |   |   |   |   |   |   |   |   |   |   |   |   pixel160 <= 96
|   |   |   |   |   |   |   |   |   |   |   |   |   |   |   |   |   |   |   |   |   |   |   pixel718 <= 125
|   |   |   |   |   |   |   |   |   |   |   |   |   |   |   |   |   |   |   |   |   |   |   |   pixel324 <= 252
|   |   |   |   |   |   |   |   |   |   |   |   |   |   |   |   |   |   |   |   |   |   |   |   |   pixel175 <= 68
|   |   |   |   |   |   |   |   |   |   |   |   |   |   |   |   |   |   |   |   |   |   |   |   |   |   pixel687 <= 197: 7 (90.0/1.0)
|   |   |   |   |   |   |   |   |   |   |   |   |   |   |   |   |   |   |   |   |   |   |   |   |   |   pixel687 > 197
|   |   |   |   |   |   |   |   |   |   |   |   |   |   |   |   |   |   |   |   |   |   |   |   |   |   |   pixel320 <= 70: 3 (8.0)
|   |   |   |   |   |   |   |   |   |   |   |   |   |   |   |   |   |   |   |   |   |   |   |   |   |   |   pixel320 > 70: 7 (2.0)
|   |   |   |   |   |   |   |   |   |   |   |   |   |   |   |   |   |   |   |   |   |   |   |   |   pixel175 > 68: 2 (2.0/1.0)
|   |   |   |   |   |   |   |   |   |   |   |   |   |   |   |   |   |   |   |   |   |   |   |   pixel324 > 252: 9 (2.0)
|   |   |   |   |   |   |   |   |   |   |   |   |   |   |   |   |   |   |   |   |   |   |   pixel718 > 125: 2 (3.0)
|   |   |   |   |   |   |   |   |   |   |   |   |   |   |   |   |   |   |   |   |   |   pixel160 > 96: 1 (5.0)
|   |   |   |   |   |   |   |   |   |   |   |   |   |   |   |   |   |   |   |   pixel554 > 51
|   |   |   |   |   |   |   |   |   |   |   |   |   |   |   |   |   |   |   |   |   pixel489 <= 4
|   |   |   |   |   |   |   |   |   |   |   |   |   |   |   |   |   |   |   |   |   |   pixel626 <= 5: 7 (26.0)
|   |   |   |   |   |   |   |   |   |   |   |   |   |   |   |   |   |   |   |   |   |   pixel626 > 5: 5 (3.0)
|   |   |   |   |   |   |   |   |   |   |   |   |   |   |   |   |   |   |   |   |   pixel489 > 4: 2 (2.0)
|   |   |   |   |   |   |   |   |   |   |   |   |   |   |   |   |   |   |   pixel152 > 0
|   |   |   |   |   |   |   |   |   |   |   |   |   |   |   |   |   |   |   |   pixel608 <= 46
|   |   |   |   |   |   |   |   |   |   |   |   |   |   |   |   |   |   |   |   |   pixel635 <= 49: 7 (20.0)
|   |   |   |   |   |   |   |   |   |   |   |   |   |   |   |   |   |   |   |   |   pixel635 > 49: 2 (3.0/1.0)
|   |   |   |   |   |   |   |   |   |   |   |   |   |   |   |   |   |   |   |   pixel608 > 46: 3 (2.0/1.0)
|   |   |   |   |   |   |   |   |   |   |   |   |   |   |   |   |   |   pixel611 > 4
|   |   |   |   |   |   |   |   |   |   |   |   |   |   |   |   |   |   |   pixel690 <= 110
|   |   |   |   |   |   |   |   |   |   |   |   |   |   |   |   |   |   |   |   pixel292 <= 174
|   |   |   |   |   |   |   |   |   |   |   |   |   |   |   |   |   |   |   |   |   pixel497 <= 2: 2 (9.0/1.0)
|   |   |   |   |   |   |   |   |   |   |   |   |   |   |   |   |   |   |   |   |   pixel497 > 2: 9 (2.0)
|   |   |   |   |   |   |   |   |   |   |   |   |   |   |   |   |   |   |   |   pixel292 > 174: 7 (14.0)
|   |   |   |   |   |   |   |   |   |   |   |   |   |   |   |   |   |   |   pixel690 > 110: 3 (2.0/1.0)
|   |   |   |   |   |   |   |   |   |   |   |   |   |   |   |   |   pixel378 > 6
|   |   |   |   |   |   |   |   |   |   |   |   |   |   |   |   |   |   pixel152 <= 5
|   |   |   |   |   |   |   |   |   |   |   |   |   |   |   |   |   |   |   pixel211 <= 57
|   |   |   |   |   |   |   |   |   |   |   |   |   |   |   |   |   |   |   |   pixel278 <= 10
|   |   |   |   |   |   |   |   |   |   |   |   |   |   |   |   |   |   |   |   |   pixel380 <= 209
|   |   |   |   |   |   |   |   |   |   |   |   |   |   |   |   |   |   |   |   |   |   pixel638 <= 58
|   |   |   |   |   |   |   |   |   |   |   |   |   |   |   |   |   |   |   |   |   |   |   pixel221 <= 34
|   |   |   |   |   |   |   |   |   |   |   |   |   |   |   |   |   |   |   |   |   |   |   |   pixel212 <= 103
|   |   |   |   |   |   |   |   |   |   |   |   |   |   |   |   |   |   |   |   |   |   |   |   |   pixel465 <= 254
|   |   |   |   |   |   |   |   |   |   |   |   |   |   |   |   |   |   |   |   |   |   |   |   |   |   pixel322 <= 16: 9 (5.0/2.0)
|   |   |   |   |   |   |   |   |   |   |   |   |   |   |   |   |   |   |   |   |   |   |   |   |   |   pixel322 > 16: 7 (83.0/2.0)
|   |   |   |   |   |   |   |   |   |   |   |   |   |   |   |   |   |   |   |   |   |   |   |   |   pixel465 > 254: 4 (2.0)
|   |   |   |   |   |   |   |   |   |   |   |   |   |   |   |   |   |   |   |   |   |   |   |   pixel212 > 103: 4 (2.0)
|   |   |   |   |   |   |   |   |   |   |   |   |   |   |   |   |   |   |   |   |   |   |   pixel221 > 34: 5 (2.0/1.0)
|   |   |   |   |   |   |   |   |   |   |   |   |   |   |   |   |   |   |   |   |   |   pixel638 > 58: 9 (2.0)
|   |   |   |   |   |   |   |   |   |   |   |   |   |   |   |   |   |   |   |   |   pixel380 > 209: 1 (3.0/1.0)
|   |   |   |   |   |   |   |   |   |   |   |   |   |   |   |   |   |   |   |   pixel278 > 10: 5 (2.0)
|   |   |   |   |   |   |   |   |   |   |   |   |   |   |   |   |   |   |   pixel211 > 57
|   |   |   |   |   |   |   |   |   |   |   |   |   |   |   |   |   |   |   |   pixel203 <= 6
|   |   |   |   |   |   |   |   |   |   |   |   |   |   |   |   |   |   |   |   |   pixel191 <= 7
|   |   |   |   |   |   |   |   |   |   |   |   |   |   |   |   |   |   |   |   |   |   pixel294 <= 248
|   |   |   |   |   |   |   |   |   |   |   |   |   |   |   |   |   |   |   |   |   |   |   pixel351 <= 8: 7 (3.0/1.0)
|   |   |   |   |   |   |   |   |   |   |   |   |   |   |   |   |   |   |   |   |   |   |   pixel351 > 8
|   |   |   |   |   |   |   |   |   |   |   |   |   |   |   |   |   |   |   |   |   |   |   |   pixel524 <= 109: 9 (77.0/1.0)
|   |   |   |   |   |   |   |   |   |   |   |   |   |   |   |   |   |   |   |   |   |   |   |   pixel524 > 109
|   |   |   |   |   |   |   |   |   |   |   |   |   |   |   |   |   |   |   |   |   |   |   |   |   pixel271 <= 27: 5 (4.0)
|   |   |   |   |   |   |   |   |   |   |   |   |   |   |   |   |   |   |   |   |   |   |   |   |   pixel271 > 27: 9 (2.0)
|   |   |   |   |   |   |   |   |   |   |   |   |   |   |   |   |   |   |   |   |   |   pixel294 > 248
|   |   |   |   |   |   |   |   |   |   |   |   |   |   |   |   |   |   |   |   |   |   |   pixel580 <= 90
|   |   |   |   |   |   |   |   |   |   |   |   |   |   |   |   |   |   |   |   |   |   |   |   pixel184 <= 60: 7 (19.0)
|   |   |   |   |   |   |   |   |   |   |   |   |   |   |   |   |   |   |   |   |   |   |   |   pixel184 > 60: 9 (3.0/1.0)
|   |   |   |   |   |   |   |   |   |   |   |   |   |   |   |   |   |   |   |   |   |   |   pixel580 > 90: 9 (2.0)
|   |   |   |   |   |   |   |   |   |   |   |   |   |   |   |   |   |   |   |   |   pixel191 > 7: 5 (2.0)
|   |   |   |   |   |   |   |   |   |   |   |   |   |   |   |   |   |   |   |   pixel203 > 6: 3 (2.0)
|   |   |   |   |   |   |   |   |   |   |   |   |   |   |   |   |   |   pixel152 > 5: 3 (6.0)
|   |   |   |   |   |   |   |   |   |   |   |   |   |   |   |   pixel154 > 11
|   |   |   |   |   |   |   |   |   |   |   |   |   |   |   |   |   pixel322 <= 58
|   |   |   |   |   |   |   |   |   |   |   |   |   |   |   |   |   |   pixel631 <= 59: 7 (7.0/1.0)
|   |   |   |   |   |   |   |   |   |   |   |   |   |   |   |   |   |   pixel631 > 59: 2 (12.0/1.0)
|   |   |   |   |   |   |   |   |   |   |   |   |   |   |   |   |   pixel322 > 58: 3 (6.0)
|   |   |   |   |   |   |   |   |   |   |   |   |   |   |   pixel433 > 68
|   |   |   |   |   |   |   |   |   |   |   |   |   |   |   |   pixel742 <= 64
|   |   |   |   |   |   |   |   |   |   |   |   |   |   |   |   |   pixel517 <= 75
|   |   |   |   |   |   |   |   |   |   |   |   |   |   |   |   |   |   pixel382 <= 7: 5 (7.0/1.0)
|   |   |   |   |   |   |   |   |   |   |   |   |   |   |   |   |   |   pixel382 > 7
|   |   |   |   |   |   |   |   |   |   |   |   |   |   |   |   |   |   |   pixel407 <= 9: 4 (7.0/1.0)
|   |   |   |   |   |   |   |   |   |   |   |   |   |   |   |   |   |   |   pixel407 > 9: 9 (6.0)
|   |   |   |   |   |   |   |   |   |   |   |   |   |   |   |   |   pixel517 > 75: 8 (3.0)
|   |   |   |   |   |   |   |   |   |   |   |   |   |   |   |   pixel742 > 64: 7 (2.0)
|   |   |   |   |   |   |   |   |   |   |   |   |   |   pixel515 > 53
|   |   |   |   |   |   |   |   |   |   |   |   |   |   |   pixel93 <= 7
|   |   |   |   |   |   |   |   |   |   |   |   |   |   |   |   pixel152 <= 14
|   |   |   |   |   |   |   |   |   |   |   |   |   |   |   |   |   pixel159 <= 4
|   |   |   |   |   |   |   |   |   |   |   |   |   |   |   |   |   |   pixel220 <= 11
|   |   |   |   |   |   |   |   |   |   |   |   |   |   |   |   |   |   |   pixel378 <= 11
|   |   |   |   |   |   |   |   |   |   |   |   |   |   |   |   |   |   |   |   pixel306 <= 34
|   |   |   |   |   |   |   |   |   |   |   |   |   |   |   |   |   |   |   |   |   pixel474 <= 8
|   |   |   |   |   |   |   |   |   |   |   |   |   |   |   |   |   |   |   |   |   |   pixel202 <= 49
|   |   |   |   |   |   |   |   |   |   |   |   |   |   |   |   |   |   |   |   |   |   |   pixel485 <= 49
|   |   |   |   |   |   |   |   |   |   |   |   |   |   |   |   |   |   |   |   |   |   |   |   pixel430 <= 44
|   |   |   |   |   |   |   |   |   |   |   |   |   |   |   |   |   |   |   |   |   |   |   |   |   pixel482 <= 11: 7 (36.0)
|   |   |   |   |   |   |   |   |   |   |   |   |   |   |   |   |   |   |   |   |   |   |   |   |   pixel482 > 11: 9 (5.0)
|   |   |   |   |   |   |   |   |   |   |   |   |   |   |   |   |   |   |   |   |   |   |   |   pixel430 > 44
|   |   |   |   |   |   |   |   |   |   |   |   |   |   |   |   |   |   |   |   |   |   |   |   |   pixel233 <= 105: 9 (18.0)
|   |   |   |   |   |   |   |   |   |   |   |   |   |   |   |   |   |   |   |   |   |   |   |   |   pixel233 > 105: 7 (2.0)
|   |   |   |   |   |   |   |   |   |   |   |   |   |   |   |   |   |   |   |   |   |   |   pixel485 > 49
|   |   |   |   |   |   |   |   |   |   |   |   |   |   |   |   |   |   |   |   |   |   |   |   pixel211 <= 5
|   |   |   |   |   |   |   |   |   |   |   |   |   |   |   |   |   |   |   |   |   |   |   |   |   pixel180 <= 13: 9 (3.0)
|   |   |   |   |   |   |   |   |   |   |   |   |   |   |   |   |   |   |   |   |   |   |   |   |   pixel180 > 13: 4 (3.0)
|   |   |   |   |   |   |   |   |   |   |   |   |   |   |   |   |   |   |   |   |   |   |   |   pixel211 > 5: 9 (146.0/3.0)
|   |   |   |   |   |   |   |   |   |   |   |   |   |   |   |   |   |   |   |   |   |   pixel202 > 49
|   |   |   |   |   |   |   |   |   |   |   |   |   |   |   |   |   |   |   |   |   |   |   pixel636 <= 8: 7 (8.0/1.0)
|   |   |   |   |   |   |   |   |   |   |   |   |   |   |   |   |   |   |   |   |   |   |   pixel636 > 8: 2 (3.0)
|   |   |   |   |   |   |   |   |   |   |   |   |   |   |   |   |   |   |   |   |   pixel474 > 8: 2 (3.0/1.0)
|   |   |   |   |   |   |   |   |   |   |   |   |   |   |   |   |   |   |   |   pixel306 > 34: 5 (3.0)
|   |   |   |   |   |   |   |   |   |   |   |   |   |   |   |   |   |   |   pixel378 > 11: 5 (5.0)
|   |   |   |   |   |   |   |   |   |   |   |   |   |   |   |   |   |   pixel220 > 11
|   |   |   |   |   |   |   |   |   |   |   |   |   |   |   |   |   |   |   pixel332 <= 20
|   |   |   |   |   |   |   |   |   |   |   |   |   |   |   |   |   |   |   |   pixel355 <= 19: 5 (15.0/1.0)
|   |   |   |   |   |   |   |   |   |   |   |   |   |   |   |   |   |   |   |   pixel355 > 19: 4 (9.0)
|   |   |   |   |   |   |   |   |   |   |   |   |   |   |   |   |   |   |   pixel332 > 20: 7 (2.0/1.0)
|   |   |   |   |   |   |   |   |   |   |   |   |   |   |   |   |   pixel159 > 4: 4 (6.0)
|   |   |   |   |   |   |   |   |   |   |   |   |   |   |   |   pixel152 > 14
|   |   |   |   |   |   |   |   |   |   |   |   |   |   |   |   |   pixel599 <= 23
|   |   |   |   |   |   |   |   |   |   |   |   |   |   |   |   |   |   pixel183 <= 13: 4 (11.0)
|   |   |   |   |   |   |   |   |   |   |   |   |   |   |   |   |   |   pixel183 > 13: 2 (2.0)
|   |   |   |   |   |   |   |   |   |   |   |   |   |   |   |   |   pixel599 > 23: 0 (5.0)
|   |   |   |   |   |   |   |   |   |   |   |   |   |   |   pixel93 > 7: 6 (5.0)
|   |   |   |   |   |   |   |   |   |   |   |   |   pixel556 > 16
|   |   |   |   |   |   |   |   |   |   |   |   |   |   pixel349 <= 94
|   |   |   |   |   |   |   |   |   |   |   |   |   |   |   pixel688 <= 88
|   |   |   |   |   |   |   |   |   |   |   |   |   |   |   |   pixel459 <= 1
|   |   |   |   |   |   |   |   |   |   |   |   |   |   |   |   |   pixel471 <= 69: 2 (20.0)
|   |   |   |   |   |   |   |   |   |   |   |   |   |   |   |   |   pixel471 > 69: 9 (5.0)
|   |   |   |   |   |   |   |   |   |   |   |   |   |   |   |   pixel459 > 1: 0 (4.0)
|   |   |   |   |   |   |   |   |   |   |   |   |   |   |   pixel688 > 88: 3 (2.0/1.0)
|   |   |   |   |   |   |   |   |   |   |   |   |   |   pixel349 > 94
|   |   |   |   |   |   |   |   |   |   |   |   |   |   |   pixel268 <= 48: 5 (9.0)
|   |   |   |   |   |   |   |   |   |   |   |   |   |   |   pixel268 > 48: 3 (4.0)
|   |   |   |   |   |   |   |   |   |   |   |   pixel157 > 0
|   |   |   |   |   |   |   |   |   |   |   |   |   pixel515 <= 99
|   |   |   |   |   |   |   |   |   |   |   |   |   |   pixel398 <= 5
|   |   |   |   |   |   |   |   |   |   |   |   |   |   |   pixel347 <= 62: 1 (12.0)
|   |   |   |   |   |   |   |   |   |   |   |   |   |   |   pixel347 > 62: 5 (8.0)
|   |   |   |   |   |   |   |   |   |   |   |   |   |   pixel398 > 5: 2 (2.0)
|   |   |   |   |   |   |   |   |   |   |   |   |   pixel515 > 99
|   |   |   |   |   |   |   |   |   |   |   |   |   |   pixel570 <= 99
|   |   |   |   |   |   |   |   |   |   |   |   |   |   |   pixel329 <= 78: 4 (12.0)
|   |   |   |   |   |   |   |   |   |   |   |   |   |   |   pixel329 > 78: 9 (2.0)
|   |   |   |   |   |   |   |   |   |   |   |   |   |   pixel570 > 99: 0 (2.0)
|   |   |   |   |   |   |   |   |   |   |   pixel162 > 1
|   |   |   |   |   |   |   |   |   |   |   |   pixel620 <= 61
|   |   |   |   |   |   |   |   |   |   |   |   |   pixel570 <= 41
|   |   |   |   |   |   |   |   |   |   |   |   |   |   pixel187 <= 80: 4 (37.0)
|   |   |   |   |   |   |   |   |   |   |   |   |   |   pixel187 > 80
|   |   |   |   |   |   |   |   |   |   |   |   |   |   |   pixel247 <= 0
|   |   |   |   |   |   |   |   |   |   |   |   |   |   |   |   pixel245 <= 120: 5 (13.0)
|   |   |   |   |   |   |   |   |   |   |   |   |   |   |   |   pixel245 > 120: 4 (2.0)
|   |   |   |   |   |   |   |   |   |   |   |   |   |   |   pixel247 > 0: 8 (2.0/1.0)
|   |   |   |   |   |   |   |   |   |   |   |   |   pixel570 > 41: 1 (4.0/1.0)
|   |   |   |   |   |   |   |   |   |   |   |   pixel620 > 61: 3 (2.0)
|   |   |   |   |   |   |   |   |   |   pixel131 > 1
|   |   |   |   |   |   |   |   |   |   |   pixel656 <= 43
|   |   |   |   |   |   |   |   |   |   |   |   pixel267 <= 28: 4 (11.0)
|   |   |   |   |   |   |   |   |   |   |   |   pixel267 > 28: 6 (18.0)
|   |   |   |   |   |   |   |   |   |   |   pixel656 > 43: 1 (8.0)
|   |   |   |   |   |   |   |   |   pixel95 > 5: 6 (31.0/2.0)
|   |   |   |   |   |   |   |   pixel595 > 2
|   |   |   |   |   |   |   |   |   pixel516 <= 33
|   |   |   |   |   |   |   |   |   |   pixel408 <= 124
|   |   |   |   |   |   |   |   |   |   |   pixel483 <= 1: 5 (25.0/3.0)
|   |   |   |   |   |   |   |   |   |   |   pixel483 > 1
|   |   |   |   |   |   |   |   |   |   |   |   pixel580 <= 252: 0 (52.0/1.0)
|   |   |   |   |   |   |   |   |   |   |   |   pixel580 > 252: 5 (3.0)
|   |   |   |   |   |   |   |   |   |   pixel408 > 124: 3 (4.0/1.0)
|   |   |   |   |   |   |   |   |   pixel516 > 33: 1 (2.0/1.0)
|   |   |   |   |   |   |   pixel155 > 1
|   |   |   |   |   |   |   |   pixel323 <= 83
|   |   |   |   |   |   |   |   |   pixel405 <= 36
|   |   |   |   |   |   |   |   |   |   pixel429 <= 6
|   |   |   |   |   |   |   |   |   |   |   pixel459 <= 82
|   |   |   |   |   |   |   |   |   |   |   |   pixel426 <= 45
|   |   |   |   |   |   |   |   |   |   |   |   |   pixel350 <= 201
|   |   |   |   |   |   |   |   |   |   |   |   |   |   pixel295 <= 138
|   |   |   |   |   |   |   |   |   |   |   |   |   |   |   pixel572 <= 0
|   |   |   |   |   |   |   |   |   |   |   |   |   |   |   |   pixel655 <= 232
|   |   |   |   |   |   |   |   |   |   |   |   |   |   |   |   |   pixel323 <= 4
|   |   |   |   |   |   |   |   |   |   |   |   |   |   |   |   |   |   pixel596 <= 32
|   |   |   |   |   |   |   |   |   |   |   |   |   |   |   |   |   |   |   pixel576 <= 4
|   |   |   |   |   |   |   |   |   |   |   |   |   |   |   |   |   |   |   |   pixel155 <= 208: 1 (2.0/1.0)
|   |   |   |   |   |   |   |   |   |   |   |   |   |   |   |   |   |   |   |   pixel155 > 208: 3 (2.0)
|   |   |   |   |   |   |   |   |   |   |   |   |   |   |   |   |   |   |   pixel576 > 4
|   |   |   |   |   |   |   |   |   |   |   |   |   |   |   |   |   |   |   |   pixel520 <= 217: 2 (10.0)
|   |   |   |   |   |   |   |   |   |   |   |   |   |   |   |   |   |   |   |   pixel520 > 217
|   |   |   |   |   |   |   |   |   |   |   |   |   |   |   |   |   |   |   |   |   pixel554 <= 2
|   |   |   |   |   |   |   |   |   |   |   |   |   |   |   |   |   |   |   |   |   |   pixel689 <= 68: 7 (9.0)
|   |   |   |   |   |   |   |   |   |   |   |   |   |   |   |   |   |   |   |   |   |   pixel689 > 68: 2 (3.0/1.0)
|   |   |   |   |   |   |   |   |   |   |   |   |   |   |   |   |   |   |   |   |   pixel554 > 2: 2 (2.0)
|   |   |   |   |   |   |   |   |   |   |   |   |   |   |   |   |   |   pixel596 > 32: 1 (2.0)
|   |   |   |   |   |   |   |   |   |   |   |   |   |   |   |   |   pixel323 > 4: 1 (2.0)
|   |   |   |   |   |   |   |   |   |   |   |   |   |   |   |   pixel655 > 232: 3 (13.0/1.0)
|   |   |   |   |   |   |   |   |   |   |   |   |   |   |   pixel572 > 0
|   |   |   |   |   |   |   |   |   |   |   |   |   |   |   |   pixel678 <= 2
|   |   |   |   |   |   |   |   |   |   |   |   |   |   |   |   |   pixel607 <= 8
|   |   |   |   |   |   |   |   |   |   |   |   |   |   |   |   |   |   pixel683 <= 40
|   |   |   |   |   |   |   |   |   |   |   |   |   |   |   |   |   |   |   pixel380 <= 253
|   |   |   |   |   |   |   |   |   |   |   |   |   |   |   |   |   |   |   |   pixel600 <= 8: 7 (2.0)
|   |   |   |   |   |   |   |   |   |   |   |   |   |   |   |   |   |   |   |   pixel600 > 8: 2 (44.0)
|   |   |   |   |   |   |   |   |   |   |   |   |   |   |   |   |   |   |   pixel380 > 253: 7 (2.0)
|   |   |   |   |   |   |   |   |   |   |   |   |   |   |   |   |   |   pixel683 > 40
|   |   |   |   |   |   |   |   |   |   |   |   |   |   |   |   |   |   |   pixel262 <= 51
|   |   |   |   |   |   |   |   |   |   |   |   |   |   |   |   |   |   |   |   pixel634 <= 83: 7 (12.0)
|   |   |   |   |   |   |   |   |   |   |   |   |   |   |   |   |   |   |   |   pixel634 > 83: 2 (3.0)
|   |   |   |   |   |   |   |   |   |   |   |   |   |   |   |   |   |   |   pixel262 > 51: 2 (6.0)
|   |   |   |   |   |   |   |   |   |   |   |   |   |   |   |   |   pixel607 > 8: 2 (139.0/4.0)
|   |   |   |   |   |   |   |   |   |   |   |   |   |   |   |   pixel678 > 2
|   |   |   |   |   |   |   |   |   |   |   |   |   |   |   |   |   pixel159 <= 127: 7 (3.0)
|   |   |   |   |   |   |   |   |   |   |   |   |   |   |   |   |   pixel159 > 127: 2 (2.0)
|   |   |   |   |   |   |   |   |   |   |   |   |   |   pixel295 > 138
|   |   |   |   |   |   |   |   |   |   |   |   |   |   |   pixel518 <= 126
|   |   |   |   |   |   |   |   |   |   |   |   |   |   |   |   pixel325 <= 51: 5 (4.0)
|   |   |   |   |   |   |   |   |   |   |   |   |   |   |   |   pixel325 > 51: 3 (2.0)
|   |   |   |   |   |   |   |   |   |   |   |   |   |   |   pixel518 > 126: 2 (3.0/1.0)
|   |   |   |   |   |   |   |   |   |   |   |   |   pixel350 > 201: 5 (6.0/1.0)
|   |   |   |   |   |   |   |   |   |   |   |   pixel426 > 45
|   |   |   |   |   |   |   |   |   |   |   |   |   pixel490 <= 78: 0 (6.0)
|   |   |   |   |   |   |   |   |   |   |   |   |   pixel490 > 78: 9 (4.0/1.0)
|   |   |   |   |   |   |   |   |   |   |   pixel459 > 82
|   |   |   |   |   |   |   |   |   |   |   |   pixel436 <= 28: 0 (15.0)
|   |   |   |   |   |   |   |   |   |   |   |   pixel436 > 28: 4 (2.0/1.0)
|   |   |   |   |   |   |   |   |   |   pixel429 > 6
|   |   |   |   |   |   |   |   |   |   |   pixel492 <= 5
|   |   |   |   |   |   |   |   |   |   |   |   pixel547 <= 253: 0 (117.0)
|   |   |   |   |   |   |   |   |   |   |   |   pixel547 > 253: 2 (2.0/1.0)
|   |   |   |   |   |   |   |   |   |   |   pixel492 > 5
|   |   |   |   |   |   |   |   |   |   |   |   pixel601 <= 200
|   |   |   |   |   |   |   |   |   |   |   |   |   pixel132 <= 19
|   |   |   |   |   |   |   |   |   |   |   |   |   |   pixel349 <= 2
|   |   |   |   |   |   |   |   |   |   |   |   |   |   |   pixel124 <= 5
|   |   |   |   |   |   |   |   |   |   |   |   |   |   |   |   pixel190 <= 2
|   |   |   |   |   |   |   |   |   |   |   |   |   |   |   |   |   pixel516 <= 253: 9 (22.0)
|   |   |   |   |   |   |   |   |   |   |   |   |   |   |   |   |   pixel516 > 253: 4 (3.0/1.0)
|   |   |   |   |   |   |   |   |   |   |   |   |   |   |   |   pixel190 > 2: 4 (3.0)
|   |   |   |   |   |   |   |   |   |   |   |   |   |   |   pixel124 > 5: 2 (2.0/1.0)
|   |   |   |   |   |   |   |   |   |   |   |   |   |   pixel349 > 2
|   |   |   |   |   |   |   |   |   |   |   |   |   |   |   pixel153 <= 23: 4 (9.0)
|   |   |   |   |   |   |   |   |   |   |   |   |   |   |   pixel153 > 23: 2 (2.0/1.0)
|   |   |   |   |   |   |   |   |   |   |   |   |   pixel132 > 19: 6 (4.0/1.0)
|   |   |   |   |   |   |   |   |   |   |   |   pixel601 > 200
|   |   |   |   |   |   |   |   |   |   |   |   |   pixel344 <= 50: 6 (7.0/1.0)
|   |   |   |   |   |   |   |   |   |   |   |   |   pixel344 > 50: 2 (4.0)
|   |   |   |   |   |   |   |   |   pixel405 > 36
|   |   |   |   |   |   |   |   |   |   pixel496 <= 51
|   |   |   |   |   |   |   |   |   |   |   pixel409 <= 34: 5 (9.0)
|   |   |   |   |   |   |   |   |   |   |   pixel409 > 34: 8 (10.0/1.0)
|   |   |   |   |   |   |   |   |   |   pixel496 > 51: 2 (2.0/1.0)
|   |   |   |   |   |   |   |   pixel323 > 83
|   |   |   |   |   |   |   |   |   pixel487 <= 208
|   |   |   |   |   |   |   |   |   |   pixel331 <= 21
|   |   |   |   |   |   |   |   |   |   |   pixel491 <= 78
|   |   |   |   |   |   |   |   |   |   |   |   pixel276 <= 3
|   |   |   |   |   |   |   |   |   |   |   |   |   pixel268 <= 4
|   |   |   |   |   |   |   |   |   |   |   |   |   |   pixel491 <= 10
|   |   |   |   |   |   |   |   |   |   |   |   |   |   |   pixel272 <= 12
|   |   |   |   |   |   |   |   |   |   |   |   |   |   |   |   pixel201 <= 99
|   |   |   |   |   |   |   |   |   |   |   |   |   |   |   |   |   pixel157 <= 22
|   |   |   |   |   |   |   |   |   |   |   |   |   |   |   |   |   |   pixel187 <= 17
|   |   |   |   |   |   |   |   |   |   |   |   |   |   |   |   |   |   |   pixel234 <= 220: 3 (14.0/1.0)
|   |   |   |   |   |   |   |   |   |   |   |   |   |   |   |   |   |   |   pixel234 > 220: 9 (2.0)
|   |   |   |   |   |   |   |   |   |   |   |   |   |   |   |   |   |   pixel187 > 17: 5 (5.0)
|   |   |   |   |   |   |   |   |   |   |   |   |   |   |   |   |   pixel157 > 22: 5 (91.0/2.0)
|   |   |   |   |   |   |   |   |   |   |   |   |   |   |   |   pixel201 > 99: 3 (2.0)
|   |   |   |   |   |   |   |   |   |   |   |   |   |   |   pixel272 > 12
|   |   |   |   |   |   |   |   |   |   |   |   |   |   |   |   pixel515 <= 32: 3 (8.0)
|   |   |   |   |   |   |   |   |   |   |   |   |   |   |   |   pixel515 > 32: 9 (2.0)
|   |   |   |   |   |   |   |   |   |   |   |   |   |   pixel491 > 10: 2 (2.0/1.0)
|   |   |   |   |   |   |   |   |   |   |   |   |   pixel268 > 4
|   |   |   |   |   |   |   |   |   |   |   |   |   |   pixel237 <= 243
|   |   |   |   |   |   |   |   |   |   |   |   |   |   |   pixel693 <= 23
|   |   |   |   |   |   |   |   |   |   |   |   |   |   |   |   pixel235 <= 253
|   |   |   |   |   |   |   |   |   |   |   |   |   |   |   |   |   pixel664 <= 247
|   |   |   |   |   |   |   |   |   |   |   |   |   |   |   |   |   |   pixel263 <= 196
|   |   |   |   |   |   |   |   |   |   |   |   |   |   |   |   |   |   |   pixel465 <= 213: 3 (108.0/2.0)
|   |   |   |   |   |   |   |   |   |   |   |   |   |   |   |   |   |   |   pixel465 > 213
|   |   |   |   |   |   |   |   |   |   |   |   |   |   |   |   |   |   |   |   pixel265 <= 22: 3 (4.0)
|   |   |   |   |   |   |   |   |   |   |   |   |   |   |   |   |   |   |   |   pixel265 > 22: 9 (2.0)
|   |   |   |   |   |   |   |   |   |   |   |   |   |   |   |   |   |   pixel263 > 196: 5 (3.0/1.0)
|   |   |   |   |   |   |   |   |   |   |   |   |   |   |   |   |   pixel664 > 247: 5 (3.0/1.0)
|   |   |   |   |   |   |   |   |   |   |   |   |   |   |   |   pixel235 > 253: 9 (4.0)
|   |   |   |   |   |   |   |   |   |   |   |   |   |   |   pixel693 > 23: 8 (2.0/1.0)
|   |   |   |   |   |   |   |   |   |   |   |   |   |   pixel237 > 243: 5 (7.0)
|   |   |   |   |   |   |   |   |   |   |   |   pixel276 > 3: 0 (3.0/2.0)
|   |   |   |   |   |   |   |   |   |   |   pixel491 > 78
|   |   |   |   |   |   |   |   |   |   |   |   pixel124 <= 1
|   |   |   |   |   |   |   |   |   |   |   |   |   pixel152 <= 26
|   |   |   |   |   |   |   |   |   |   |   |   |   |   pixel208 <= 40: 1 (4.0)
|   |   |   |   |   |   |   |   |   |   |   |   |   |   pixel208 > 40: 9 (2.0)
|   |   |   |   |   |   |   |   |   |   |   |   |   pixel152 > 26: 8 (2.0)
|   |   |   |   |   |   |   |   |   |   |   |   pixel124 > 1: 2 (2.0)
|   |   |   |   |   |   |   |   |   |   pixel331 > 21: 0 (6.0)
|   |   |   |   |   |   |   |   |   pixel487 > 208: 6 (4.0/1.0)
|   |   |   |   |   |   pixel406 > 65
|   |   |   |   |   |   |   pixel382 <= 10
|   |   |   |   |   |   |   |   pixel381 <= 86
|   |   |   |   |   |   |   |   |   pixel385 <= 1
|   |   |   |   |   |   |   |   |   |   pixel150 <= 16
|   |   |   |   |   |   |   |   |   |   |   pixel742 <= 31
|   |   |   |   |   |   |   |   |   |   |   |   pixel486 <= 159
|   |   |   |   |   |   |   |   |   |   |   |   |   pixel351 <= 11
|   |   |   |   |   |   |   |   |   |   |   |   |   |   pixel123 <= 7
|   |   |   |   |   |   |   |   |   |   |   |   |   |   |   pixel720 <= 41
|   |   |   |   |   |   |   |   |   |   |   |   |   |   |   |   pixel404 <= 4
|   |   |   |   |   |   |   |   |   |   |   |   |   |   |   |   |   pixel409 <= 27
|   |   |   |   |   |   |   |   |   |   |   |   |   |   |   |   |   |   pixel690 <= 64: 5 (13.0/2.0)
|   |   |   |   |   |   |   |   |   |   |   |   |   |   |   |   |   |   pixel690 > 64: 1 (5.0)
|   |   |   |   |   |   |   |   |   |   |   |   |   |   |   |   |   pixel409 > 27: 3 (3.0)
|   |   |   |   |   |   |   |   |   |   |   |   |   |   |   |   pixel404 > 4
|   |   |   |   |   |   |   |   |   |   |   |   |   |   |   |   |   pixel322 <= 127: 5 (200.0/7.0)
|   |   |   |   |   |   |   |   |   |   |   |   |   |   |   |   |   pixel322 > 127
|   |   |   |   |   |   |   |   |   |   |   |   |   |   |   |   |   |   pixel468 <= 115
|   |   |   |   |   |   |   |   |   |   |   |   |   |   |   |   |   |   |   pixel180 <= 60: 5 (36.0/1.0)
|   |   |   |   |   |   |   |   |   |   |   |   |   |   |   |   |   |   |   pixel180 > 60: 3 (8.0/1.0)
|   |   |   |   |   |   |   |   |   |   |   |   |   |   |   |   |   |   pixel468 > 115: 3 (4.0)
|   |   |   |   |   |   |   |   |   |   |   |   |   |   |   pixel720 > 41: 9 (3.0/1.0)
|   |   |   |   |   |   |   |   |   |   |   |   |   |   pixel123 > 7: 3 (3.0)
|   |   |   |   |   |   |   |   |   |   |   |   |   pixel351 > 11
|   |   |   |   |   |   |   |   |   |   |   |   |   |   pixel519 <= 83
|   |   |   |   |   |   |   |   |   |   |   |   |   |   |   pixel132 <= 19
|   |   |   |   |   |   |   |   |   |   |   |   |   |   |   |   pixel489 <= 40
|   |   |   |   |   |   |   |   |   |   |   |   |   |   |   |   |   pixel323 <= 148: 5 (6.0)
|   |   |   |   |   |   |   |   |   |   |   |   |   |   |   |   |   pixel323 > 148
|   |   |   |   |   |   |   |   |   |   |   |   |   |   |   |   |   |   pixel344 <= 40: 3 (35.0)
|   |   |   |   |   |   |   |   |   |   |   |   |   |   |   |   |   |   pixel344 > 40: 5 (2.0)
|   |   |   |   |   |   |   |   |   |   |   |   |   |   |   |   pixel489 > 40: 5 (3.0/1.0)
|   |   |   |   |   |   |   |   |   |   |   |   |   |   |   pixel132 > 19: 1 (2.0/1.0)
|   |   |   |   |   |   |   |   |   |   |   |   |   |   pixel519 > 83
|   |   |   |   |   |   |   |   |   |   |   |   |   |   |   pixel521 <= 23: 1 (10.0)
|   |   |   |   |   |   |   |   |   |   |   |   |   |   |   pixel521 > 23: 5 (7.0)
|   |   |   |   |   |   |   |   |   |   |   |   pixel486 > 159
|   |   |   |   |   |   |   |   |   |   |   |   |   pixel657 <= 7
|   |   |   |   |   |   |   |   |   |   |   |   |   |   pixel130 <= 30: 5 (4.0)
|   |   |   |   |   |   |   |   |   |   |   |   |   |   pixel130 > 30: 6 (2.0)
|   |   |   |   |   |   |   |   |   |   |   |   |   pixel657 > 7: 8 (3.0)
|   |   |   |   |   |   |   |   |   |   |   pixel742 > 31: 9 (4.0/1.0)
|   |   |   |   |   |   |   |   |   |   pixel150 > 16
|   |   |   |   |   |   |   |   |   |   |   pixel317 <= 37: 3 (53.0)
|   |   |   |   |   |   |   |   |   |   |   pixel317 > 37: 5 (7.0)
|   |   |   |   |   |   |   |   |   pixel385 > 1
|   |   |   |   |   |   |   |   |   |   pixel324 <= 88
|   |   |   |   |   |   |   |   |   |   |   pixel683 <= 58
|   |   |   |   |   |   |   |   |   |   |   |   pixel511 <= 18
|   |   |   |   |   |   |   |   |   |   |   |   |   pixel212 <= 70: 4 (16.0)
|   |   |   |   |   |   |   |   |   |   |   |   |   pixel212 > 70: 8 (3.0)
|   |   |   |   |   |   |   |   |   |   |   |   pixel511 > 18: 2 (9.0)
|   |   |   |   |   |   |   |   |   |   |   pixel683 > 58: 9 (3.0)
|   |   |   |   |   |   |   |   |   |   pixel324 > 88
|   |   |   |   |   |   |   |   |   |   |   pixel231 <= 3: 5 (3.0)
|   |   |   |   |   |   |   |   |   |   |   pixel231 > 3: 3 (2.0/1.0)
|   |   |   |   |   |   |   |   pixel381 > 86
|   |   |   |   |   |   |   |   |   pixel662 <= 9
|   |   |   |   |   |   |   |   |   |   pixel208 <= 31: 4 (7.0)
|   |   |   |   |   |   |   |   |   |   pixel208 > 31: 7 (2.0)
|   |   |   |   |   |   |   |   |   pixel662 > 9
|   |   |   |   |   |   |   |   |   |   pixel410 <= 47: 8 (15.0)
|   |   |   |   |   |   |   |   |   |   pixel410 > 47: 3 (2.0/1.0)
|   |   |   |   |   |   |   pixel382 > 10
|   |   |   |   |   |   |   |   pixel156 <= 4
|   |   |   |   |   |   |   |   |   pixel555 <= 2
|   |   |   |   |   |   |   |   |   |   pixel212 <= 34
|   |   |   |   |   |   |   |   |   |   |   pixel743 <= 151
|   |   |   |   |   |   |   |   |   |   |   |   pixel745 <= 42
|   |   |   |   |   |   |   |   |   |   |   |   |   pixel437 <= 21
|   |   |   |   |   |   |   |   |   |   |   |   |   |   pixel427 <= 63: 9 (5.0/2.0)
|   |   |   |   |   |   |   |   |   |   |   |   |   |   pixel427 > 63: 4 (2.0)
|   |   |   |   |   |   |   |   |   |   |   |   |   pixel437 > 21
|   |   |   |   |   |   |   |   |   |   |   |   |   |   pixel404 <= 12: 8 (3.0/1.0)
|   |   |   |   |   |   |   |   |   |   |   |   |   |   pixel404 > 12: 4 (206.0/4.0)
|   |   |   |   |   |   |   |   |   |   |   |   pixel745 > 42: 9 (3.0/1.0)
|   |   |   |   |   |   |   |   |   |   |   pixel743 > 151: 7 (4.0/1.0)
|   |   |   |   |   |   |   |   |   |   pixel212 > 34
|   |   |   |   |   |   |   |   |   |   |   pixel622 <= 13
|   |   |   |   |   |   |   |   |   |   |   |   pixel427 <= 4
|   |   |   |   |   |   |   |   |   |   |   |   |   pixel163 <= 14
|   |   |   |   |   |   |   |   |   |   |   |   |   |   pixel462 <= 179
|   |   |   |   |   |   |   |   |   |   |   |   |   |   |   pixel609 <= 8
|   |   |   |   |   |   |   |   |   |   |   |   |   |   |   |   pixel442 <= 138
|   |   |   |   |   |   |   |   |   |   |   |   |   |   |   |   |   pixel149 <= 4
|   |   |   |   |   |   |   |   |   |   |   |   |   |   |   |   |   |   pixel636 <= 181
|   |   |   |   |   |   |   |   |   |   |   |   |   |   |   |   |   |   |   pixel457 <= 63
|   |   |   |   |   |   |   |   |   |   |   |   |   |   |   |   |   |   |   |   pixel287 <= 237
|   |   |   |   |   |   |   |   |   |   |   |   |   |   |   |   |   |   |   |   |   pixel157 <= 41
|   |   |   |   |   |   |   |   |   |   |   |   |   |   |   |   |   |   |   |   |   |   pixel180 <= 254
|   |   |   |   |   |   |   |   |   |   |   |   |   |   |   |   |   |   |   |   |   |   |   pixel343 <= 238
|   |   |   |   |   |   |   |   |   |   |   |   |   |   |   |   |   |   |   |   |   |   |   |   pixel428 <= 23
|   |   |   |   |   |   |   |   |   |   |   |   |   |   |   |   |   |   |   |   |   |   |   |   |   pixel378 <= 141: 9 (160.0/5.0)
|   |   |   |   |   |   |   |   |   |   |   |   |   |   |   |   |   |   |   |   |   |   |   |   |   pixel378 > 141
|   |   |   |   |   |   |   |   |   |   |   |   |   |   |   |   |   |   |   |   |   |   |   |   |   |   pixel316 <= 9
|   |   |   |   |   |   |   |   |   |   |   |   |   |   |   |   |   |   |   |   |   |   |   |   |   |   |   pixel409 <= 226: 8 (2.0)
|   |   |   |   |   |   |   |   |   |   |   |   |   |   |   |   |   |   |   |   |   |   |   |   |   |   |   pixel409 > 226: 9 (8.0)
|   |   |   |   |   |   |   |   |   |   |   |   |   |   |   |   |   |   |   |   |   |   |   |   |   |   pixel316 > 9: 4 (2.0)
|   |   |   |   |   |   |   |   |   |   |   |   |   |   |   |   |   |   |   |   |   |   |   |   pixel428 > 23
|   |   |   |   |   |   |   |   |   |   |   |   |   |   |   |   |   |   |   |   |   |   |   |   |   pixel237 <= 9: 4 (4.0)
|   |   |   |   |   |   |   |   |   |   |   |   |   |   |   |   |   |   |   |   |   |   |   |   |   pixel237 > 9: 9 (3.0)
|   |   |   |   |   |   |   |   |   |   |   |   |   |   |   |   |   |   |   |   |   |   |   pixel343 > 238: 4 (2.0/1.0)
|   |   |   |   |   |   |   |   |   |   |   |   |   |   |   |   |   |   |   |   |   |   pixel180 > 254: 3 (2.0/1.0)
|   |   |   |   |   |   |   |   |   |   |   |   |   |   |   |   |   |   |   |   |   pixel157 > 41: 4 (2.0)
|   |   |   |   |   |   |   |   |   |   |   |   |   |   |   |   |   |   |   |   pixel287 > 237: 8 (3.0/1.0)
|   |   |   |   |   |   |   |   |   |   |   |   |   |   |   |   |   |   |   pixel457 > 63: 4 (2.0)
|   |   |   |   |   |   |   |   |   |   |   |   |   |   |   |   |   |   pixel636 > 181: 8 (2.0)
|   |   |   |   |   |   |   |   |   |   |   |   |   |   |   |   |   pixel149 > 4: 4 (2.0)
|   |   |   |   |   |   |   |   |   |   |   |   |   |   |   |   pixel442 > 138: 7 (3.0/1.0)
|   |   |   |   |   |   |   |   |   |   |   |   |   |   |   pixel609 > 8: 8 (4.0)
|   |   |   |   |   |   |   |   |   |   |   |   |   |   pixel462 > 179
|   |   |   |   |   |   |   |   |   |   |   |   |   |   |   pixel376 <= 3
|   |   |   |   |   |   |   |   |   |   |   |   |   |   |   |   pixel180 <= 1: 7 (4.0)
|   |   |   |   |   |   |   |   |   |   |   |   |   |   |   |   pixel180 > 1: 3 (2.0/1.0)
|   |   |   |   |   |   |   |   |   |   |   |   |   |   |   pixel376 > 3
|   |   |   |   |   |   |   |   |   |   |   |   |   |   |   |   pixel441 <= 65
|   |   |   |   |   |   |   |   |   |   |   |   |   |   |   |   |   pixel680 <= 55
|   |   |   |   |   |   |   |   |   |   |   |   |   |   |   |   |   |   pixel656 <= 254
|   |   |   |   |   |   |   |   |   |   |   |   |   |   |   |   |   |   |   pixel211 <= 84: 4 (3.0/1.0)
|   |   |   |   |   |   |   |   |   |   |   |   |   |   |   |   |   |   |   pixel211 > 84
|   |   |   |   |   |   |   |   |   |   |   |   |   |   |   |   |   |   |   |   pixel433 <= 251: 8 (41.0)
|   |   |   |   |   |   |   |   |   |   |   |   |   |   |   |   |   |   |   |   pixel433 > 251
|   |   |   |   |   |   |   |   |   |   |   |   |   |   |   |   |   |   |   |   |   pixel320 <= 30: 8 (4.0)
|   |   |   |   |   |   |   |   |   |   |   |   |   |   |   |   |   |   |   |   |   pixel320 > 30: 9 (2.0)
|   |   |   |   |   |   |   |   |   |   |   |   |   |   |   |   |   |   pixel656 > 254: 9 (3.0)
|   |   |   |   |   |   |   |   |   |   |   |   |   |   |   |   |   pixel680 > 55: 4 (3.0/1.0)
|   |   |   |   |   |   |   |   |   |   |   |   |   |   |   |   pixel441 > 65: 4 (2.0/1.0)
|   |   |   |   |   |   |   |   |   |   |   |   |   pixel163 > 14: 4 (6.0)
|   |   |   |   |   |   |   |   |   |   |   |   pixel427 > 4: 4 (10.0)
|   |   |   |   |   |   |   |   |   |   |   pixel622 > 13: 3 (5.0)
|   |   |   |   |   |   |   |   |   pixel555 > 2
|   |   |   |   |   |   |   |   |   |   pixel159 <= 9: 3 (5.0/1.0)
|   |   |   |   |   |   |   |   |   |   pixel159 > 9: 2 (2.0/1.0)
|   |   |   |   |   |   |   |   pixel156 > 4
|   |   |   |   |   |   |   |   |   pixel513 <= 10
|   |   |   |   |   |   |   |   |   |   pixel122 <= 6
|   |   |   |   |   |   |   |   |   |   |   pixel678 <= 1
|   |   |   |   |   |   |   |   |   |   |   |   pixel456 <= 5
|   |   |   |   |   |   |   |   |   |   |   |   |   pixel324 <= 237
|   |   |   |   |   |   |   |   |   |   |   |   |   |   pixel595 <= 3
|   |   |   |   |   |   |   |   |   |   |   |   |   |   |   pixel441 <= 196
|   |   |   |   |   |   |   |   |   |   |   |   |   |   |   |   pixel414 <= 1
|   |   |   |   |   |   |   |   |   |   |   |   |   |   |   |   |   pixel680 <= 6
|   |   |   |   |   |   |   |   |   |   |   |   |   |   |   |   |   |   pixel459 <= 12
|   |   |   |   |   |   |   |   |   |   |   |   |   |   |   |   |   |   |   pixel490 <= 2
|   |   |   |   |   |   |   |   |   |   |   |   |   |   |   |   |   |   |   |   pixel261 <= 9
|   |   |   |   |   |   |   |   |   |   |   |   |   |   |   |   |   |   |   |   |   pixel214 <= 10: 4 (5.0/1.0)
|   |   |   |   |   |   |   |   |   |   |   |   |   |   |   |   |   |   |   |   |   pixel214 > 10: 9 (3.0)
|   |   |   |   |   |   |   |   |   |   |   |   |   |   |   |   |   |   |   |   pixel261 > 9: 8 (4.0)
|   |   |   |   |   |   |   |   |   |   |   |   |   |   |   |   |   |   |   pixel490 > 2
|   |   |   |   |   |   |   |   |   |   |   |   |   |   |   |   |   |   |   |   pixel239 <= 247: 8 (164.0/1.0)
|   |   |   |   |   |   |   |   |   |   |   |   |   |   |   |   |   |   |   |   pixel239 > 247
|   |   |   |   |   |   |   |   |   |   |   |   |   |   |   |   |   |   |   |   |   pixel411 <= 168: 8 (6.0)
|   |   |   |   |   |   |   |   |   |   |   |   |   |   |   |   |   |   |   |   |   pixel411 > 168: 4 (3.0/1.0)
|   |   |   |   |   |   |   |   |   |   |   |   |   |   |   |   |   |   pixel459 > 12: 9 (4.0/1.0)
|   |   |   |   |   |   |   |   |   |   |   |   |   |   |   |   |   pixel680 > 6: 9 (2.0)
|   |   |   |   |   |   |   |   |   |   |   |   |   |   |   |   pixel414 > 1: 4 (2.0/1.0)
|   |   |   |   |   |   |   |   |   |   |   |   |   |   |   pixel441 > 196: 5 (2.0)
|   |   |   |   |   |   |   |   |   |   |   |   |   |   pixel595 > 3: 5 (4.0/1.0)
|   |   |   |   |   |   |   |   |   |   |   |   |   pixel324 > 237: 4 (6.0/1.0)
|   |   |   |   |   |   |   |   |   |   |   |   pixel456 > 5: 4 (8.0/1.0)
|   |   |   |   |   |   |   |   |   |   |   pixel678 > 1: 3 (4.0/1.0)
|   |   |   |   |   |   |   |   |   |   pixel122 > 6: 3 (7.0/1.0)
|   |   |   |   |   |   |   |   |   pixel513 > 10: 2 (3.0)
|   |   |   |   |   pixel460 > 0
|   |   |   |   |   |   pixel103 <= 0
|   |   |   |   |   |   |   pixel212 <= 20
|   |   |   |   |   |   |   |   pixel68 <= 0
|   |   |   |   |   |   |   |   |   pixel623 <= 2
|   |   |   |   |   |   |   |   |   |   pixel156 <= 99
|   |   |   |   |   |   |   |   |   |   |   pixel94 <= 9
|   |   |   |   |   |   |   |   |   |   |   |   pixel268 <= 45
|   |   |   |   |   |   |   |   |   |   |   |   |   pixel323 <= 78
|   |   |   |   |   |   |   |   |   |   |   |   |   |   pixel128 <= 4
|   |   |   |   |   |   |   |   |   |   |   |   |   |   |   pixel474 <= 3
|   |   |   |   |   |   |   |   |   |   |   |   |   |   |   |   pixel556 <= 0
|   |   |   |   |   |   |   |   |   |   |   |   |   |   |   |   |   pixel721 <= 25
|   |   |   |   |   |   |   |   |   |   |   |   |   |   |   |   |   |   pixel543 <= 224
|   |   |   |   |   |   |   |   |   |   |   |   |   |   |   |   |   |   |   pixel250 <= 11
|   |   |   |   |   |   |   |   |   |   |   |   |   |   |   |   |   |   |   |   pixel718 <= 127
|   |   |   |   |   |   |   |   |   |   |   |   |   |   |   |   |   |   |   |   |   pixel155 <= 94: 4 (2475.0/17.0)
|   |   |   |   |   |   |   |   |   |   |   |   |   |   |   |   |   |   |   |   |   pixel155 > 94
|   |   |   |   |   |   |   |   |   |   |   |   |   |   |   |   |   |   |   |   |   |   pixel233 <= 75: 4 (85.0/3.0)
|   |   |   |   |   |   |   |   |   |   |   |   |   |   |   |   |   |   |   |   |   |   pixel233 > 75: 9 (3.0)
|   |   |   |   |   |   |   |   |   |   |   |   |   |   |   |   |   |   |   |   pixel718 > 127
|   |   |   |   |   |   |   |   |   |   |   |   |   |   |   |   |   |   |   |   |   pixel745 <= 22
|   |   |   |   |   |   |   |   |   |   |   |   |   |   |   |   |   |   |   |   |   |   pixel182 <= 75: 4 (53.0)
|   |   |   |   |   |   |   |   |   |   |   |   |   |   |   |   |   |   |   |   |   |   pixel182 > 75
|   |   |   |   |   |   |   |   |   |   |   |   |   |   |   |   |   |   |   |   |   |   |   pixel189 <= 39: 9 (3.0)
|   |   |   |   |   |   |   |   |   |   |   |   |   |   |   |   |   |   |   |   |   |   |   pixel189 > 39: 4 (2.0)
|   |   |   |   |   |   |   |   |   |   |   |   |   |   |   |   |   |   |   |   |   pixel745 > 22: 9 (2.0)
|   |   |   |   |   |   |   |   |   |   |   |   |   |   |   |   |   |   |   pixel250 > 11
|   |   |   |   |   |   |   |   |   |   |   |   |   |   |   |   |   |   |   |   pixel429 <= 66: 8 (3.0)
|   |   |   |   |   |   |   |   |   |   |   |   |   |   |   |   |   |   |   |   pixel429 > 66: 4 (22.0/1.0)
|   |   |   |   |   |   |   |   |   |   |   |   |   |   |   |   |   |   pixel543 > 224
|   |   |   |   |   |   |   |   |   |   |   |   |   |   |   |   |   |   |   pixel515 <= 239: 1 (2.0/1.0)
|   |   |   |   |   |   |   |   |   |   |   |   |   |   |   |   |   |   |   pixel515 > 239
|   |   |   |   |   |   |   |   |   |   |   |   |   |   |   |   |   |   |   |   pixel514 <= 199: 6 (4.0)
|   |   |   |   |   |   |   |   |   |   |   |   |   |   |   |   |   |   |   |   pixel514 > 199: 4 (20.0/1.0)
|   |   |   |   |   |   |   |   |   |   |   |   |   |   |   |   |   pixel721 > 25
|   |   |   |   |   |   |   |   |   |   |   |   |   |   |   |   |   |   pixel239 <= 32
|   |   |   |   |   |   |   |   |   |   |   |   |   |   |   |   |   |   |   pixel435 <= 233
|   |   |   |   |   |   |   |   |   |   |   |   |   |   |   |   |   |   |   |   pixel208 <= 61: 4 (3.0)
|   |   |   |   |   |   |   |   |   |   |   |   |   |   |   |   |   |   |   |   pixel208 > 61: 9 (6.0)
|   |   |   |   |   |   |   |   |   |   |   |   |   |   |   |   |   |   |   pixel435 > 233: 4 (18.0)
|   |   |   |   |   |   |   |   |   |   |   |   |   |   |   |   |   |   pixel239 > 32: 9 (2.0)
|   |   |   |   |   |   |   |   |   |   |   |   |   |   |   |   pixel556 > 0
|   |   |   |   |   |   |   |   |   |   |   |   |   |   |   |   |   pixel400 <= 32
|   |   |   |   |   |   |   |   |   |   |   |   |   |   |   |   |   |   pixel410 <= 53: 2 (7.0)
|   |   |   |   |   |   |   |   |   |   |   |   |   |   |   |   |   |   pixel410 > 53: 3 (2.0/1.0)
|   |   |   |   |   |   |   |   |   |   |   |   |   |   |   |   |   pixel400 > 32: 4 (18.0/1.0)
|   |   |   |   |   |   |   |   |   |   |   |   |   |   |   pixel474 > 3
|   |   |   |   |   |   |   |   |   |   |   |   |   |   |   |   pixel382 <= 2: 2 (10.0/1.0)
|   |   |   |   |   |   |   |   |   |   |   |   |   |   |   |   pixel382 > 2: 4 (15.0)
|   |   |   |   |   |   |   |   |   |   |   |   |   |   pixel128 > 4
|   |   |   |   |   |   |   |   |   |   |   |   |   |   |   pixel599 <= 14
|   |   |   |   |   |   |   |   |   |   |   |   |   |   |   |   pixel573 <= 46: 4 (14.0)
|   |   |   |   |   |   |   |   |   |   |   |   |   |   |   |   pixel573 > 46: 6 (5.0)
|   |   |   |   |   |   |   |   |   |   |   |   |   |   |   pixel599 > 14
|   |   |   |   |   |   |   |   |   |   |   |   |   |   |   |   pixel297 <= 23: 0 (4.0)
|   |   |   |   |   |   |   |   |   |   |   |   |   |   |   |   pixel297 > 23: 8 (2.0)
|   |   |   |   |   |   |   |   |   |   |   |   |   pixel323 > 78
|   |   |   |   |   |   |   |   |   |   |   |   |   |   pixel370 <= 55
|   |   |   |   |   |   |   |   |   |   |   |   |   |   |   pixel501 <= 8
|   |   |   |   |   |   |   |   |   |   |   |   |   |   |   |   pixel581 <= 126
|   |   |   |   |   |   |   |   |   |   |   |   |   |   |   |   |   pixel233 <= 40
|   |   |   |   |   |   |   |   |   |   |   |   |   |   |   |   |   |   pixel257 <= 22
|   |   |   |   |   |   |   |   |   |   |   |   |   |   |   |   |   |   |   pixel382 <= 44
|   |   |   |   |   |   |   |   |   |   |   |   |   |   |   |   |   |   |   |   pixel266 <= 155: 5 (11.0)
|   |   |   |   |   |   |   |   |   |   |   |   |   |   |   |   |   |   |   |   pixel266 > 155: 4 (2.0/1.0)
|   |   |   |   |   |   |   |   |   |   |   |   |   |   |   |   |   |   |   pixel382 > 44
|   |   |   |   |   |   |   |   |   |   |   |   |   |   |   |   |   |   |   |   pixel222 <= 126
|   |   |   |   |   |   |   |   |   |   |   |   |   |   |   |   |   |   |   |   |   pixel350 <= 8: 8 (2.0)
|   |   |   |   |   |   |   |   |   |   |   |   |   |   |   |   |   |   |   |   |   pixel350 > 8: 4 (18.0)
|   |   |   |   |   |   |   |   |   |   |   |   |   |   |   |   |   |   |   |   pixel222 > 126: 8 (2.0)
|   |   |   |   |   |   |   |   |   |   |   |   |   |   |   |   |   |   pixel257 > 22: 7 (2.0)
|   |   |   |   |   |   |   |   |   |   |   |   |   |   |   |   |   pixel233 > 40
|   |   |   |   |   |   |   |   |   |   |   |   |   |   |   |   |   |   pixel571 <= 60: 7 (6.0)
|   |   |   |   |   |   |   |   |   |   |   |   |   |   |   |   |   |   pixel571 > 60: 2 (2.0/1.0)
|   |   |   |   |   |   |   |   |   |   |   |   |   |   |   |   pixel581 > 126: 3 (5.0/1.0)
|   |   |   |   |   |   |   |   |   |   |   |   |   |   |   pixel501 > 8: 2 (7.0)
|   |   |   |   |   |   |   |   |   |   |   |   |   |   pixel370 > 55: 9 (3.0)
|   |   |   |   |   |   |   |   |   |   |   |   pixel268 > 45
|   |   |   |   |   |   |   |   |   |   |   |   |   pixel133 <= 177
|   |   |   |   |   |   |   |   |   |   |   |   |   |   pixel382 <= 2
|   |   |   |   |   |   |   |   |   |   |   |   |   |   |   pixel385 <= 2
|   |   |   |   |   |   |   |   |   |   |   |   |   |   |   |   pixel147 <= 16
|   |   |   |   |   |   |   |   |   |   |   |   |   |   |   |   |   pixel381 <= 42
|   |   |   |   |   |   |   |   |   |   |   |   |   |   |   |   |   |   pixel413 <= 14: 5 (102.0/2.0)
|   |   |   |   |   |   |   |   |   |   |   |   |   |   |   |   |   |   pixel413 > 14: 3 (2.0/1.0)
|   |   |   |   |   |   |   |   |   |   |   |   |   |   |   |   |   pixel381 > 42
|   |   |   |   |   |   |   |   |   |   |   |   |   |   |   |   |   |   pixel239 <= 17: 4 (3.0)
|   |   |   |   |   |   |   |   |   |   |   |   |   |   |   |   |   |   pixel239 > 17: 7 (3.0/1.0)
|   |   |   |   |   |   |   |   |   |   |   |   |   |   |   |   pixel147 > 16: 2 (2.0)
|   |   |   |   |   |   |   |   |   |   |   |   |   |   |   pixel385 > 2
|   |   |   |   |   |   |   |   |   |   |   |   |   |   |   |   pixel543 <= 67
|   |   |   |   |   |   |   |   |   |   |   |   |   |   |   |   |   pixel230 <= 7
|   |   |   |   |   |   |   |   |   |   |   |   |   |   |   |   |   |   pixel403 <= 33: 9 (9.0)
|   |   |   |   |   |   |   |   |   |   |   |   |   |   |   |   |   |   pixel403 > 33: 4 (7.0/1.0)
|   |   |   |   |   |   |   |   |   |   |   |   |   |   |   |   |   pixel230 > 7: 7 (6.0)
|   |   |   |   |   |   |   |   |   |   |   |   |   |   |   |   pixel543 > 67
|   |   |   |   |   |   |   |   |   |   |   |   |   |   |   |   |   pixel207 <= 5: 2 (2.0)
|   |   |   |   |   |   |   |   |   |   |   |   |   |   |   |   |   pixel207 > 5: 0 (2.0)
|   |   |   |   |   |   |   |   |   |   |   |   |   |   pixel382 > 2
|   |   |   |   |   |   |   |   |   |   |   |   |   |   |   pixel557 <= 5
|   |   |   |   |   |   |   |   |   |   |   |   |   |   |   |   pixel147 <= 5
|   |   |   |   |   |   |   |   |   |   |   |   |   |   |   |   |   pixel186 <= 76
|   |   |   |   |   |   |   |   |   |   |   |   |   |   |   |   |   |   pixel192 <= 28
|   |   |   |   |   |   |   |   |   |   |   |   |   |   |   |   |   |   |   pixel267 <= 17
|   |   |   |   |   |   |   |   |   |   |   |   |   |   |   |   |   |   |   |   pixel437 <= 192: 8 (2.0/1.0)
|   |   |   |   |   |   |   |   |   |   |   |   |   |   |   |   |   |   |   |   pixel437 > 192: 4 (14.0)
|   |   |   |   |   |   |   |   |   |   |   |   |   |   |   |   |   |   |   pixel267 > 17
|   |   |   |   |   |   |   |   |   |   |   |   |   |   |   |   |   |   |   |   pixel126 <= 18
|   |   |   |   |   |   |   |   |   |   |   |   |   |   |   |   |   |   |   |   |   pixel162 <= 2
|   |   |   |   |   |   |   |   |   |   |   |   |   |   |   |   |   |   |   |   |   |   pixel474 <= 5
|   |   |   |   |   |   |   |   |   |   |   |   |   |   |   |   |   |   |   |   |   |   |   pixel543 <= 177
|   |   |   |   |   |   |   |   |   |   |   |   |   |   |   |   |   |   |   |   |   |   |   |   pixel193 <= 8
|   |   |   |   |   |   |   |   |   |   |   |   |   |   |   |   |   |   |   |   |   |   |   |   |   pixel509 <= 11
|   |   |   |   |   |   |   |   |   |   |   |   |   |   |   |   |   |   |   |   |   |   |   |   |   |   pixel373 <= 1
|   |   |   |   |   |   |   |   |   |   |   |   |   |   |   |   |   |   |   |   |   |   |   |   |   |   |   pixel553 <= 85
|   |   |   |   |   |   |   |   |   |   |   |   |   |   |   |   |   |   |   |   |   |   |   |   |   |   |   |   pixel405 <= 252
|   |   |   |   |   |   |   |   |   |   |   |   |   |   |   |   |   |   |   |   |   |   |   |   |   |   |   |   |   pixel748 <= 183
|   |   |   |   |   |   |   |   |   |   |   |   |   |   |   |   |   |   |   |   |   |   |   |   |   |   |   |   |   |   pixel263 <= 14
|   |   |   |   |   |   |   |   |   |   |   |   |   |   |   |   |   |   |   |   |   |   |   |   |   |   |   |   |   |   |   pixel375 <= 82: 7 (10.0/4.0)
|   |   |   |   |   |   |   |   |   |   |   |   |   |   |   |   |   |   |   |   |   |   |   |   |   |   |   |   |   |   |   pixel375 > 82: 9 (8.0)
|   |   |   |   |   |   |   |   |   |   |   |   |   |   |   |   |   |   |   |   |   |   |   |   |   |   |   |   |   |   pixel263 > 14: 7 (73.0/1.0)
|   |   |   |   |   |   |   |   |   |   |   |   |   |   |   |   |   |   |   |   |   |   |   |   |   |   |   |   |   pixel748 > 183: 9 (3.0)
|   |   |   |   |   |   |   |   |   |   |   |   |   |   |   |   |   |   |   |   |   |   |   |   |   |   |   |   pixel405 > 252
|   |   |   |   |   |   |   |   |   |   |   |   |   |   |   |   |   |   |   |   |   |   |   |   |   |   |   |   |   pixel239 <= 159: 4 (2.0)
|   |   |   |   |   |   |   |   |   |   |   |   |   |   |   |   |   |   |   |   |   |   |   |   |   |   |   |   |   pixel239 > 159: 2 (2.0/1.0)
|   |   |   |   |   |   |   |   |   |   |   |   |   |   |   |   |   |   |   |   |   |   |   |   |   |   |   pixel553 > 85: 2 (3.0)
|   |   |   |   |   |   |   |   |   |   |   |   |   |   |   |   |   |   |   |   |   |   |   |   |   |   pixel373 > 1
|   |   |   |   |   |   |   |   |   |   |   |   |   |   |   |   |   |   |   |   |   |   |   |   |   |   |   pixel187 <= 42
|   |   |   |   |   |   |   |   |   |   |   |   |   |   |   |   |   |   |   |   |   |   |   |   |   |   |   |   pixel444 <= 64
|   |   |   |   |   |   |   |   |   |   |   |   |   |   |   |   |   |   |   |   |   |   |   |   |   |   |   |   |   pixel501 <= 31
|   |   |   |   |   |   |   |   |   |   |   |   |   |   |   |   |   |   |   |   |   |   |   |   |   |   |   |   |   |   pixel387 <= 142
|   |   |   |   |   |   |   |   |   |   |   |   |   |   |   |   |   |   |   |   |   |   |   |   |   |   |   |   |   |   |   pixel434 <= 1
|   |   |   |   |   |   |   |   |   |   |   |   |   |   |   |   |   |   |   |   |   |   |   |   |   |   |   |   |   |   |   |   pixel553 <= 46: 7 (9.0)
|   |   |   |   |   |   |   |   |   |   |   |   |   |   |   |   |   |   |   |   |   |   |   |   |   |   |   |   |   |   |   |   pixel553 > 46: 9 (3.0)
|   |   |   |   |   |   |   |   |   |   |   |   |   |   |   |   |   |   |   |   |   |   |   |   |   |   |   |   |   |   |   pixel434 > 1
|   |   |   |   |   |   |   |   |   |   |   |   |   |   |   |   |   |   |   |   |   |   |   |   |   |   |   |   |   |   |   |   pixel459 <= 10
|   |   |   |   |   |   |   |   |   |   |   |   |   |   |   |   |   |   |   |   |   |   |   |   |   |   |   |   |   |   |   |   |   pixel179 <= 75: 4 (4.0/2.0)
|   |   |   |   |   |   |   |   |   |   |   |   |   |   |   |   |   |   |   |   |   |   |   |   |   |   |   |   |   |   |   |   |   pixel179 > 75: 7 (2.0)
|   |   |   |   |   |   |   |   |   |   |   |   |   |   |   |   |   |   |   |   |   |   |   |   |   |   |   |   |   |   |   |   pixel459 > 10: 9 (61.0/2.0)
|   |   |   |   |   |   |   |   |   |   |   |   |   |   |   |   |   |   |   |   |   |   |   |   |   |   |   |   |   |   pixel387 > 142: 2 (2.0/1.0)
|   |   |   |   |   |   |   |   |   |   |   |   |   |   |   |   |   |   |   |   |   |   |   |   |   |   |   |   |   pixel501 > 31: 7 (2.0)
|   |   |   |   |   |   |   |   |   |   |   |   |   |   |   |   |   |   |   |   |   |   |   |   |   |   |   |   pixel444 > 64: 7 (2.0)
|   |   |   |   |   |   |   |   |   |   |   |   |   |   |   |   |   |   |   |   |   |   |   |   |   |   |   pixel187 > 42: 4 (6.0/1.0)
|   |   |   |   |   |   |   |   |   |   |   |   |   |   |   |   |   |   |   |   |   |   |   |   |   pixel509 > 11: 2 (2.0)
|   |   |   |   |   |   |   |   |   |   |   |   |   |   |   |   |   |   |   |   |   |   |   |   pixel193 > 8: 4 (2.0)
|   |   |   |   |   |   |   |   |   |   |   |   |   |   |   |   |   |   |   |   |   |   |   pixel543 > 177
|   |   |   |   |   |   |   |   |   |   |   |   |   |   |   |   |   |   |   |   |   |   |   |   pixel213 <= 14
|   |   |   |   |   |   |   |   |   |   |   |   |   |   |   |   |   |   |   |   |   |   |   |   |   pixel349 <= 115
|   |   |   |   |   |   |   |   |   |   |   |   |   |   |   |   |   |   |   |   |   |   |   |   |   |   pixel288 <= 6: 2 (3.0)
|   |   |   |   |   |   |   |   |   |   |   |   |   |   |   |   |   |   |   |   |   |   |   |   |   |   pixel288 > 6: 3 (2.0/1.0)
|   |   |   |   |   |   |   |   |   |   |   |   |   |   |   |   |   |   |   |   |   |   |   |   |   pixel349 > 115: 0 (2.0)
|   |   |   |   |   |   |   |   |   |   |   |   |   |   |   |   |   |   |   |   |   |   |   |   pixel213 > 14: 7 (2.0/1.0)
|   |   |   |   |   |   |   |   |   |   |   |   |   |   |   |   |   |   |   |   |   |   pixel474 > 5: 2 (3.0)
|   |   |   |   |   |   |   |   |   |   |   |   |   |   |   |   |   |   |   |   |   pixel162 > 2: 4 (10.0)
|   |   |   |   |   |   |   |   |   |   |   |   |   |   |   |   |   |   |   |   pixel126 > 18: 4 (3.0/1.0)
|   |   |   |   |   |   |   |   |   |   |   |   |   |   |   |   |   |   pixel192 > 28
|   |   |   |   |   |   |   |   |   |   |   |   |   |   |   |   |   |   |   pixel576 <= 253: 4 (21.0)
|   |   |   |   |   |   |   |   |   |   |   |   |   |   |   |   |   |   |   pixel576 > 253: 8 (3.0)
|   |   |   |   |   |   |   |   |   |   |   |   |   |   |   |   |   pixel186 > 76: 4 (35.0/1.0)
|   |   |   |   |   |   |   |   |   |   |   |   |   |   |   |   pixel147 > 5
|   |   |   |   |   |   |   |   |   |   |   |   |   |   |   |   |   pixel233 <= 126: 2 (4.0)
|   |   |   |   |   |   |   |   |   |   |   |   |   |   |   |   |   pixel233 > 126: 3 (2.0/1.0)
|   |   |   |   |   |   |   |   |   |   |   |   |   |   |   pixel557 > 5: 2 (6.0)
|   |   |   |   |   |   |   |   |   |   |   |   |   pixel133 > 177
|   |   |   |   |   |   |   |   |   |   |   |   |   |   pixel299 <= 85: 6 (9.0)
|   |   |   |   |   |   |   |   |   |   |   |   |   |   pixel299 > 85: 4 (7.0)
|   |   |   |   |   |   |   |   |   |   |   pixel94 > 9
|   |   |   |   |   |   |   |   |   |   |   |   pixel399 <= 4
|   |   |   |   |   |   |   |   |   |   |   |   |   pixel182 <= 70: 6 (21.0)
|   |   |   |   |   |   |   |   |   |   |   |   |   pixel182 > 70: 2 (5.0)
|   |   |   |   |   |   |   |   |   |   |   |   pixel399 > 4: 4 (4.0)
|   |   |   |   |   |   |   |   |   |   pixel156 > 99
|   |   |   |   |   |   |   |   |   |   |   pixel544 <= 63
|   |   |   |   |   |   |   |   |   |   |   |   pixel483 <= 57
|   |   |   |   |   |   |   |   |   |   |   |   |   pixel327 <= 2
|   |   |   |   |   |   |   |   |   |   |   |   |   |   pixel354 <= 103
|   |   |   |   |   |   |   |   |   |   |   |   |   |   |   pixel304 <= 12
|   |   |   |   |   |   |   |   |   |   |   |   |   |   |   |   pixel513 <= 23
|   |   |   |   |   |   |   |   |   |   |   |   |   |   |   |   |   pixel323 <= 12: 5 (29.0/1.0)
|   |   |   |   |   |   |   |   |   |   |   |   |   |   |   |   |   pixel323 > 12
|   |   |   |   |   |   |   |   |   |   |   |   |   |   |   |   |   |   pixel191 <= 52: 3 (11.0/1.0)
|   |   |   |   |   |   |   |   |   |   |   |   |   |   |   |   |   |   pixel191 > 52: 5 (2.0)
|   |   |   |   |   |   |   |   |   |   |   |   |   |   |   |   pixel513 > 23
|   |   |   |   |   |   |   |   |   |   |   |   |   |   |   |   |   pixel126 <= 14: 8 (2.0)
|   |   |   |   |   |   |   |   |   |   |   |   |   |   |   |   |   pixel126 > 14: 4 (2.0/1.0)
|   |   |   |   |   |   |   |   |   |   |   |   |   |   |   pixel304 > 12: 8 (2.0)
|   |   |   |   |   |   |   |   |   |   |   |   |   |   pixel354 > 103: 9 (3.0/1.0)
|   |   |   |   |   |   |   |   |   |   |   |   |   pixel327 > 2
|   |   |   |   |   |   |   |   |   |   |   |   |   |   pixel638 <= 1
|   |   |   |   |   |   |   |   |   |   |   |   |   |   |   pixel158 <= 2
|   |   |   |   |   |   |   |   |   |   |   |   |   |   |   |   pixel213 <= 86: 4 (16.0)
|   |   |   |   |   |   |   |   |   |   |   |   |   |   |   |   pixel213 > 86: 9 (2.0)
|   |   |   |   |   |   |   |   |   |   |   |   |   |   |   pixel158 > 2
|   |   |   |   |   |   |   |   |   |   |   |   |   |   |   |   pixel601 <= 12: 9 (15.0/1.0)
|   |   |   |   |   |   |   |   |   |   |   |   |   |   |   |   pixel601 > 12: 8 (11.0/1.0)
|   |   |   |   |   |   |   |   |   |   |   |   |   |   pixel638 > 1: 2 (2.0)
|   |   |   |   |   |   |   |   |   |   |   |   pixel483 > 57: 2 (5.0/1.0)
|   |   |   |   |   |   |   |   |   |   |   pixel544 > 63
|   |   |   |   |   |   |   |   |   |   |   |   pixel435 <= 2
|   |   |   |   |   |   |   |   |   |   |   |   |   pixel379 <= 4
|   |   |   |   |   |   |   |   |   |   |   |   |   |   pixel463 <= 55
|   |   |   |   |   |   |   |   |   |   |   |   |   |   |   pixel380 <= 17
|   |   |   |   |   |   |   |   |   |   |   |   |   |   |   |   pixel629 <= 11: 4 (4.0/1.0)
|   |   |   |   |   |   |   |   |   |   |   |   |   |   |   |   pixel629 > 11: 0 (36.0/1.0)
|   |   |   |   |   |   |   |   |   |   |   |   |   |   |   pixel380 > 17: 6 (2.0)
|   |   |   |   |   |   |   |   |   |   |   |   |   |   pixel463 > 55
|   |   |   |   |   |   |   |   |   |   |   |   |   |   |   pixel129 <= 151: 2 (3.0)
|   |   |   |   |   |   |   |   |   |   |   |   |   |   |   pixel129 > 151: 6 (2.0)
|   |   |   |   |   |   |   |   |   |   |   |   |   pixel379 > 4: 8 (4.0/1.0)
|   |   |   |   |   |   |   |   |   |   |   |   pixel435 > 2
|   |   |   |   |   |   |   |   |   |   |   |   |   pixel682 <= 100
|   |   |   |   |   |   |   |   |   |   |   |   |   |   pixel430 <= 253
|   |   |   |   |   |   |   |   |   |   |   |   |   |   |   pixel413 <= 29
|   |   |   |   |   |   |   |   |   |   |   |   |   |   |   |   pixel404 <= 2
|   |   |   |   |   |   |   |   |   |   |   |   |   |   |   |   |   pixel345 <= 9
|   |   |   |   |   |   |   |   |   |   |   |   |   |   |   |   |   |   pixel405 <= 60: 2 (12.0)
|   |   |   |   |   |   |   |   |   |   |   |   |   |   |   |   |   |   pixel405 > 60: 8 (2.0)
|   |   |   |   |   |   |   |   |   |   |   |   |   |   |   |   |   pixel345 > 9: 8 (2.0)
|   |   |   |   |   |   |   |   |   |   |   |   |   |   |   |   pixel404 > 2: 8 (43.0/1.0)
|   |   |   |   |   |   |   |   |   |   |   |   |   |   |   pixel413 > 29: 6 (7.0/1.0)
|   |   |   |   |   |   |   |   |   |   |   |   |   |   pixel430 > 253: 6 (4.0)
|   |   |   |   |   |   |   |   |   |   |   |   |   pixel682 > 100
|   |   |   |   |   |   |   |   |   |   |   |   |   |   pixel159 <= 150: 4 (2.0/1.0)
|   |   |   |   |   |   |   |   |   |   |   |   |   |   pixel159 > 150: 7 (2.0)
|   |   |   |   |   |   |   |   |   pixel623 > 2
|   |   |   |   |   |   |   |   |   |   pixel156 <= 51
|   |   |   |   |   |   |   |   |   |   |   pixel358 <= 9: 5 (34.0)
|   |   |   |   |   |   |   |   |   |   |   pixel358 > 9: 0 (2.0/1.0)
|   |   |   |   |   |   |   |   |   |   pixel156 > 51
|   |   |   |   |   |   |   |   |   |   |   pixel511 <= 2: 3 (6.0/1.0)
|   |   |   |   |   |   |   |   |   |   |   pixel511 > 2: 2 (30.0)
|   |   |   |   |   |   |   |   pixel68 > 0: 6 (46.0)
|   |   |   |   |   |   |   pixel212 > 20
|   |   |   |   |   |   |   |   pixel382 <= 2
|   |   |   |   |   |   |   |   |   pixel385 <= 3
|   |   |   |   |   |   |   |   |   |   pixel380 <= 94
|   |   |   |   |   |   |   |   |   |   |   pixel383 <= 19
|   |   |   |   |   |   |   |   |   |   |   |   pixel131 <= 0
|   |   |   |   |   |   |   |   |   |   |   |   |   pixel502 <= 4
|   |   |   |   |   |   |   |   |   |   |   |   |   |   pixel350 <= 206
|   |   |   |   |   |   |   |   |   |   |   |   |   |   |   pixel443 <= 168
|   |   |   |   |   |   |   |   |   |   |   |   |   |   |   |   pixel357 <= 2
|   |   |   |   |   |   |   |   |   |   |   |   |   |   |   |   |   pixel148 <= 24
|   |   |   |   |   |   |   |   |   |   |   |   |   |   |   |   |   |   pixel353 <= 2
|   |   |   |   |   |   |   |   |   |   |   |   |   |   |   |   |   |   |   pixel327 <= 51
|   |   |   |   |   |   |   |   |   |   |   |   |   |   |   |   |   |   |   |   pixel330 <= 46
|   |   |   |   |   |   |   |   |   |   |   |   |   |   |   |   |   |   |   |   |   pixel544 <= 166
|   |   |   |   |   |   |   |   |   |   |   |   |   |   |   |   |   |   |   |   |   |   pixel351 <= 8: 5 (445.0/13.0)
|   |   |   |   |   |   |   |   |   |   |   |   |   |   |   |   |   |   |   |   |   |   pixel351 > 8
|   |   |   |   |   |   |   |   |   |   |   |   |   |   |   |   |   |   |   |   |   |   |   pixel239 <= 242: 3 (4.0)
|   |   |   |   |   |   |   |   |   |   |   |   |   |   |   |   |   |   |   |   |   |   |   pixel239 > 242: 5 (11.0)
|   |   |   |   |   |   |   |   |   |   |   |   |   |   |   |   |   |   |   |   |   pixel544 > 166
|   |   |   |   |   |   |   |   |   |   |   |   |   |   |   |   |   |   |   |   |   |   pixel487 <= 252: 5 (13.0/1.0)
|   |   |   |   |   |   |   |   |   |   |   |   |   |   |   |   |   |   |   |   |   |   pixel487 > 252
|   |   |   |   |   |   |   |   |   |   |   |   |   |   |   |   |   |   |   |   |   |   |   pixel218 <= 115: 6 (7.0)
|   |   |   |   |   |   |   |   |   |   |   |   |   |   |   |   |   |   |   |   |   |   |   pixel218 > 115: 5 (2.0)
|   |   |   |   |   |   |   |   |   |   |   |   |   |   |   |   |   |   |   |   pixel330 > 46
|   |   |   |   |   |   |   |   |   |   |   |   |   |   |   |   |   |   |   |   |   pixel409 <= 8: 5 (3.0)
|   |   |   |   |   |   |   |   |   |   |   |   |   |   |   |   |   |   |   |   |   pixel409 > 8: 9 (2.0)
|   |   |   |   |   |   |   |   |   |   |   |   |   |   |   |   |   |   |   pixel327 > 51
|   |   |   |   |   |   |   |   |   |   |   |   |   |   |   |   |   |   |   |   pixel247 <= 1: 9 (6.0)
|   |   |   |   |   |   |   |   |   |   |   |   |   |   |   |   |   |   |   |   pixel247 > 1: 5 (4.0)
|   |   |   |   |   |   |   |   |   |   |   |   |   |   |   |   |   |   pixel353 > 2
|   |   |   |   |   |   |   |   |   |   |   |   |   |   |   |   |   |   |   pixel177 <= 1
|   |   |   |   |   |   |   |   |   |   |   |   |   |   |   |   |   |   |   |   pixel187 <= 17: 5 (3.0)
|   |   |   |   |   |   |   |   |   |   |   |   |   |   |   |   |   |   |   |   pixel187 > 17: 3 (3.0)
|   |   |   |   |   |   |   |   |   |   |   |   |   |   |   |   |   |   |   pixel177 > 1: 7 (2.0/1.0)
|   |   |   |   |   |   |   |   |   |   |   |   |   |   |   |   |   pixel148 > 24
|   |   |   |   |   |   |   |   |   |   |   |   |   |   |   |   |   |   pixel160 <= 78: 3 (4.0)
|   |   |   |   |   |   |   |   |   |   |   |   |   |   |   |   |   |   pixel160 > 78: 5 (2.0)
|   |   |   |   |   |   |   |   |   |   |   |   |   |   |   |   pixel357 > 2
|   |   |   |   |   |   |   |   |   |   |   |   |   |   |   |   |   pixel238 <= 242: 8 (2.0)
|   |   |   |   |   |   |   |   |   |   |   |   |   |   |   |   |   pixel238 > 242
|   |   |   |   |   |   |   |   |   |   |   |   |   |   |   |   |   |   pixel295 <= 106: 9 (4.0/1.0)
|   |   |   |   |   |   |   |   |   |   |   |   |   |   |   |   |   |   pixel295 > 106: 5 (2.0)
|   |   |   |   |   |   |   |   |   |   |   |   |   |   |   pixel443 > 168
|   |   |   |   |   |   |   |   |   |   |   |   |   |   |   |   pixel216 <= 3: 3 (4.0/1.0)
|   |   |   |   |   |   |   |   |   |   |   |   |   |   |   |   pixel216 > 3: 0 (2.0/1.0)
|   |   |   |   |   |   |   |   |   |   |   |   |   |   pixel350 > 206
|   |   |   |   |   |   |   |   |   |   |   |   |   |   |   pixel515 <= 0
|   |   |   |   |   |   |   |   |   |   |   |   |   |   |   |   pixel220 <= 28
|   |   |   |   |   |   |   |   |   |   |   |   |   |   |   |   |   pixel546 <= 221
|   |   |   |   |   |   |   |   |   |   |   |   |   |   |   |   |   |   pixel215 <= 253: 3 (61.0/3.0)
|   |   |   |   |   |   |   |   |   |   |   |   |   |   |   |   |   |   pixel215 > 253: 2 (2.0/1.0)
|   |   |   |   |   |   |   |   |   |   |   |   |   |   |   |   |   pixel546 > 221: 1 (2.0)
|   |   |   |   |   |   |   |   |   |   |   |   |   |   |   |   pixel220 > 28: 5 (8.0)
|   |   |   |   |   |   |   |   |   |   |   |   |   |   |   pixel515 > 0
|   |   |   |   |   |   |   |   |   |   |   |   |   |   |   |   pixel435 <= 84
|   |   |   |   |   |   |   |   |   |   |   |   |   |   |   |   |   pixel159 <= 113
|   |   |   |   |   |   |   |   |   |   |   |   |   |   |   |   |   |   pixel244 <= 9: 2 (9.0/1.0)
|   |   |   |   |   |   |   |   |   |   |   |   |   |   |   |   |   |   pixel244 > 9: 5 (7.0)
|   |   |   |   |   |   |   |   |   |   |   |   |   |   |   |   |   pixel159 > 113: 6 (3.0)
|   |   |   |   |   |   |   |   |   |   |   |   |   |   |   |   pixel435 > 84
|   |   |   |   |   |   |   |   |   |   |   |   |   |   |   |   |   pixel626 <= 105: 8 (8.0)
|   |   |   |   |   |   |   |   |   |   |   |   |   |   |   |   |   pixel626 > 105: 5 (2.0)
|   |   |   |   |   |   |   |   |   |   |   |   |   pixel502 > 4
|   |   |   |   |   |   |   |   |   |   |   |   |   |   pixel157 <= 4: 2 (7.0)
|   |   |   |   |   |   |   |   |   |   |   |   |   |   pixel157 > 4: 5 (2.0/1.0)
|   |   |   |   |   |   |   |   |   |   |   |   pixel131 > 0
|   |   |   |   |   |   |   |   |   |   |   |   |   pixel544 <= 17
|   |   |   |   |   |   |   |   |   |   |   |   |   |   pixel213 <= 253: 5 (14.0)
|   |   |   |   |   |   |   |   |   |   |   |   |   |   pixel213 > 253: 6 (2.0/1.0)
|   |   |   |   |   |   |   |   |   |   |   |   |   pixel544 > 17
|   |   |   |   |   |   |   |   |   |   |   |   |   |   pixel572 <= 14: 1 (3.0/1.0)
|   |   |   |   |   |   |   |   |   |   |   |   |   |   pixel572 > 14
|   |   |   |   |   |   |   |   |   |   |   |   |   |   |   pixel262 <= 23
|   |   |   |   |   |   |   |   |   |   |   |   |   |   |   |   pixel294 <= 47
|   |   |   |   |   |   |   |   |   |   |   |   |   |   |   |   |   pixel127 <= 16: 8 (2.0)
|   |   |   |   |   |   |   |   |   |   |   |   |   |   |   |   |   pixel127 > 16: 6 (2.0)
|   |   |   |   |   |   |   |   |   |   |   |   |   |   |   |   pixel294 > 47: 6 (45.0/1.0)
|   |   |   |   |   |   |   |   |   |   |   |   |   |   |   pixel262 > 23: 8 (3.0/1.0)
|   |   |   |   |   |   |   |   |   |   |   pixel383 > 19
|   |   |   |   |   |   |   |   |   |   |   |   pixel321 <= 94
|   |   |   |   |   |   |   |   |   |   |   |   |   pixel497 <= 18: 9 (7.0)
|   |   |   |   |   |   |   |   |   |   |   |   |   pixel497 > 18: 2 (3.0)
|   |   |   |   |   |   |   |   |   |   |   |   pixel321 > 94: 0 (6.0/1.0)
|   |   |   |   |   |   |   |   |   |   pixel380 > 94
|   |   |   |   |   |   |   |   |   |   |   pixel555 <= 1
|   |   |   |   |   |   |   |   |   |   |   |   pixel436 <= 192
|   |   |   |   |   |   |   |   |   |   |   |   |   pixel208 <= 135: 8 (12.0)
|   |   |   |   |   |   |   |   |   |   |   |   |   pixel208 > 135: 7 (2.0)
|   |   |   |   |   |   |   |   |   |   |   |   pixel436 > 192
|   |   |   |   |   |   |   |   |   |   |   |   |   pixel552 <= 33
|   |   |   |   |   |   |   |   |   |   |   |   |   |   pixel206 <= 7
|   |   |   |   |   |   |   |   |   |   |   |   |   |   |   pixel686 <= 20
|   |   |   |   |   |   |   |   |   |   |   |   |   |   |   |   pixel716 <= 21
|   |   |   |   |   |   |   |   |   |   |   |   |   |   |   |   |   pixel209 <= 128: 4 (18.0)
|   |   |   |   |   |   |   |   |   |   |   |   |   |   |   |   |   pixel209 > 128: 9 (2.0)
|   |   |   |   |   |   |   |   |   |   |   |   |   |   |   |   pixel716 > 21: 9 (2.0)
|   |   |   |   |   |   |   |   |   |   |   |   |   |   |   pixel686 > 20
|   |   |   |   |   |   |   |   |   |   |   |   |   |   |   |   pixel262 <= 26: 9 (5.0)
|   |   |   |   |   |   |   |   |   |   |   |   |   |   |   |   pixel262 > 26: 7 (4.0)
|   |   |   |   |   |   |   |   |   |   |   |   |   |   pixel206 > 7: 7 (15.0)
|   |   |   |   |   |   |   |   |   |   |   |   |   pixel552 > 33: 8 (3.0)
|   |   |   |   |   |   |   |   |   |   |   pixel555 > 1: 2 (3.0/1.0)
|   |   |   |   |   |   |   |   |   pixel385 > 3
|   |   |   |   |   |   |   |   |   |   pixel464 <= 5
|   |   |   |   |   |   |   |   |   |   |   pixel536 <= 51
|   |   |   |   |   |   |   |   |   |   |   |   pixel600 <= 7
|   |   |   |   |   |   |   |   |   |   |   |   |   pixel159 <= 76
|   |   |   |   |   |   |   |   |   |   |   |   |   |   pixel203 <= 4
|   |   |   |   |   |   |   |   |   |   |   |   |   |   |   pixel495 <= 62: 5 (4.0)
|   |   |   |   |   |   |   |   |   |   |   |   |   |   |   pixel495 > 62: 9 (7.0/1.0)
|   |   |   |   |   |   |   |   |   |   |   |   |   |   pixel203 > 4: 7 (2.0)
|   |   |   |   |   |   |   |   |   |   |   |   |   pixel159 > 76: 0 (2.0/1.0)
|   |   |   |   |   |   |   |   |   |   |   |   pixel600 > 7
|   |   |   |   |   |   |   |   |   |   |   |   |   pixel325 <= 249
|   |   |   |   |   |   |   |   |   |   |   |   |   |   pixel437 <= 6: 0 (93.0/1.0)
|   |   |   |   |   |   |   |   |   |   |   |   |   |   pixel437 > 6: 8 (3.0/1.0)
|   |   |   |   |   |   |   |   |   |   |   |   |   pixel325 > 249: 3 (2.0/1.0)
|   |   |   |   |   |   |   |   |   |   |   pixel536 > 51: 2 (2.0)
|   |   |   |   |   |   |   |   |   |   pixel464 > 5
|   |   |   |   |   |   |   |   |   |   |   pixel539 <= 38
|   |   |   |   |   |   |   |   |   |   |   |   pixel542 <= 140
|   |   |   |   |   |   |   |   |   |   |   |   |   pixel655 <= 242
|   |   |   |   |   |   |   |   |   |   |   |   |   |   pixel176 <= 8
|   |   |   |   |   |   |   |   |   |   |   |   |   |   |   pixel277 <= 6
|   |   |   |   |   |   |   |   |   |   |   |   |   |   |   |   pixel351 <= 2
|   |   |   |   |   |   |   |   |   |   |   |   |   |   |   |   |   pixel155 <= 213
|   |   |   |   |   |   |   |   |   |   |   |   |   |   |   |   |   |   pixel455 <= 253: 9 (60.0/1.0)
|   |   |   |   |   |   |   |   |   |   |   |   |   |   |   |   |   |   pixel455 > 253
|   |   |   |   |   |   |   |   |   |   |   |   |   |   |   |   |   |   |   pixel215 <= 8: 4 (3.0)
|   |   |   |   |   |   |   |   |   |   |   |   |   |   |   |   |   |   |   pixel215 > 8: 9 (3.0)
|   |   |   |   |   |   |   |   |   |   |   |   |   |   |   |   |   pixel155 > 213: 4 (3.0/1.0)
|   |   |   |   |   |   |   |   |   |   |   |   |   |   |   |   pixel351 > 2: 4 (2.0)
|   |   |   |   |   |   |   |   |   |   |   |   |   |   |   pixel277 > 6: 4 (5.0)
|   |   |   |   |   |   |   |   |   |   |   |   |   |   pixel176 > 8: 7 (3.0/1.0)
|   |   |   |   |   |   |   |   |   |   |   |   |   pixel655 > 242: 8 (5.0)
|   |   |   |   |   |   |   |   |   |   |   |   pixel542 > 140
|   |   |   |   |   |   |   |   |   |   |   |   |   pixel264 <= 2: 2 (4.0)
|   |   |   |   |   |   |   |   |   |   |   |   |   pixel264 > 2: 6 (2.0/1.0)
|   |   |   |   |   |   |   |   |   |   |   pixel539 > 38: 2 (16.0/1.0)
|   |   |   |   |   |   |   |   pixel382 > 2
|   |   |   |   |   |   |   |   |   pixel123 <= 0
|   |   |   |   |   |   |   |   |   |   pixel571 <= 37
|   |   |   |   |   |   |   |   |   |   |   pixel595 <= 2
|   |   |   |   |   |   |   |   |   |   |   |   pixel129 <= 2
|   |   |   |   |   |   |   |   |   |   |   |   |   pixel528 <= 1
|   |   |   |   |   |   |   |   |   |   |   |   |   |   pixel444 <= 2
|   |   |   |   |   |   |   |   |   |   |   |   |   |   |   pixel163 <= 1
|   |   |   |   |   |   |   |   |   |   |   |   |   |   |   |   pixel202 <= 10
|   |   |   |   |   |   |   |   |   |   |   |   |   |   |   |   |   pixel156 <= 0
|   |   |   |   |   |   |   |   |   |   |   |   |   |   |   |   |   |   pixel159 <= 1
|   |   |   |   |   |   |   |   |   |   |   |   |   |   |   |   |   |   |   pixel221 <= 7
|   |   |   |   |   |   |   |   |   |   |   |   |   |   |   |   |   |   |   |   pixel151 <= 12
|   |   |   |   |   |   |   |   |   |   |   |   |   |   |   |   |   |   |   |   |   pixel471 <= 3
|   |   |   |   |   |   |   |   |   |   |   |   |   |   |   |   |   |   |   |   |   |   pixel211 <= 0
|   |   |   |   |   |   |   |   |   |   |   |   |   |   |   |   |   |   |   |   |   |   |   pixel301 <= 5
|   |   |   |   |   |   |   |   |   |   |   |   |   |   |   |   |   |   |   |   |   |   |   |   pixel219 <= 5
|   |   |   |   |   |   |   |   |   |   |   |   |   |   |   |   |   |   |   |   |   |   |   |   |   pixel602 <= 190: 4 (28.0/1.0)
|   |   |   |   |   |   |   |   |   |   |   |   |   |   |   |   |   |   |   |   |   |   |   |   |   pixel602 > 190: 9 (4.0/1.0)
|   |   |   |   |   |   |   |   |   |   |   |   |   |   |   |   |   |   |   |   |   |   |   |   pixel219 > 5: 5 (2.0/1.0)
|   |   |   |   |   |   |   |   |   |   |   |   |   |   |   |   |   |   |   |   |   |   |   pixel301 > 5
|   |   |   |   |   |   |   |   |   |   |   |   |   |   |   |   |   |   |   |   |   |   |   |   pixel660 <= 141: 9 (40.0)
|   |   |   |   |   |   |   |   |   |   |   |   |   |   |   |   |   |   |   |   |   |   |   |   pixel660 > 141: 4 (3.0/1.0)
|   |   |   |   |   |   |   |   |   |   |   |   |   |   |   |   |   |   |   |   |   |   pixel211 > 0
|   |   |   |   |   |   |   |   |   |   |   |   |   |   |   |   |   |   |   |   |   |   |   pixel213 <= 2
|   |   |   |   |   |   |   |   |   |   |   |   |   |   |   |   |   |   |   |   |   |   |   |   pixel574 <= 60
|   |   |   |   |   |   |   |   |   |   |   |   |   |   |   |   |   |   |   |   |   |   |   |   |   pixel292 <= 253
|   |   |   |   |   |   |   |   |   |   |   |   |   |   |   |   |   |   |   |   |   |   |   |   |   |   pixel247 <= 95
|   |   |   |   |   |   |   |   |   |   |   |   |   |   |   |   |   |   |   |   |   |   |   |   |   |   |   pixel322 <= 241
|   |   |   |   |   |   |   |   |   |   |   |   |   |   |   |   |   |   |   |   |   |   |   |   |   |   |   |   pixel209 <= 3: 4 (2.0)
|   |   |   |   |   |   |   |   |   |   |   |   |   |   |   |   |   |   |   |   |   |   |   |   |   |   |   |   pixel209 > 3
|   |   |   |   |   |   |   |   |   |   |   |   |   |   |   |   |   |   |   |   |   |   |   |   |   |   |   |   |   pixel442 <= 39: 9 (68.0)
|   |   |   |   |   |   |   |   |   |   |   |   |   |   |   |   |   |   |   |   |   |   |   |   |   |   |   |   |   pixel442 > 39
|   |   |   |   |   |   |   |   |   |   |   |   |   |   |   |   |   |   |   |   |   |   |   |   |   |   |   |   |   |   pixel208 <= 254: 7 (3.0)
|   |   |   |   |   |   |   |   |   |   |   |   |   |   |   |   |   |   |   |   |   |   |   |   |   |   |   |   |   |   pixel208 > 254: 9 (2.0)
|   |   |   |   |   |   |   |   |   |   |   |   |   |   |   |   |   |   |   |   |   |   |   |   |   |   |   pixel322 > 241: 3 (2.0/1.0)
|   |   |   |   |   |   |   |   |   |   |   |   |   |   |   |   |   |   |   |   |   |   |   |   |   |   pixel247 > 95: 4 (2.0)
|   |   |   |   |   |   |   |   |   |   |   |   |   |   |   |   |   |   |   |   |   |   |   |   |   pixel292 > 253: 4 (6.0)
|   |   |   |   |   |   |   |   |   |   |   |   |   |   |   |   |   |   |   |   |   |   |   |   pixel574 > 60: 4 (27.0/1.0)
|   |   |   |   |   |   |   |   |   |   |   |   |   |   |   |   |   |   |   |   |   |   |   pixel213 > 2
|   |   |   |   |   |   |   |   |   |   |   |   |   |   |   |   |   |   |   |   |   |   |   |   pixel377 <= 136
|   |   |   |   |   |   |   |   |   |   |   |   |   |   |   |   |   |   |   |   |   |   |   |   |   pixel554 <= 100
|   |   |   |   |   |   |   |   |   |   |   |   |   |   |   |   |   |   |   |   |   |   |   |   |   |   pixel373 <= 0
|   |   |   |   |   |   |   |   |   |   |   |   |   |   |   |   |   |   |   |   |   |   |   |   |   |   |   pixel375 <= 47
|   |   |   |   |   |   |   |   |   |   |   |   |   |   |   |   |   |   |   |   |   |   |   |   |   |   |   |   pixel371 <= 17
|   |   |   |   |   |   |   |   |   |   |   |   |   |   |   |   |   |   |   |   |   |   |   |   |   |   |   |   |   pixel665 <= 60
|   |   |   |   |   |   |   |   |   |   |   |   |   |   |   |   |   |   |   |   |   |   |   |   |   |   |   |   |   |   pixel374 <= 55
|   |   |   |   |   |   |   |   |   |   |   |   |   |   |   |   |   |   |   |   |   |   |   |   |   |   |   |   |   |   |   pixel349 <= 9
|   |   |   |   |   |   |   |   |   |   |   |   |   |   |   |   |   |   |   |   |   |   |   |   |   |   |   |   |   |   |   |   pixel465 <= 112
|   |   |   |   |   |   |   |   |   |   |   |   |   |   |   |   |   |   |   |   |   |   |   |   |   |   |   |   |   |   |   |   |   pixel572 <= 93: 3 (18.0/2.0)
|   |   |   |   |   |   |   |   |   |   |   |   |   |   |   |   |   |   |   |   |   |   |   |   |   |   |   |   |   |   |   |   |   pixel572 > 93: 7 (2.0)
|   |   |   |   |   |   |   |   |   |   |   |   |   |   |   |   |   |   |   |   |   |   |   |   |   |   |   |   |   |   |   |   pixel465 > 112
|   |   |   |   |   |   |   |   |   |   |   |   |   |   |   |   |   |   |   |   |   |   |   |   |   |   |   |   |   |   |   |   |   pixel492 <= 37: 3 (5.0)
|   |   |   |   |   |   |   |   |   |   |   |   |   |   |   |   |   |   |   |   |   |   |   |   |   |   |   |   |   |   |   |   |   pixel492 > 37
|   |   |   |   |   |   |   |   |   |   |   |   |   |   |   |   |   |   |   |   |   |   |   |   |   |   |   |   |   |   |   |   |   |   pixel709 <= 12: 7 (100.0/2.0)
|   |   |   |   |   |   |   |   |   |   |   |   |   |   |   |   |   |   |   |   |   |   |   |   |   |   |   |   |   |   |   |   |   |   pixel709 > 12: 3 (7.0/1.0)
|   |   |   |   |   |   |   |   |   |   |   |   |   |   |   |   |   |   |   |   |   |   |   |   |   |   |   |   |   |   |   pixel349 > 9: 9 (3.0/1.0)
|   |   |   |   |   |   |   |   |   |   |   |   |   |   |   |   |   |   |   |   |   |   |   |   |   |   |   |   |   |   pixel374 > 55: 9 (3.0)
|   |   |   |   |   |   |   |   |   |   |   |   |   |   |   |   |   |   |   |   |   |   |   |   |   |   |   |   |   pixel665 > 60: 2 (2.0)
|   |   |   |   |   |   |   |   |   |   |   |   |   |   |   |   |   |   |   |   |   |   |   |   |   |   |   |   pixel371 > 17: 9 (94.0/3.0)
|   |   |   |   |   |   |   |   |   |   |   |   |   |   |   |   |   |   |   |   |   |   |   |   |   |   |   pixel375 > 47
|   |   |   |   |   |   |   |   |   |   |   |   |   |   |   |   |   |   |   |   |   |   |   |   |   |   |   |   pixel179 <= 67
|   |   |   |   |   |   |   |   |   |   |   |   |   |   |   |   |   |   |   |   |   |   |   |   |   |   |   |   |   pixel206 <= 9: 9 (286.0/10.0)
|   |   |   |   |   |   |   |   |   |   |   |   |   |   |   |   |   |   |   |   |   |   |   |   |   |   |   |   |   pixel206 > 9: 7 (4.0/1.0)
|   |   |   |   |   |   |   |   |   |   |   |   |   |   |   |   |   |   |   |   |   |   |   |   |   |   |   |   pixel179 > 67: 4 (3.0/2.0)
|   |   |   |   |   |   |   |   |   |   |   |   |   |   |   |   |   |   |   |   |   |   |   |   |   |   pixel373 > 0
|   |   |   |   |   |   |   |   |   |   |   |   |   |   |   |   |   |   |   |   |   |   |   |   |   |   |   pixel438 <= 6
|   |   |   |   |   |   |   |   |   |   |   |   |   |   |   |   |   |   |   |   |   |   |   |   |   |   |   |   pixel153 <= 31
|   |   |   |   |   |   |   |   |   |   |   |   |   |   |   |   |   |   |   |   |   |   |   |   |   |   |   |   |   pixel545 <= 155
|   |   |   |   |   |   |   |   |   |   |   |   |   |   |   |   |   |   |   |   |   |   |   |   |   |   |   |   |   |   pixel663 <= 159: 9 (18.0)
|   |   |   |   |   |   |   |   |   |   |   |   |   |   |   |   |   |   |   |   |   |   |   |   |   |   |   |   |   |   pixel663 > 159: 5 (2.0/1.0)
|   |   |   |   |   |   |   |   |   |   |   |   |   |   |   |   |   |   |   |   |   |   |   |   |   |   |   |   |   pixel545 > 155: 8 (4.0)
|   |   |   |   |   |   |   |   |   |   |   |   |   |   |   |   |   |   |   |   |   |   |   |   |   |   |   |   pixel153 > 31: 4 (2.0/1.0)
|   |   |   |   |   |   |   |   |   |   |   |   |   |   |   |   |   |   |   |   |   |   |   |   |   |   |   pixel438 > 6
|   |   |   |   |   |   |   |   |   |   |   |   |   |   |   |   |   |   |   |   |   |   |   |   |   |   |   |   pixel350 <= 1
|   |   |   |   |   |   |   |   |   |   |   |   |   |   |   |   |   |   |   |   |   |   |   |   |   |   |   |   |   pixel220 <= 25
|   |   |   |   |   |   |   |   |   |   |   |   |   |   |   |   |   |   |   |   |   |   |   |   |   |   |   |   |   |   pixel324 <= 249
|   |   |   |   |   |   |   |   |   |   |   |   |   |   |   |   |   |   |   |   |   |   |   |   |   |   |   |   |   |   |   pixel210 <= 5
|   |   |   |   |   |   |   |   |   |   |   |   |   |   |   |   |   |   |   |   |   |   |   |   |   |   |   |   |   |   |   |   pixel185 <= 174: 9 (84.0/2.0)
|   |   |   |   |   |   |   |   |   |   |   |   |   |   |   |   |   |   |   |   |   |   |   |   |   |   |   |   |   |   |   |   pixel185 > 174
|   |   |   |   |   |   |   |   |   |   |   |   |   |   |   |   |   |   |   |   |   |   |   |   |   |   |   |   |   |   |   |   |   pixel486 <= 5: 4 (7.0)
|   |   |   |   |   |   |   |   |   |   |   |   |   |   |   |   |   |   |   |   |   |   |   |   |   |   |   |   |   |   |   |   |   pixel486 > 5: 9 (3.0)
|   |   |   |   |   |   |   |   |   |   |   |   |   |   |   |   |   |   |   |   |   |   |   |   |   |   |   |   |   |   |   pixel210 > 5: 9 (1482.0/23.0)
|   |   |   |   |   |   |   |   |   |   |   |   |   |   |   |   |   |   |   |   |   |   |   |   |   |   |   |   |   |   pixel324 > 249
|   |   |   |   |   |   |   |   |   |   |   |   |   |   |   |   |   |   |   |   |   |   |   |   |   |   |   |   |   |   |   pixel574 <= 41: 9 (15.0/1.0)
|   |   |   |   |   |   |   |   |   |   |   |   |   |   |   |   |   |   |   |   |   |   |   |   |   |   |   |   |   |   |   pixel574 > 41: 7 (3.0)
|   |   |   |   |   |   |   |   |   |   |   |   |   |   |   |   |   |   |   |   |   |   |   |   |   |   |   |   |   pixel220 > 25
|   |   |   |   |   |   |   |   |   |   |   |   |   |   |   |   |   |   |   |   |   |   |   |   |   |   |   |   |   |   pixel552 <= 7
|   |   |   |   |   |   |   |   |   |   |   |   |   |   |   |   |   |   |   |   |   |   |   |   |   |   |   |   |   |   |   pixel715 <= 53: 9 (15.0/1.0)
|   |   |   |   |   |   |   |   |   |   |   |   |   |   |   |   |   |   |   |   |   |   |   |   |   |   |   |   |   |   |   pixel715 > 53: 7 (2.0)
|   |   |   |   |   |   |   |   |   |   |   |   |   |   |   |   |   |   |   |   |   |   |   |   |   |   |   |   |   |   pixel552 > 7: 8 (2.0)
|   |   |   |   |   |   |   |   |   |   |   |   |   |   |   |   |   |   |   |   |   |   |   |   |   |   |   |   pixel350 > 1
|   |   |   |   |   |   |   |   |   |   |   |   |   |   |   |   |   |   |   |   |   |   |   |   |   |   |   |   |   pixel689 <= 84
|   |   |   |   |   |   |   |   |   |   |   |   |   |   |   |   |   |   |   |   |   |   |   |   |   |   |   |   |   |   pixel332 <= 28
|   |   |   |   |   |   |   |   |   |   |   |   |   |   |   |   |   |   |   |   |   |   |   |   |   |   |   |   |   |   |   pixel383 <= 66: 4 (4.0/1.0)
|   |   |   |   |   |   |   |   |   |   |   |   |   |   |   |   |   |   |   |   |   |   |   |   |   |   |   |   |   |   |   pixel383 > 66: 9 (29.0)
|   |   |   |   |   |   |   |   |   |   |   |   |   |   |   |   |   |   |   |   |   |   |   |   |   |   |   |   |   |   pixel332 > 28: 4 (2.0)
|   |   |   |   |   |   |   |   |   |   |   |   |   |   |   |   |   |   |   |   |   |   |   |   |   |   |   |   |   pixel689 > 84
|   |   |   |   |   |   |   |   |   |   |   |   |   |   |   |   |   |   |   |   |   |   |   |   |   |   |   |   |   |   pixel186 <= 119: 4 (2.0)
|   |   |   |   |   |   |   |   |   |   |   |   |   |   |   |   |   |   |   |   |   |   |   |   |   |   |   |   |   |   pixel186 > 119: 8 (2.0)
|   |   |   |   |   |   |   |   |   |   |   |   |   |   |   |   |   |   |   |   |   |   |   |   |   pixel554 > 100
|   |   |   |   |   |   |   |   |   |   |   |   |   |   |   |   |   |   |   |   |   |   |   |   |   |   pixel687 <= 12
|   |   |   |   |   |   |   |   |   |   |   |   |   |   |   |   |   |   |   |   |   |   |   |   |   |   |   pixel412 <= 185
|   |   |   |   |   |   |   |   |   |   |   |   |   |   |   |   |   |   |   |   |   |   |   |   |   |   |   |   pixel233 <= 48: 2 (3.0)
|   |   |   |   |   |   |   |   |   |   |   |   |   |   |   |   |   |   |   |   |   |   |   |   |   |   |   |   pixel233 > 48: 3 (2.0)
|   |   |   |   |   |   |   |   |   |   |   |   |   |   |   |   |   |   |   |   |   |   |   |   |   |   |   pixel412 > 185: 9 (18.0)
|   |   |   |   |   |   |   |   |   |   |   |   |   |   |   |   |   |   |   |   |   |   |   |   |   |   pixel687 > 12
|   |   |   |   |   |   |   |   |   |   |   |   |   |   |   |   |   |   |   |   |   |   |   |   |   |   |   pixel327 <= 142: 5 (3.0)
|   |   |   |   |   |   |   |   |   |   |   |   |   |   |   |   |   |   |   |   |   |   |   |   |   |   |   pixel327 > 142: 8 (3.0)
|   |   |   |   |   |   |   |   |   |   |   |   |   |   |   |   |   |   |   |   |   |   |   |   pixel377 > 136
|   |   |   |   |   |   |   |   |   |   |   |   |   |   |   |   |   |   |   |   |   |   |   |   |   pixel543 <= 27
|   |   |   |   |   |   |   |   |   |   |   |   |   |   |   |   |   |   |   |   |   |   |   |   |   |   pixel461 <= 17: 7 (10.0/1.0)
|   |   |   |   |   |   |   |   |   |   |   |   |   |   |   |   |   |   |   |   |   |   |   |   |   |   pixel461 > 17
|   |   |   |   |   |   |   |   |   |   |   |   |   |   |   |   |   |   |   |   |   |   |   |   |   |   |   pixel322 <= 196
|   |   |   |   |   |   |   |   |   |   |   |   |   |   |   |   |   |   |   |   |   |   |   |   |   |   |   |   pixel190 <= 36
|   |   |   |   |   |   |   |   |   |   |   |   |   |   |   |   |   |   |   |   |   |   |   |   |   |   |   |   |   pixel545 <= 45: 9 (22.0/1.0)
|   |   |   |   |   |   |   |   |   |   |   |   |   |   |   |   |   |   |   |   |   |   |   |   |   |   |   |   |   pixel545 > 45
|   |   |   |   |   |   |   |   |   |   |   |   |   |   |   |   |   |   |   |   |   |   |   |   |   |   |   |   |   |   pixel322 <= 110: 8 (11.0)
|   |   |   |   |   |   |   |   |   |   |   |   |   |   |   |   |   |   |   |   |   |   |   |   |   |   |   |   |   |   pixel322 > 110: 9 (2.0)
|   |   |   |   |   |   |   |   |   |   |   |   |   |   |   |   |   |   |   |   |   |   |   |   |   |   |   |   pixel190 > 36: 5 (2.0)
|   |   |   |   |   |   |   |   |   |   |   |   |   |   |   |   |   |   |   |   |   |   |   |   |   |   |   pixel322 > 196
|   |   |   |   |   |   |   |   |   |   |   |   |   |   |   |   |   |   |   |   |   |   |   |   |   |   |   |   pixel273 <= 195: 4 (7.0)
|   |   |   |   |   |   |   |   |   |   |   |   |   |   |   |   |   |   |   |   |   |   |   |   |   |   |   |   pixel273 > 195: 9 (2.0)
|   |   |   |   |   |   |   |   |   |   |   |   |   |   |   |   |   |   |   |   |   |   |   |   |   pixel543 > 27: 2 (2.0/1.0)
|   |   |   |   |   |   |   |   |   |   |   |   |   |   |   |   |   |   |   |   |   pixel471 > 3
|   |   |   |   |   |   |   |   |   |   |   |   |   |   |   |   |   |   |   |   |   |   pixel260 <= 14
|   |   |   |   |   |   |   |   |   |   |   |   |   |   |   |   |   |   |   |   |   |   |   pixel468 <= 20: 9 (5.0)
|   |   |   |   |   |   |   |   |   |   |   |   |   |   |   |   |   |   |   |   |   |   |   pixel468 > 20: 4 (12.0/2.0)
|   |   |   |   |   |   |   |   |   |   |   |   |   |   |   |   |   |   |   |   |   |   pixel260 > 14
|   |   |   |   |   |   |   |   |   |   |   |   |   |   |   |   |   |   |   |   |   |   |   pixel609 <= 125: 7 (17.0)
|   |   |   |   |   |   |   |   |   |   |   |   |   |   |   |   |   |   |   |   |   |   |   pixel609 > 125: 9 (8.0)
|   |   |   |   |   |   |   |   |   |   |   |   |   |   |   |   |   |   |   |   pixel151 > 12
|   |   |   |   |   |   |   |   |   |   |   |   |   |   |   |   |   |   |   |   |   pixel543 <= 31
|   |   |   |   |   |   |   |   |   |   |   |   |   |   |   |   |   |   |   |   |   |   pixel582 <= 38
|   |   |   |   |   |   |   |   |   |   |   |   |   |   |   |   |   |   |   |   |   |   |   pixel181 <= 107: 4 (5.0)
|   |   |   |   |   |   |   |   |   |   |   |   |   |   |   |   |   |   |   |   |   |   |   pixel181 > 107
|   |   |   |   |   |   |   |   |   |   |   |   |   |   |   |   |   |   |   |   |   |   |   |   pixel262 <= 32
|   |   |   |   |   |   |   |   |   |   |   |   |   |   |   |   |   |   |   |   |   |   |   |   |   pixel439 <= 52: 3 (6.0)
|   |   |   |   |   |   |   |   |   |   |   |   |   |   |   |   |   |   |   |   |   |   |   |   |   pixel439 > 52: 7 (5.0)
|   |   |   |   |   |   |   |   |   |   |   |   |   |   |   |   |   |   |   |   |   |   |   |   pixel262 > 32: 9 (4.0)
|   |   |   |   |   |   |   |   |   |   |   |   |   |   |   |   |   |   |   |   |   |   pixel582 > 38: 5 (2.0/1.0)
|   |   |   |   |   |   |   |   |   |   |   |   |   |   |   |   |   |   |   |   |   pixel543 > 31: 2 (3.0)
|   |   |   |   |   |   |   |   |   |   |   |   |   |   |   |   |   |   |   pixel221 > 7
|   |   |   |   |   |   |   |   |   |   |   |   |   |   |   |   |   |   |   |   pixel634 <= 20
|   |   |   |   |   |   |   |   |   |   |   |   |   |   |   |   |   |   |   |   |   pixel207 <= 35
|   |   |   |   |   |   |   |   |   |   |   |   |   |   |   |   |   |   |   |   |   |   pixel188 <= 40: 4 (19.0)
|   |   |   |   |   |   |   |   |   |   |   |   |   |   |   |   |   |   |   |   |   |   pixel188 > 40: 9 (4.0)
|   |   |   |   |   |   |   |   |   |   |   |   |   |   |   |   |   |   |   |   |   pixel207 > 35: 5 (2.0/1.0)
|   |   |   |   |   |   |   |   |   |   |   |   |   |   |   |   |   |   |   |   pixel634 > 20: 8 (3.0)
|   |   |   |   |   |   |   |   |   |   |   |   |   |   |   |   |   |   pixel159 > 1
|   |   |   |   |   |   |   |   |   |   |   |   |   |   |   |   |   |   |   pixel153 <= 39
|   |   |   |   |   |   |   |   |   |   |   |   |   |   |   |   |   |   |   |   pixel653 <= 50
|   |   |   |   |   |   |   |   |   |   |   |   |   |   |   |   |   |   |   |   |   pixel247 <= 57
|   |   |   |   |   |   |   |   |   |   |   |   |   |   |   |   |   |   |   |   |   |   pixel544 <= 193
|   |   |   |   |   |   |   |   |   |   |   |   |   |   |   |   |   |   |   |   |   |   |   pixel682 <= 10
|   |   |   |   |   |   |   |   |   |   |   |   |   |   |   |   |   |   |   |   |   |   |   |   pixel274 <= 2
|   |   |   |   |   |   |   |   |   |   |   |   |   |   |   |   |   |   |   |   |   |   |   |   |   pixel466 <= 12: 9 (4.0)
|   |   |   |   |   |   |   |   |   |   |   |   |   |   |   |   |   |   |   |   |   |   |   |   |   pixel466 > 12
|   |   |   |   |   |   |   |   |   |   |   |   |   |   |   |   |   |   |   |   |   |   |   |   |   |   pixel237 <= 172: 4 (46.0/1.0)
|   |   |   |   |   |   |   |   |   |   |   |   |   |   |   |   |   |   |   |   |   |   |   |   |   |   pixel237 > 172
|   |   |   |   |   |   |   |   |   |   |   |   |   |   |   |   |   |   |   |   |   |   |   |   |   |   |   pixel325 <= 28: 9 (5.0/1.0)
|   |   |   |   |   |   |   |   |   |   |   |   |   |   |   |   |   |   |   |   |   |   |   |   |   |   |   pixel325 > 28: 4 (3.0)
|   |   |   |   |   |   |   |   |   |   |   |   |   |   |   |   |   |   |   |   |   |   |   |   pixel274 > 2: 9 (2.0)
|   |   |   |   |   |   |   |   |   |   |   |   |   |   |   |   |   |   |   |   |   |   |   pixel682 > 10: 9 (3.0/1.0)
|   |   |   |   |   |   |   |   |   |   |   |   |   |   |   |   |   |   |   |   |   |   pixel544 > 193: 7 (3.0/1.0)
|   |   |   |   |   |   |   |   |   |   |   |   |   |   |   |   |   |   |   |   |   pixel247 > 57: 2 (2.0)
|   |   |   |   |   |   |   |   |   |   |   |   |   |   |   |   |   |   |   |   pixel653 > 50: 3 (2.0/1.0)
|   |   |   |   |   |   |   |   |   |   |   |   |   |   |   |   |   |   |   pixel153 > 39: 1 (2.0/1.0)
|   |   |   |   |   |   |   |   |   |   |   |   |   |   |   |   |   pixel156 > 0
|   |   |   |   |   |   |   |   |   |   |   |   |   |   |   |   |   |   pixel209 <= 53
|   |   |   |   |   |   |   |   |   |   |   |   |   |   |   |   |   |   |   pixel153 <= 53
|   |   |   |   |   |   |   |   |   |   |   |   |   |   |   |   |   |   |   |   pixel684 <= 233
|   |   |   |   |   |   |   |   |   |   |   |   |   |   |   |   |   |   |   |   |   pixel237 <= 229
|   |   |   |   |   |   |   |   |   |   |   |   |   |   |   |   |   |   |   |   |   |   pixel187 <= 253
|   |   |   |   |   |   |   |   |   |   |   |   |   |   |   |   |   |   |   |   |   |   |   pixel543 <= 94
|   |   |   |   |   |   |   |   |   |   |   |   |   |   |   |   |   |   |   |   |   |   |   |   pixel685 <= 104: 4 (136.0/1.0)
|   |   |   |   |   |   |   |   |   |   |   |   |   |   |   |   |   |   |   |   |   |   |   |   pixel685 > 104
|   |   |   |   |   |   |   |   |   |   |   |   |   |   |   |   |   |   |   |   |   |   |   |   |   pixel380 <= 109: 4 (8.0)
|   |   |   |   |   |   |   |   |   |   |   |   |   |   |   |   |   |   |   |   |   |   |   |   |   pixel380 > 109: 9 (3.0)
|   |   |   |   |   |   |   |   |   |   |   |   |   |   |   |   |   |   |   |   |   |   |   pixel543 > 94: 9 (4.0/1.0)
|   |   |   |   |   |   |   |   |   |   |   |   |   |   |   |   |   |   |   |   |   |   pixel187 > 253: 2 (4.0/1.0)
|   |   |   |   |   |   |   |   |   |   |   |   |   |   |   |   |   |   |   |   |   pixel237 > 229
|   |   |   |   |   |   |   |   |   |   |   |   |   |   |   |   |   |   |   |   |   |   pixel159 <= 217: 7 (2.0/1.0)
|   |   |   |   |   |   |   |   |   |   |   |   |   |   |   |   |   |   |   |   |   |   pixel159 > 217: 9 (2.0)
|   |   |   |   |   |   |   |   |   |   |   |   |   |   |   |   |   |   |   |   pixel684 > 233: 9 (4.0)
|   |   |   |   |   |   |   |   |   |   |   |   |   |   |   |   |   |   |   pixel153 > 53
|   |   |   |   |   |   |   |   |   |   |   |   |   |   |   |   |   |   |   |   pixel204 <= 5
|   |   |   |   |   |   |   |   |   |   |   |   |   |   |   |   |   |   |   |   |   pixel356 <= 9: 3 (4.0/1.0)
|   |   |   |   |   |   |   |   |   |   |   |   |   |   |   |   |   |   |   |   |   pixel356 > 9: 9 (3.0)
|   |   |   |   |   |   |   |   |   |   |   |   |   |   |   |   |   |   |   |   pixel204 > 5: 2 (2.0/1.0)
|   |   |   |   |   |   |   |   |   |   |   |   |   |   |   |   |   |   pixel209 > 53
|   |   |   |   |   |   |   |   |   |   |   |   |   |   |   |   |   |   |   pixel651 <= 1
|   |   |   |   |   |   |   |   |   |   |   |   |   |   |   |   |   |   |   |   pixel573 <= 5
|   |   |   |   |   |   |   |   |   |   |   |   |   |   |   |   |   |   |   |   |   pixel508 <= 2
|   |   |   |   |   |   |   |   |   |   |   |   |   |   |   |   |   |   |   |   |   |   pixel465 <= 12
|   |   |   |   |   |   |   |   |   |   |   |   |   |   |   |   |   |   |   |   |   |   |   pixel343 <= 12: 5 (11.0)
|   |   |   |   |   |   |   |   |   |   |   |   |   |   |   |   |   |   |   |   |   |   |   pixel343 > 12: 9 (2.0)
|   |   |   |   |   |   |   |   |   |   |   |   |   |   |   |   |   |   |   |   |   |   pixel465 > 12
|   |   |   |   |   |   |   |   |   |   |   |   |   |   |   |   |   |   |   |   |   |   |   pixel148 <= 4
|   |   |   |   |   |   |   |   |   |   |   |   |   |   |   |   |   |   |   |   |   |   |   |   pixel321 <= 137
|   |   |   |   |   |   |   |   |   |   |   |   |   |   |   |   |   |   |   |   |   |   |   |   |   pixel499 <= 36
|   |   |   |   |   |   |   |   |   |   |   |   |   |   |   |   |   |   |   |   |   |   |   |   |   |   pixel600 <= 14
|   |   |   |   |   |   |   |   |   |   |   |   |   |   |   |   |   |   |   |   |   |   |   |   |   |   |   pixel183 <= 49: 4 (6.0/1.0)
|   |   |   |   |   |   |   |   |   |   |   |   |   |   |   |   |   |   |   |   |   |   |   |   |   |   |   pixel183 > 49
|   |   |   |   |   |   |   |   |   |   |   |   |   |   |   |   |   |   |   |   |   |   |   |   |   |   |   |   pixel546 <= 185
|   |   |   |   |   |   |   |   |   |   |   |   |   |   |   |   |   |   |   |   |   |   |   |   |   |   |   |   |   pixel219 <= 28
|   |   |   |   |   |   |   |   |   |   |   |   |   |   |   |   |   |   |   |   |   |   |   |   |   |   |   |   |   |   pixel212 <= 63
|   |   |   |   |   |   |   |   |   |   |   |   |   |   |   |   |   |   |   |   |   |   |   |   |   |   |   |   |   |   |   pixel214 <= 126: 4 (3.0)
